<?xml version="1.0"?>
<opencv_storage>
<cascade>
  <stageType>BOOST</stageType>
  <featureType>HAAR</featureType>
  <height>24</height>
  <width>32</width>
  <stageParams>
    <boostType>GAB</boostType>
    <minHitRate>9.9500000476837158e-01</minHitRate>
    <maxFalseAlarm>5.0000000000000000e-01</maxFalseAlarm>
    <weightTrimRate>9.4999998807907104e-01</weightTrimRate>
    <maxDepth>1</maxDepth>
    <maxWeakCount>100</maxWeakCount></stageParams>
  <featureParams>
    <maxCatCount>0</maxCatCount>
    <featSize>1</featSize>
    <mode>BASIC</mode></featureParams>
  <stageNum>15</stageNum>
  <stages>
    <!-- stage 0 -->
    <_>
      <maxWeakCount>3</maxWeakCount>
      <stageThreshold>-9.9683642387390137e-01</stageThreshold>
      <weakClassifiers>
        <_>
          <internalNodes>
            0 -1 67 -6.0135625302791595e-02</internalNodes>
          <leafValues>
            8.1250000000000000e-01 -6.9536423683166504e-01</leafValues></_>
        <_>
          <internalNodes>
            0 -1 82 -9.7304896917194128e-04</internalNodes>
          <leafValues>
            6.4446258544921875e-01 -8.0150926113128662e-01</leafValues></_>
        <_>
          <internalNodes>
            0 -1 86 -6.2301504658535123e-04</internalNodes>
          <leafValues>
            5.0003707408905029e-01 -8.1318569183349609e-01</leafValues></_></weakClassifiers></_>
    <!-- stage 1 -->
    <_>
      <maxWeakCount>6</maxWeakCount>
      <stageThreshold>-1.1938272714614868e+00</stageThreshold>
      <weakClassifiers>
        <_>
          <internalNodes>
            0 -1 53 -1.2404610216617584e-01</internalNodes>
          <leafValues>
            8.8423645496368408e-01 -6.7718666791915894e-01</leafValues></_>
        <_>
          <internalNodes>
            0 -1 9 1.5853889286518097e-02</internalNodes>
          <leafValues>
            -5.7623654603958130e-01 6.0312324762344360e-01</leafValues></_>
        <_>
          <internalNodes>
            0 -1 50 -1.3373675942420959e-01</internalNodes>
          <leafValues>
            8.1255537271499634e-01 -3.5677516460418701e-01</leafValues></_>
        <_>
          <internalNodes>
            0 -1 18 -1.5724298357963562e-01</internalNodes>
          <leafValues>
            9.5375818014144897e-01 -3.4714800119400024e-01</leafValues></_>
        <_>
          <internalNodes>
            0 -1 7 -5.4996710969135165e-04</internalNodes>
          <leafValues>
            -8.2323896884918213e-01 4.5176878571510315e-01</leafValues></_>
        <_>
          <internalNodes>
            0 -1 104 -2.9317514417925850e-05</internalNodes>
          <leafValues>
            3.2268521189689636e-01 -8.5758024454116821e-01</leafValues></_></weakClassifiers></_>
    <!-- stage 2 -->
    <_>
      <maxWeakCount>5</maxWeakCount>
      <stageThreshold>-1.4037044048309326e+00</stageThreshold>
      <weakClassifiers>
        <_>
          <internalNodes>
            0 -1 62 -1.1068494617938995e-01</internalNodes>
          <leafValues>
            8.0825245380401611e-01 -6.3719236850738525e-01</leafValues></_>
        <_>
          <internalNodes>
            0 -1 3 1.9095523748546839e-03</internalNodes>
          <leafValues>
            -7.3174977302551270e-01 4.7823235392570496e-01</leafValues></_>
        <_>
          <internalNodes>
            0 -1 84 1.7315979348495603e-03</internalNodes>
          <leafValues>
            -7.7586936950683594e-01 3.6580348014831543e-01</leafValues></_>
        <_>
          <internalNodes>
            0 -1 8 6.8798209540545940e-03</internalNodes>
          <leafValues>
            -7.0984089374542236e-01 3.8526967167854309e-01</leafValues></_>
        <_>
          <internalNodes>
            0 -1 93 -1.2437543773557991e-04</internalNodes>
          <leafValues>
            3.0927515029907227e-01 -8.0012047290802002e-01</leafValues></_></weakClassifiers></_>
    <!-- stage 3 -->
    <_>
      <maxWeakCount>4</maxWeakCount>
      <stageThreshold>-6.0989397764205933e-01</stageThreshold>
      <weakClassifiers>
        <_>
          <internalNodes>
            0 -1 48 -1.0583517700433731e-01</internalNodes>
          <leafValues>
            8.3978641033172607e-01 -5.6484639644622803e-01</leafValues></_>
        <_>
          <internalNodes>
            0 -1 6 1.4605873730033636e-03</internalNodes>
          <leafValues>
            -7.9027086496353149e-01 4.3995642662048340e-01</leafValues></_>
        <_>
          <internalNodes>
            0 -1 103 -5.8745197020471096e-04</internalNodes>
          <leafValues>
            3.7664285302162170e-01 -7.6805770397186279e-01</leafValues></_>
        <_>
          <internalNodes>
            0 -1 15 3.8075612974353135e-04</internalNodes>
          <leafValues>
            -7.7234673500061035e-01 3.6858049035072327e-01</leafValues></_></weakClassifiers></_>
    <!-- stage 4 -->
    <_>
      <maxWeakCount>4</maxWeakCount>
      <stageThreshold>-6.2901407480239868e-01</stageThreshold>
      <weakClassifiers>
        <_>
          <internalNodes>
            0 -1 44 1.2563492357730865e-01</internalNodes>
          <leafValues>
            -4.7704917192459106e-01 7.8316688537597656e-01</leafValues></_>
        <_>
          <internalNodes>
            0 -1 2 7.8165321610867977e-05</internalNodes>
          <leafValues>
            -8.1664228439331055e-01 3.6675184965133667e-01</leafValues></_>
        <_>
          <internalNodes>
            0 -1 80 9.9412864074110985e-04</internalNodes>
          <leafValues>
            -7.7606874704360962e-01 3.2265922427177429e-01</leafValues></_>
        <_>
          <internalNodes>
            0 -1 37 3.5136123187839985e-04</internalNodes>
          <leafValues>
            -7.5380843877792358e-01 3.4201818704605103e-01</leafValues></_></weakClassifiers></_>
    <!-- stage 5 -->
    <_>
      <maxWeakCount>6</maxWeakCount>
      <stageThreshold>-9.9355596303939819e-01</stageThreshold>
      <weakClassifiers>
        <_>
          <internalNodes>
            0 -1 23 -4.0501117473468184e-04</internalNodes>
          <leafValues>
            4.4677138328552246e-01 -7.0322579145431519e-01</leafValues></_>
        <_>
          <internalNodes>
            0 -1 65 -1.2975001335144043e-01</internalNodes>
          <leafValues>
            7.0784044265747070e-01 -4.2854055762290955e-01</leafValues></_>
        <_>
          <internalNodes>
            0 -1 94 -5.9573148610070348e-04</internalNodes>
          <leafValues>
            3.4259566664695740e-01 -7.5196683406829834e-01</leafValues></_>
        <_>
          <internalNodes>
            0 -1 88 -1.9479163456708193e-03</internalNodes>
          <leafValues>
            -7.7742218971252441e-01 3.0560404062271118e-01</leafValues></_>
        <_>
          <internalNodes>
            0 -1 101 -6.7638859036378562e-05</internalNodes>
          <leafValues>
            2.7520594000816345e-01 -7.1459776163101196e-01</leafValues></_>
        <_>
          <internalNodes>
            0 -1 29 1.8573261331766844e-03</internalNodes>
          <leafValues>
            -7.6989841461181641e-01 2.9783099889755249e-01</leafValues></_></weakClassifiers></_>
    <!-- stage 6 -->
    <_>
      <maxWeakCount>7</maxWeakCount>
      <stageThreshold>-8.4467357397079468e-01</stageThreshold>
      <weakClassifiers>
        <_>
          <internalNodes>
            0 -1 54 7.8508019447326660e-02</internalNodes>
          <leafValues>
            -4.2980936169624329e-01 6.0365056991577148e-01</leafValues></_>
        <_>
          <internalNodes>
            0 -1 87 -7.5139483669772744e-04</internalNodes>
          <leafValues>
            3.7294608354568481e-01 -7.0703053474426270e-01</leafValues></_>
        <_>
          <internalNodes>
            0 -1 41 -5.1776152104139328e-03</internalNodes>
          <leafValues>
            -8.7729203701019287e-01 2.2576989233493805e-01</leafValues></_>
        <_>
          <internalNodes>
            0 -1 26 1.5237840125337243e-04</internalNodes>
          <leafValues>
            -7.1387451887130737e-01 2.7339744567871094e-01</leafValues></_>
        <_>
          <internalNodes>
            0 -1 10 1.0866640368476510e-03</internalNodes>
          <leafValues>
            -6.6956847906112671e-01 3.0438503623008728e-01</leafValues></_>
        <_>
          <internalNodes>
            0 -1 40 -2.4485972244292498e-04</internalNodes>
          <leafValues>
            2.4666306376457214e-01 -7.6221185922622681e-01</leafValues></_>
        <_>
          <internalNodes>
            0 -1 82 -9.7012799233198166e-04</internalNodes>
          <leafValues>
            2.5483423471450806e-01 -8.0423706769943237e-01</leafValues></_></weakClassifiers></_>
    <!-- stage 7 -->
    <_>
      <maxWeakCount>8</maxWeakCount>
      <stageThreshold>-1.4568945169448853e+00</stageThreshold>
      <weakClassifiers>
        <_>
          <internalNodes>
            0 -1 42 -1.4551696181297302e-01</internalNodes>
          <leafValues>
            6.6498738527297974e-01 -4.9778172373771667e-01</leafValues></_>
        <_>
          <internalNodes>
            0 -1 34 -1.5035996329970658e-04</internalNodes>
          <leafValues>
            3.1378823518753052e-01 -6.6868919134140015e-01</leafValues></_>
        <_>
          <internalNodes>
            0 -1 59 -1.1020776629447937e-01</internalNodes>
          <leafValues>
            7.4693566560745239e-01 -2.7611118555068970e-01</leafValues></_>
        <_>
          <internalNodes>
            0 -1 90 -2.8976937755942345e-05</internalNodes>
          <leafValues>
            2.9456585645675659e-01 -6.4553809165954590e-01</leafValues></_>
        <_>
          <internalNodes>
            0 -1 108 4.8731784336268902e-03</internalNodes>
          <leafValues>
            2.5262078642845154e-01 -7.5828790664672852e-01</leafValues></_>
        <_>
          <internalNodes>
            0 -1 56 2.2331807762384415e-02</internalNodes>
          <leafValues>
            -2.7062523365020752e-01 7.8217232227325439e-01</leafValues></_>
        <_>
          <internalNodes>
            0 -1 79 -2.4237739853560925e-04</internalNodes>
          <leafValues>
            3.2066124677658081e-01 -7.3498415946960449e-01</leafValues></_>
        <_>
          <internalNodes>
            0 -1 1 3.4128024708479643e-05</internalNodes>
          <leafValues>
            -6.9022744894027710e-01 2.0543505251407623e-01</leafValues></_></weakClassifiers></_>
    <!-- stage 8 -->
    <_>
      <maxWeakCount>7</maxWeakCount>
      <stageThreshold>-7.2760146856307983e-01</stageThreshold>
      <weakClassifiers>
        <_>
          <internalNodes>
            0 -1 27 9.6964498516172171e-04</internalNodes>
          <leafValues>
            -6.6201114654541016e-01 3.6597511172294617e-01</leafValues></_>
        <_>
          <internalNodes>
            0 -1 70 -6.4325049519538879e-02</internalNodes>
          <leafValues>
            6.9592869281768799e-01 -3.2895281910896301e-01</leafValues></_>
        <_>
          <internalNodes>
            0 -1 107 3.2307267247233540e-05</internalNodes>
          <leafValues>
            -6.5278017520904541e-01 3.2562771439552307e-01</leafValues></_>
        <_>
          <internalNodes>
            0 -1 85 -7.9016108065843582e-03</internalNodes>
          <leafValues>
            -7.4552464485168457e-01 2.6323843002319336e-01</leafValues></_>
        <_>
          <internalNodes>
            0 -1 4 5.3622474661096931e-04</internalNodes>
          <leafValues>
            -7.4702888727188110e-01 1.9813290238380432e-01</leafValues></_>
        <_>
          <internalNodes>
            0 -1 13 5.4821735247969627e-03</internalNodes>
          <leafValues>
            2.2243225574493408e-01 -7.4781948328018188e-01</leafValues></_>
        <_>
          <internalNodes>
            0 -1 77 1.1935571674257517e-03</internalNodes>
          <leafValues>
            2.6269432902336121e-01 -6.1501234769821167e-01</leafValues></_></weakClassifiers></_>
    <!-- stage 9 -->
    <_>
      <maxWeakCount>10</maxWeakCount>
      <stageThreshold>-1.1420717239379883e+00</stageThreshold>
      <weakClassifiers>
        <_>
          <internalNodes>
            0 -1 49 -1.5899464488029480e-01</internalNodes>
          <leafValues>
            6.6226136684417725e-01 -3.9032256603240967e-01</leafValues></_>
        <_>
          <internalNodes>
            0 -1 110 -4.9013481475412846e-04</internalNodes>
          <leafValues>
            2.5965821743011475e-01 -6.9767802953720093e-01</leafValues></_>
        <_>
          <internalNodes>
            0 -1 17 -2.0463475957512856e-03</internalNodes>
          <leafValues>
            -7.1110028028488159e-01 1.9409292936325073e-01</leafValues></_>
        <_>
          <internalNodes>
            0 -1 51 -5.2928216755390167e-02</internalNodes>
          <leafValues>
            5.7468646764755249e-01 -2.8723266720771790e-01</leafValues></_>
        <_>
          <internalNodes>
            0 -1 60 -1.6026388853788376e-02</internalNodes>
          <leafValues>
            6.6567987203598022e-01 -2.4889756739139557e-01</leafValues></_>
        <_>
          <internalNodes>
            0 -1 16 3.6412440240383148e-02</internalNodes>
          <leafValues>
            2.5716632604598999e-01 -6.6820663213729858e-01</leafValues></_>
        <_>
          <internalNodes>
            0 -1 35 -6.2410412356257439e-03</internalNodes>
          <leafValues>
            -7.7430212497711182e-01 2.0326267182826996e-01</leafValues></_>
        <_>
          <internalNodes>
            0 -1 64 7.9740971326828003e-02</internalNodes>
          <leafValues>
            -2.5163301825523376e-01 7.7843469381332397e-01</leafValues></_>
        <_>
          <internalNodes>
            0 -1 57 -1.3990473002195358e-02</internalNodes>
          <leafValues>
            8.1171077489852905e-01 -1.5090021491050720e-01</leafValues></_>
        <_>
          <internalNodes>
            0 -1 73 -3.1655468046665192e-03</internalNodes>
          <leafValues>
            -7.1581435203552246e-01 2.3007044196128845e-01</leafValues></_></weakClassifiers></_>
    <!-- stage 10 -->
    <_>
      <maxWeakCount>8</maxWeakCount>
      <stageThreshold>-9.2221349477767944e-01</stageThreshold>
      <weakClassifiers>
        <_>
          <internalNodes>
            0 -1 31 -1.4453397691249847e-01</internalNodes>
          <leafValues>
            5.1363140344619751e-01 -5.0199204683303833e-01</leafValues></_>
        <_>
          <internalNodes>
            0 -1 12 3.3350553712807596e-04</internalNodes>
          <leafValues>
            -7.3218214511871338e-01 2.8627923130989075e-01</leafValues></_>
        <_>
          <internalNodes>
            0 -1 83 1.9554088066797704e-04</internalNodes>
          <leafValues>
            -7.8190386295318604e-01 2.3927055299282074e-01</leafValues></_>
        <_>
          <internalNodes>
            0 -1 38 -2.6165353483520448e-04</internalNodes>
          <leafValues>
            -7.6226741075515747e-01 1.9497236609458923e-01</leafValues></_>
        <_>
          <internalNodes>
            0 -1 75 -1.4653485268354416e-03</internalNodes>
          <leafValues>
            -7.8015899658203125e-01 1.9189184904098511e-01</leafValues></_>
        <_>
          <internalNodes>
            0 -1 81 -4.7988000005716458e-05</internalNodes>
          <leafValues>
            2.5580424070358276e-01 -6.7521512508392334e-01</leafValues></_>
        <_>
          <internalNodes>
            0 -1 109 2.6670147199183702e-03</internalNodes>
          <leafValues>
            1.5447454154491425e-01 -7.3874914646148682e-01</leafValues></_>
        <_>
          <internalNodes>
            0 -1 78 -1.3435017317533493e-03</internalNodes>
          <leafValues>
            2.9672148823738098e-01 -5.2548354864120483e-01</leafValues></_></weakClassifiers></_>
    <!-- stage 11 -->
    <_>
      <maxWeakCount>10</maxWeakCount>
      <stageThreshold>-1.0157923698425293e+00</stageThreshold>
      <weakClassifiers>
        <_>
          <internalNodes>
            0 -1 61 -1.1965514719486237e-01</internalNodes>
          <leafValues>
            3.4821429848670959e-01 -5.2808988094329834e-01</leafValues></_>
        <_>
          <internalNodes>
            0 -1 22 3.1010559177957475e-04</internalNodes>
          <leafValues>
            -6.5002250671386719e-01 2.6050135493278503e-01</leafValues></_>
        <_>
          <internalNodes>
            0 -1 96 -1.2299398658797145e-03</internalNodes>
          <leafValues>
            -7.0869177579879761e-01 2.6884150505065918e-01</leafValues></_>
        <_>
          <internalNodes>
            0 -1 99 -1.9680000841617584e-03</internalNodes>
          <leafValues>
            -7.5584077835083008e-01 1.6273716092109680e-01</leafValues></_>
        <_>
          <internalNodes>
            0 -1 102 -3.5386593663133681e-04</internalNodes>
          <leafValues>
            1.8051801621913910e-01 -6.6381448507308960e-01</leafValues></_>
        <_>
          <internalNodes>
            0 -1 71 -4.5344540849328041e-03</internalNodes>
          <leafValues>
            -7.0482456684112549e-01 2.0491944253444672e-01</leafValues></_>
        <_>
          <internalNodes>
            0 -1 0 3.8852311263326555e-05</internalNodes>
          <leafValues>
            -7.3011904954910278e-01 1.2910458445549011e-01</leafValues></_>
        <_>
          <internalNodes>
            0 -1 25 -1.4453644325840287e-05</internalNodes>
          <leafValues>
            2.0424772799015045e-01 -6.1508524417877197e-01</leafValues></_>
        <_>
          <internalNodes>
            0 -1 74 5.2767537999898195e-04</internalNodes>
          <leafValues>
            -5.6182795763015747e-01 2.4828392267227173e-01</leafValues></_>
        <_>
          <internalNodes>
            0 -1 69 -2.3671861737966537e-02</internalNodes>
          <leafValues>
            5.8568549156188965e-01 -2.8431457281112671e-01</leafValues></_></weakClassifiers></_>
    <!-- stage 12 -->
    <_>
      <maxWeakCount>10</maxWeakCount>
      <stageThreshold>-1.4570161104202271e+00</stageThreshold>
      <weakClassifiers>
        <_>
          <internalNodes>
            0 -1 89 -4.3656519846990705e-04</internalNodes>
          <leafValues>
            2.3023092746734619e-01 -7.3577237129211426e-01</leafValues></_>
        <_>
          <internalNodes>
            0 -1 92 -1.8361996626481414e-04</internalNodes>
          <leafValues>
            2.0831304788589478e-01 -7.0855528116226196e-01</leafValues></_>
        <_>
          <internalNodes>
            0 -1 20 1.0211636545136571e-03</internalNodes>
          <leafValues>
            2.1401755511760712e-01 -7.3978298902511597e-01</leafValues></_>
        <_>
          <internalNodes>
            0 -1 100 7.0878341794013977e-03</internalNodes>
          <leafValues>
            2.2439219057559967e-01 -7.2039532661437988e-01</leafValues></_>
        <_>
          <internalNodes>
            0 -1 24 2.8600670702871867e-05</internalNodes>
          <leafValues>
            -7.2323638200759888e-01 1.8167196214199066e-01</leafValues></_>
        <_>
          <internalNodes>
            0 -1 46 1.5025275945663452e-01</internalNodes>
          <leafValues>
            -4.0760362148284912e-01 3.8939094543457031e-01</leafValues></_>
        <_>
          <internalNodes>
            0 -1 14 5.0185294821858406e-04</internalNodes>
          <leafValues>
            -6.9430935382843018e-01 1.8635705113410950e-01</leafValues></_>
        <_>
          <internalNodes>
            0 -1 66 -3.5595938097685575e-03</internalNodes>
          <leafValues>
            -8.0588471889495850e-01 1.5083380043506622e-01</leafValues></_>
        <_>
          <internalNodes>
            0 -1 5 2.2101914510130882e-04</internalNodes>
          <leafValues>
            -7.1376615762710571e-01 1.5025357902050018e-01</leafValues></_>
        <_>
          <internalNodes>
            0 -1 106 -2.9899669243604876e-05</internalNodes>
          <leafValues>
            1.5064345300197601e-01 -6.7567873001098633e-01</leafValues></_></weakClassifiers></_>
    <!-- stage 13 -->
    <_>
      <maxWeakCount>11</maxWeakCount>
      <stageThreshold>-8.8432759046554565e-01</stageThreshold>
      <weakClassifiers>
        <_>
          <internalNodes>
            0 -1 33 -3.3447987516410649e-04</internalNodes>
          <leafValues>
            2.4705882370471954e-01 -6.5775400400161743e-01</leafValues></_>
        <_>
          <internalNodes>
            0 -1 43 -2.2640278935432434e-01</internalNodes>
          <leafValues>
            5.4780286550521851e-01 -2.9614394903182983e-01</leafValues></_>
        <_>
          <internalNodes>
            0 -1 32 1.4365777373313904e-02</internalNodes>
          <leafValues>
            2.0502436161041260e-01 -6.9391667842864990e-01</leafValues></_>
        <_>
          <internalNodes>
            0 -1 36 5.1370933651924133e-03</internalNodes>
          <leafValues>
            -5.8396226167678833e-01 2.4054372310638428e-01</leafValues></_>
        <_>
          <internalNodes>
            0 -1 72 3.5676470724865794e-04</internalNodes>
          <leafValues>
            2.0924472808837891e-01 -6.3669317960739136e-01</leafValues></_>
        <_>
          <internalNodes>
            0 -1 63 1.1108584702014923e-01</internalNodes>
          <leafValues>
            -2.8495833277702332e-01 5.2627408504486084e-01</leafValues></_>
        <_>
          <internalNodes>
            0 -1 91 2.9401135179796256e-05</internalNodes>
          <leafValues>
            -6.3470047712326050e-01 2.2331550717353821e-01</leafValues></_>
        <_>
          <internalNodes>
            0 -1 19 1.8618020694702864e-03</internalNodes>
          <leafValues>
            1.6516801714897156e-01 -6.7019653320312500e-01</leafValues></_>
        <_>
          <internalNodes>
            0 -1 76 2.2330181673169136e-03</internalNodes>
          <leafValues>
            1.8145744502544403e-01 -6.3807904720306396e-01</leafValues></_>
        <_>
          <internalNodes>
            0 -1 52 -2.0799141377210617e-02</internalNodes>
          <leafValues>
            8.0037838220596313e-01 -1.7489276826381683e-01</leafValues></_>
        <_>
          <internalNodes>
            0 -1 39 1.4291335828602314e-03</internalNodes>
          <leafValues>
            2.0360875129699707e-01 -6.8648117780685425e-01</leafValues></_></weakClassifiers></_>
    <!-- stage 14 -->
    <_>
      <maxWeakCount>13</maxWeakCount>
      <stageThreshold>-1.0673277378082275e+00</stageThreshold>
      <weakClassifiers>
        <_>
          <internalNodes>
            0 -1 95 1.5068829525262117e-03</internalNodes>
          <leafValues>
            -6.6804981231689453e-01 2.0083391666412354e-01</leafValues></_>
        <_>
          <internalNodes>
            0 -1 30 -2.0253044366836548e-01</internalNodes>
          <leafValues>
            5.1488697528839111e-01 -2.7822014689445496e-01</leafValues></_>
        <_>
          <internalNodes>
            0 -1 28 3.5063225368503481e-05</internalNodes>
          <leafValues>
            -6.4407914876937866e-01 2.1250398457050323e-01</leafValues></_>
        <_>
          <internalNodes>
            0 -1 105 -6.6730761318467557e-05</internalNodes>
          <leafValues>
            1.8645563721656799e-01 -6.3823235034942627e-01</leafValues></_>
        <_>
          <internalNodes>
            0 -1 98 1.6136977355927229e-03</internalNodes>
          <leafValues>
            1.9013755023479462e-01 -6.7472422122955322e-01</leafValues></_>
        <_>
          <internalNodes>
            0 -1 97 -1.0887438431382179e-02</internalNodes>
          <leafValues>
            -7.1355193853378296e-01 1.5831287205219269e-01</leafValues></_>
        <_>
          <internalNodes>
            0 -1 47 1.1855499446392059e-01</internalNodes>
          <leafValues>
            -1.8836550414562225e-01 6.5617144107818604e-01</leafValues></_>
        <_>
          <internalNodes>
            0 -1 58 -2.7949556708335876e-02</internalNodes>
          <leafValues>
            5.9133738279342651e-01 -1.9279874861240387e-01</leafValues></_>
        <_>
          <internalNodes>
            0 -1 55 -6.7597581073641777e-03</internalNodes>
          <leafValues>
            7.2408932447433472e-01 -1.7113518714904785e-01</leafValues></_>
        <_>
          <internalNodes>
            0 -1 11 1.3752917293459177e-03</internalNodes>
          <leafValues>
            -7.3175203800201416e-01 1.9130380451679230e-01</leafValues></_>
        <_>
          <internalNodes>
            0 -1 45 -8.3983633667230606e-03</internalNodes>
          <leafValues>
            -6.8879872560501099e-01 1.4113929867744446e-01</leafValues></_>
        <_>
          <internalNodes>
            0 -1 68 2.0149204879999161e-02</internalNodes>
          <leafValues>
            1.4242967963218689e-01 -7.6538670063018799e-01</leafValues></_>
        <_>
          <internalNodes>
            0 -1 21 -1.8648034892976284e-03</internalNodes>
          <leafValues>
            -6.6239237785339355e-01 1.1216574907302856e-01</leafValues></_></weakClassifiers></_></stages>
  <features>
    <_>
      <rects>
        <_>
          0 0 2 1 -1.</_>
        <_>
          1 0 1 1 2.</_></rects>
      <tilted>0</tilted></_>
    <_>
      <rects>
        <_>
          0 0 1 2 -1.</_>
        <_>
          0 1 1 1 2.</_></rects>
      <tilted>0</tilted></_>
    <_>
      <rects>
        <_>
          0 0 2 2 -1.</_>
        <_>
          1 0 1 2 2.</_></rects>
      <tilted>0</tilted></_>
    <_>
      <rects>
        <_>
          0 0 2 24 -1.</_>
        <_>
          1 0 1 24 2.</_></rects>
      <tilted>0</tilted></_>
    <_>
      <rects>
        <_>
          0 0 4 2 -1.</_>
        <_>
          2 0 2 2 2.</_></rects>
      <tilted>0</tilted></_>
    <_>
      <rects>
        <_>
          0 0 2 4 -1.</_>
        <_>
          0 2 2 2 2.</_></rects>
      <tilted>0</tilted></_>
    <_>
      <rects>
        <_>
          0 0 2 10 -1.</_>
        <_>
          0 5 2 5 2.</_></rects>
      <tilted>0</tilted></_>
    <_>
      <rects>
        <_>
          0 0 3 4 -1.</_>
        <_>
          0 2 3 2 2.</_></rects>
      <tilted>0</tilted></_>
    <_>
      <rects>
        <_>
          0 0 3 24 -1.</_>
        <_>
          0 8 3 8 3.</_></rects>
      <tilted>0</tilted></_>
    <_>
      <rects>
        <_>
          0 0 6 24 -1.</_>
        <_>
          3 0 3 24 2.</_></rects>
      <tilted>0</tilted></_>
    <_>
      <rects>
        <_>
          0 0 18 2 -1.</_>
        <_>
          0 1 18 1 2.</_></rects>
      <tilted>0</tilted></_>
    <_>
      <rects>
        <_>
          0 1 6 4 -1.</_>
        <_>
          3 1 3 4 2.</_></rects>
      <tilted>0</tilted></_>
    <_>
      <rects>
        <_>
          0 2 4 2 -1.</_>
        <_>
          2 2 2 2 2.</_></rects>
      <tilted>0</tilted></_>
    <_>
      <rects>
        <_>
          0 4 1 16 -1.</_>
        <_>
          0 12 1 8 2.</_></rects>
      <tilted>0</tilted></_>
    <_>
      <rects>
        <_>
          0 4 2 14 -1.</_>
        <_>
          1 4 1 14 2.</_></rects>
      <tilted>0</tilted></_>
    <_>
      <rects>
        <_>
          0 5 4 4 -1.</_>
        <_>
          2 5 2 4 2.</_></rects>
      <tilted>0</tilted></_>
    <_>
      <rects>
        <_>
          0 5 5 18 -1.</_>
        <_>
          0 11 5 6 3.</_></rects>
      <tilted>0</tilted></_>
    <_>
      <rects>
        <_>
          0 8 2 15 -1.</_>
        <_>
          0 13 2 5 3.</_></rects>
      <tilted>0</tilted></_>
    <_>
      <rects>
        <_>
          0 10 30 6 -1.</_>
        <_>
          10 10 10 6 3.</_></rects>
      <tilted>0</tilted></_>
    <_>
      <rects>
        <_>
          0 12 2 6 -1.</_>
        <_>
          0 14 2 2 3.</_></rects>
      <tilted>0</tilted></_>
    <_>
      <rects>
        <_>
          0 14 3 4 -1.</_>
        <_>
          0 16 3 2 2.</_></rects>
      <tilted>0</tilted></_>
    <_>
      <rects>
        <_>
          0 17 6 6 -1.</_>
        <_>
          0 17 3 3 2.</_>
        <_>
          3 20 3 3 2.</_></rects>
      <tilted>0</tilted></_>
    <_>
      <rects>
        <_>
          0 18 2 4 -1.</_>
        <_>
          1 18 1 4 2.</_></rects>
      <tilted>0</tilted></_>
    <_>
      <rects>
        <_>
          0 20 1 4 -1.</_>
        <_>
          0 22 1 2 2.</_></rects>
      <tilted>0</tilted></_>
    <_>
      <rects>
        <_>
          0 22 2 1 -1.</_>
        <_>
          1 22 1 1 2.</_></rects>
      <tilted>0</tilted></_>
    <_>
      <rects>
        <_>
          0 22 1 2 -1.</_>
        <_>
          0 23 1 1 2.</_></rects>
      <tilted>0</tilted></_>
    <_>
      <rects>
        <_>
          0 22 2 2 -1.</_>
        <_>
          1 22 1 2 2.</_></rects>
      <tilted>0</tilted></_>
    <_>
      <rects>
        <_>
          0 23 6 1 -1.</_>
        <_>
          3 23 3 1 2.</_></rects>
      <tilted>0</tilted></_>
    <_>
      <rects>
        <_>
          1 0 3 2 -1.</_>
        <_>
          1 1 3 1 2.</_></rects>
      <tilted>0</tilted></_>
    <_>
      <rects>
        <_>
          1 0 7 6 -1.</_>
        <_>
          1 3 7 3 2.</_></rects>
      <tilted>0</tilted></_>
    <_>
      <rects>
        <_>
          1 0 18 18 -1.</_>
        <_>
          1 0 9 9 2.</_>
        <_>
          10 9 9 9 2.</_></rects>
      <tilted>0</tilted></_>
    <_>
      <rects>
        <_>
          1 1 20 18 -1.</_>
        <_>
          1 1 10 9 2.</_>
        <_>
          11 10 10 9 2.</_></rects>
      <tilted>0</tilted></_>
    <_>
      <rects>
        <_>
          1 3 4 10 -1.</_>
        <_>
          1 8 4 5 2.</_></rects>
      <tilted>0</tilted></_>
    <_>
      <rects>
        <_>
          1 17 1 6 -1.</_>
        <_>
          1 20 1 3 2.</_></rects>
      <tilted>0</tilted></_>
    <_>
      <rects>
        <_>
          1 22 3 2 -1.</_>
        <_>
          1 23 3 1 2.</_></rects>
      <tilted>0</tilted></_>
    <_>
      <rects>
        <_>
          2 2 3 12 -1.</_>
        <_>
          2 8 3 6 2.</_></rects>
      <tilted>0</tilted></_>
    <_>
      <rects>
        <_>
          2 2 8 6 -1.</_>
        <_>
          6 2 4 6 2.</_></rects>
      <tilted>0</tilted></_>
    <_>
      <rects>
        <_>
          2 3 8 1 -1.</_>
        <_>
          6 3 4 1 2.</_></rects>
      <tilted>0</tilted></_>
    <_>
      <rects>
        <_>
          3 0 4 3 -1.</_>
        <_>
          5 0 2 3 2.</_></rects>
      <tilted>0</tilted></_>
    <_>
      <rects>
        <_>
          3 1 1 4 -1.</_>
        <_>
          3 3 1 2 2.</_></rects>
      <tilted>0</tilted></_>
    <_>
      <rects>
        <_>
          3 12 1 12 -1.</_>
        <_>
          3 18 1 6 2.</_></rects>
      <tilted>0</tilted></_>
    <_>
      <rects>
        <_>
          4 0 24 1 -1.</_>
        <_>
          12 0 8 1 3.</_></rects>
      <tilted>0</tilted></_>
    <_>
      <rects>
        <_>
          4 11 24 8 -1.</_>
        <_>
          12 11 8 8 3.</_></rects>
      <tilted>0</tilted></_>
    <_>
      <rects>
        <_>
          5 10 21 11 -1.</_>
        <_>
          12 10 7 11 3.</_></rects>
      <tilted>0</tilted></_>
    <_>
      <rects>
        <_>
          8 0 15 15 -1.</_>
        <_>
          8 5 15 5 3.</_></rects>
      <tilted>0</tilted></_>
    <_>
      <rects>
        <_>
          10 0 18 1 -1.</_>
        <_>
          19 0 9 1 2.</_></rects>
      <tilted>0</tilted></_>
    <_>
      <rects>
        <_>
          10 2 22 16 -1.</_>
        <_>
          10 2 11 8 2.</_>
        <_>
          21 10 11 8 2.</_></rects>
      <tilted>0</tilted></_>
    <_>
      <rects>
        <_>
          10 3 11 12 -1.</_>
        <_>
          10 7 11 4 3.</_></rects>
      <tilted>0</tilted></_>
    <_>
      <rects>
        <_>
          10 5 11 12 -1.</_>
        <_>
          10 11 11 6 2.</_></rects>
      <tilted>0</tilted></_>
    <_>
      <rects>
        <_>
          10 5 11 18 -1.</_>
        <_>
          10 11 11 6 3.</_></rects>
      <tilted>0</tilted></_>
    <_>
      <rects>
        <_>
          10 5 11 18 -1.</_>
        <_>
          10 14 11 9 2.</_></rects>
      <tilted>0</tilted></_>
    <_>
      <rects>
        <_>
          10 12 11 12 -1.</_>
        <_>
          10 16 11 4 3.</_></rects>
      <tilted>0</tilted></_>
    <_>
      <rects>
        <_>
          10 13 8 4 -1.</_>
        <_>
          10 15 8 2 2.</_></rects>
      <tilted>0</tilted></_>
    <_>
      <rects>
        <_>
          11 1 9 18 -1.</_>
        <_>
          11 10 9 9 2.</_></rects>
      <tilted>0</tilted></_>
    <_>
      <rects>
        <_>
          11 1 12 12 -1.</_>
        <_>
          11 5 12 4 3.</_></rects>
      <tilted>0</tilted></_>
    <_>
      <rects>
        <_>
          11 4 7 6 -1.</_>
        <_>
          11 6 7 2 3.</_></rects>
      <tilted>0</tilted></_>
    <_>
      <rects>
        <_>
          11 4 10 6 -1.</_>
        <_>
          11 6 10 2 3.</_></rects>
      <tilted>0</tilted></_>
    <_>
      <rects>
        <_>
          11 6 10 6 -1.</_>
        <_>
          11 8 10 2 3.</_></rects>
      <tilted>0</tilted></_>
    <_>
      <rects>
        <_>
          11 6 13 4 -1.</_>
        <_>
          11 8 13 2 2.</_></rects>
      <tilted>0</tilted></_>
    <_>
      <rects>
        <_>
          11 7 7 14 -1.</_>
        <_>
          11 14 7 7 2.</_></rects>
      <tilted>0</tilted></_>
    <_>
      <rects>
        <_>
          11 8 12 6 -1.</_>
        <_>
          11 10 12 2 3.</_></rects>
      <tilted>0</tilted></_>
    <_>
      <rects>
        <_>
          12 0 7 20 -1.</_>
        <_>
          12 10 7 10 2.</_></rects>
      <tilted>0</tilted></_>
    <_>
      <rects>
        <_>
          12 1 7 18 -1.</_>
        <_>
          12 10 7 9 2.</_></rects>
      <tilted>0</tilted></_>
    <_>
      <rects>
        <_>
          12 2 11 12 -1.</_>
        <_>
          12 6 11 4 3.</_></rects>
      <tilted>0</tilted></_>
    <_>
      <rects>
        <_>
          12 3 7 12 -1.</_>
        <_>
          12 7 7 4 3.</_></rects>
      <tilted>0</tilted></_>
    <_>
      <rects>
        <_>
          12 4 8 14 -1.</_>
        <_>
          12 11 8 7 2.</_></rects>
      <tilted>0</tilted></_>
    <_>
      <rects>
        <_>
          13 0 15 1 -1.</_>
        <_>
          18 0 5 1 3.</_></rects>
      <tilted>0</tilted></_>
    <_>
      <rects>
        <_>
          13 4 6 14 -1.</_>
        <_>
          13 11 6 7 2.</_></rects>
      <tilted>0</tilted></_>
    <_>
      <rects>
        <_>
          14 0 18 2 -1.</_>
        <_>
          20 0 6 2 3.</_></rects>
      <tilted>0</tilted></_>
    <_>
      <rects>
        <_>
          14 11 3 12 -1.</_>
        <_>
          14 15 3 4 3.</_></rects>
      <tilted>0</tilted></_>
    <_>
      <rects>
        <_>
          15 3 3 14 -1.</_>
        <_>
          15 10 3 7 2.</_></rects>
      <tilted>0</tilted></_>
    <_>
      <rects>
        <_>
          16 0 12 2 -1.</_>
        <_>
          20 0 4 2 3.</_></rects>
      <tilted>0</tilted></_>
    <_>
      <rects>
        <_>
          17 22 14 2 -1.</_>
        <_>
          17 22 7 1 2.</_>
        <_>
          24 23 7 1 2.</_></rects>
      <tilted>0</tilted></_>
    <_>
      <rects>
        <_>
          19 0 8 1 -1.</_>
        <_>
          23 0 4 1 2.</_></rects>
      <tilted>0</tilted></_>
    <_>
      <rects>
        <_>
          19 1 7 4 -1.</_>
        <_>
          19 3 7 2 2.</_></rects>
      <tilted>0</tilted></_>
    <_>
      <rects>
        <_>
          23 21 4 2 -1.</_>
        <_>
          23 22 4 1 2.</_></rects>
      <tilted>0</tilted></_>
    <_>
      <rects>
        <_>
          24 0 2 4 -1.</_>
        <_>
          24 2 2 2 2.</_></rects>
      <tilted>0</tilted></_>
    <_>
      <rects>
        <_>
          24 8 6 6 -1.</_>
        <_>
          27 8 3 6 2.</_></rects>
      <tilted>0</tilted></_>
    <_>
      <rects>
        <_>
          24 9 8 2 -1.</_>
        <_>
          28 9 4 2 2.</_></rects>
      <tilted>0</tilted></_>
    <_>
      <rects>
        <_>
          27 0 4 1 -1.</_>
        <_>
          29 0 2 1 2.</_></rects>
      <tilted>0</tilted></_>
    <_>
      <rects>
        <_>
          27 0 5 4 -1.</_>
        <_>
          27 2 5 2 2.</_></rects>
      <tilted>0</tilted></_>
    <_>
      <rects>
        <_>
          27 20 2 4 -1.</_>
        <_>
          27 22 2 2 2.</_></rects>
      <tilted>0</tilted></_>
    <_>
      <rects>
        <_>
          28 0 4 3 -1.</_>
        <_>
          30 0 2 3 2.</_></rects>
      <tilted>0</tilted></_>
    <_>
      <rects>
        <_>
          28 0 2 8 -1.</_>
        <_>
          28 4 2 4 2.</_></rects>
      <tilted>0</tilted></_>
    <_>
      <rects>
        <_>
          28 0 4 10 -1.</_>
        <_>
          28 5 4 5 2.</_></rects>
      <tilted>0</tilted></_>
    <_>
      <rects>
        <_>
          28 1 4 16 -1.</_>
        <_>
          28 9 4 8 2.</_></rects>
      <tilted>0</tilted></_>
    <_>
      <rects>
        <_>
          28 20 4 4 -1.</_>
        <_>
          30 20 2 4 2.</_></rects>
      <tilted>0</tilted></_>
    <_>
      <rects>
        <_>
          28 22 4 2 -1.</_>
        <_>
          30 22 2 2 2.</_></rects>
      <tilted>0</tilted></_>
    <_>
      <rects>
        <_>
          29 5 2 18 -1.</_>
        <_>
          29 11 2 6 3.</_></rects>
      <tilted>0</tilted></_>
    <_>
      <rects>
        <_>
          29 17 2 6 -1.</_>
        <_>
          29 20 2 3 2.</_></rects>
      <tilted>0</tilted></_>
    <_>
      <rects>
        <_>
          29 22 1 2 -1.</_>
        <_>
          29 23 1 1 2.</_></rects>
      <tilted>0</tilted></_>
    <_>
      <rects>
        <_>
          30 0 1 2 -1.</_>
        <_>
          30 1 1 1 2.</_></rects>
      <tilted>0</tilted></_>
    <_>
      <rects>
        <_>
          30 0 2 2 -1.</_>
        <_>
          31 0 1 2 2.</_></rects>
      <tilted>0</tilted></_>
    <_>
      <rects>
        <_>
          30 0 2 4 -1.</_>
        <_>
          31 0 1 4 2.</_></rects>
      <tilted>0</tilted></_>
    <_>
      <rects>
        <_>
          30 0 2 8 -1.</_>
        <_>
          31 0 1 8 2.</_></rects>
      <tilted>0</tilted></_>
    <_>
      <rects>
        <_>
          30 0 2 6 -1.</_>
        <_>
          30 3 2 3 2.</_></rects>
      <tilted>0</tilted></_>
    <_>
      <rects>
        <_>
          30 2 1 15 -1.</_>
        <_>
          30 7 1 5 3.</_></rects>
      <tilted>0</tilted></_>
    <_>
      <rects>
        <_>
          30 5 2 16 -1.</_>
        <_>
          30 13 2 8 2.</_></rects>
      <tilted>0</tilted></_>
    <_>
      <rects>
        <_>
          30 8 2 14 -1.</_>
        <_>
          30 15 2 7 2.</_></rects>
      <tilted>0</tilted></_>
    <_>
      <rects>
        <_>
          30 9 1 8 -1.</_>
        <_>
          30 13 1 4 2.</_></rects>
      <tilted>0</tilted></_>
    <_>
      <rects>
        <_>
          30 10 2 12 -1.</_>
        <_>
          30 14 2 4 3.</_></rects>
      <tilted>0</tilted></_>
    <_>
      <rects>
        <_>
          30 18 2 2 -1.</_>
        <_>
          31 18 1 2 2.</_></rects>
      <tilted>0</tilted></_>
    <_>
      <rects>
        <_>
          30 20 2 4 -1.</_>
        <_>
          31 20 1 4 2.</_></rects>
      <tilted>0</tilted></_>
    <_>
      <rects>
        <_>
          30 20 2 4 -1.</_>
        <_>
          30 22 2 2 2.</_></rects>
      <tilted>0</tilted></_>
    <_>
      <rects>
        <_>
          30 21 2 3 -1.</_>
        <_>
          31 21 1 3 2.</_></rects>
      <tilted>0</tilted></_>
    <_>
      <rects>
        <_>
          30 22 2 2 -1.</_>
        <_>
          30 23 2 1 2.</_></rects>
      <tilted>0</tilted></_>
    <_>
      <rects>
        <_>
          30 23 2 1 -1.</_>
        <_>
          31 23 1 1 2.</_></rects>
      <tilted>0</tilted></_>
    <_>
      <rects>
        <_>
          31 0 1 2 -1.</_>
        <_>
          31 1 1 1 2.</_></rects>
      <tilted>0</tilted></_>
    <_>
      <rects>
        <_>
          31 4 1 16 -1.</_>
        <_>
          31 12 1 8 2.</_></rects>
      <tilted>0</tilted></_>
    <_>
      <rects>
        <_>
          31 15 1 9 -1.</_>
        <_>
          31 18 1 3 3.</_></rects>
      <tilted>0</tilted></_>
    <_>
      <rects>
        <_>
          31 18 1 6 -1.</_>
        <_>
          31 21 1 3 2.</_></rects>
      <tilted>0</tilted></_></features></cascade>
</opencv_storage>
