<?xml version="1.0"?>
<opencv_storage>
<cascade>
  <stageType>BOOST</stageType>
  <featureType>HAAR</featureType>
  <height>24</height>
  <width>32</width>
  <stageParams>
    <boostType>GAB</boostType>
    <minHitRate>9.9500000476837158e-01</minHitRate>
    <maxFalseAlarm>5.0000000000000000e-01</maxFalseAlarm>
    <weightTrimRate>9.4999998807907104e-01</weightTrimRate>
    <maxDepth>1</maxDepth>
    <maxWeakCount>100</maxWeakCount></stageParams>
  <featureParams>
    <maxCatCount>0</maxCatCount>
    <featSize>1</featSize>
    <mode>BASIC</mode></featureParams>
  <stageNum>20</stageNum>
  <stages>
    <!-- stage 0 -->
    <_>
      <maxWeakCount>31</maxWeakCount>
      <stageThreshold>-8.8810515403747559e-01</stageThreshold>
      <weakClassifiers>
        <_>
          <internalNodes>
            0 -1 415 -8.6916476488113403e-02</internalNodes>
          <leafValues>
            8.6460125446319580e-01 -2.0075282081961632e-02</leafValues></_>
        <_>
          <internalNodes>
            0 -1 533 8.5609462112188339e-03</internalNodes>
          <leafValues>
            -2.0816941559314728e-01 6.8728381395339966e-01</leafValues></_>
        <_>
          <internalNodes>
            0 -1 660 1.1259072273969650e-01</internalNodes>
          <leafValues>
            -2.4922457337379456e-01 4.7630134224891663e-01</leafValues></_>
        <_>
          <internalNodes>
            0 -1 501 1.4766961336135864e-02</internalNodes>
          <leafValues>
            -1.2573778629302979e-01 4.5029252767562866e-01</leafValues></_>
        <_>
          <internalNodes>
            0 -1 152 -2.6768527925014496e-02</internalNodes>
          <leafValues>
            3.8555559515953064e-01 -1.8977576494216919e-01</leafValues></_>
        <_>
          <internalNodes>
            0 -1 485 1.5551081742160022e-04</internalNodes>
          <leafValues>
            -2.9487231373786926e-01 2.0602159202098846e-01</leafValues></_>
        <_>
          <internalNodes>
            0 -1 704 -1.2989363167434931e-03</internalNodes>
          <leafValues>
            3.6825445294380188e-01 -1.3724377751350403e-01</leafValues></_>
        <_>
          <internalNodes>
            0 -1 433 1.0091392323374748e-03</internalNodes>
          <leafValues>
            -1.4630129933357239e-01 3.3694702386856079e-01</leafValues></_>
        <_>
          <internalNodes>
            0 -1 562 2.5480473414063454e-02</internalNodes>
          <leafValues>
            -9.1959252953529358e-02 5.6905388832092285e-01</leafValues></_>
        <_>
          <internalNodes>
            0 -1 883 2.0423937588930130e-02</internalNodes>
          <leafValues>
            -1.6761343181133270e-01 2.5954303145408630e-01</leafValues></_>
        <_>
          <internalNodes>
            0 -1 620 -4.9300063401460648e-02</internalNodes>
          <leafValues>
            5.2960807085037231e-01 -6.8307094275951385e-02</leafValues></_>
        <_>
          <internalNodes>
            0 -1 576 6.7064568400382996e-02</internalNodes>
          <leafValues>
            -1.1078067123889923e-01 3.9015367627143860e-01</leafValues></_>
        <_>
          <internalNodes>
            0 -1 593 -5.6179024279117584e-02</internalNodes>
          <leafValues>
            5.4223275184631348e-01 -9.7948417067527771e-02</leafValues></_>
        <_>
          <internalNodes>
            0 -1 464 6.5178668592125177e-04</internalNodes>
          <leafValues>
            -1.2721604108810425e-01 3.0727145075798035e-01</leafValues></_>
        <_>
          <internalNodes>
            0 -1 836 3.3645381336100399e-04</internalNodes>
          <leafValues>
            -1.2905541062355042e-01 2.9709354043006897e-01</leafValues></_>
        <_>
          <internalNodes>
            0 -1 852 1.7277378356084228e-03</internalNodes>
          <leafValues>
            8.6435087025165558e-02 -5.2382463216781616e-01</leafValues></_>
        <_>
          <internalNodes>
            0 -1 432 -2.7669878676533699e-02</internalNodes>
          <leafValues>
            3.1140199303627014e-01 -1.3182763755321503e-01</leafValues></_>
        <_>
          <internalNodes>
            0 -1 516 5.5410875938832760e-04</internalNodes>
          <leafValues>
            -1.2546359002590179e-01 3.2401731610298157e-01</leafValues></_>
        <_>
          <internalNodes>
            0 -1 144 -2.0825355313718319e-03</internalNodes>
          <leafValues>
            -5.3444093465805054e-01 6.7251816391944885e-02</leafValues></_>
        <_>
          <internalNodes>
            0 -1 1005 -5.9686799068003893e-04</internalNodes>
          <leafValues>
            2.6652234792709351e-01 -1.3971449434757233e-01</leafValues></_>
        <_>
          <internalNodes>
            0 -1 204 -3.6808033473789692e-03</internalNodes>
          <leafValues>
            -5.9189015626907349e-01 5.7123944163322449e-02</leafValues></_>
        <_>
          <internalNodes>
            0 -1 46 -6.9020586088299751e-03</internalNodes>
          <leafValues>
            -4.7689858078956604e-01 5.9223424643278122e-02</leafValues></_>
        <_>
          <internalNodes>
            0 -1 67 -1.2337742000818253e-01</internalNodes>
          <leafValues>
            2.8773960471153259e-01 -1.1489234864711761e-01</leafValues></_>
        <_>
          <internalNodes>
            0 -1 282 -2.0409876108169556e-01</internalNodes>
          <leafValues>
            3.6220771074295044e-01 -1.0321380943059921e-01</leafValues></_>
        <_>
          <internalNodes>
            0 -1 45 1.6314761340618134e-01</internalNodes>
          <leafValues>
            -7.9631783068180084e-02 4.4805037975311279e-01</leafValues></_>
        <_>
          <internalNodes>
            0 -1 650 -1.2466812040656805e-03</internalNodes>
          <leafValues>
            3.0237534642219543e-01 -1.0606681555509567e-01</leafValues></_>
        <_>
          <internalNodes>
            0 -1 716 -1.1273751442786306e-04</internalNodes>
          <leafValues>
            2.5205260515213013e-01 -1.2174917012453079e-01</leafValues></_>
        <_>
          <internalNodes>
            0 -1 584 -1.0925998911261559e-02</internalNodes>
          <leafValues>
            -6.9145339727401733e-01 4.7390028834342957e-02</leafValues></_>
        <_>
          <internalNodes>
            0 -1 122 -2.4234265089035034e-02</internalNodes>
          <leafValues>
            5.3012746572494507e-01 -7.0029199123382568e-02</leafValues></_>
        <_>
          <internalNodes>
            0 -1 838 -5.0815689610317349e-04</internalNodes>
          <leafValues>
            4.4030067324638367e-01 -7.4120648205280304e-02</leafValues></_>
        <_>
          <internalNodes>
            0 -1 992 -5.3966557607054710e-04</internalNodes>
          <leafValues>
            3.5152673721313477e-01 -9.0406872332096100e-02</leafValues></_></weakClassifiers></_>
    <!-- stage 1 -->
    <_>
      <maxWeakCount>29</maxWeakCount>
      <stageThreshold>-8.2869154214859009e-01</stageThreshold>
      <weakClassifiers>
        <_>
          <internalNodes>
            0 -1 496 -7.7445238828659058e-02</internalNodes>
          <leafValues>
            8.5767352581024170e-01 5.9718970209360123e-02</leafValues></_>
        <_>
          <internalNodes>
            0 -1 190 -1.8851566314697266e-01</internalNodes>
          <leafValues>
            7.2781908512115479e-01 -1.6392399370670319e-01</leafValues></_>
        <_>
          <internalNodes>
            0 -1 132 4.6244816621765494e-04</internalNodes>
          <leafValues>
            -3.3935210108757019e-01 3.5407987236976624e-01</leafValues></_>
        <_>
          <internalNodes>
            0 -1 455 -2.2474789619445801e-01</internalNodes>
          <leafValues>
            6.6712141036987305e-01 -1.4391668140888214e-01</leafValues></_>
        <_>
          <internalNodes>
            0 -1 462 -1.4854581654071808e-01</internalNodes>
          <leafValues>
            6.7977809906005859e-01 -1.5075828135013580e-01</leafValues></_>
        <_>
          <internalNodes>
            0 -1 35 -1.2710342183709145e-02</internalNodes>
          <leafValues>
            -4.9975886940956116e-01 1.9664159417152405e-01</leafValues></_>
        <_>
          <internalNodes>
            0 -1 351 4.1808448731899261e-03</internalNodes>
          <leafValues>
            1.0292850434780121e-01 -5.1086813211441040e-01</leafValues></_>
        <_>
          <internalNodes>
            0 -1 645 -1.8236402422189713e-02</internalNodes>
          <leafValues>
            6.0419261455535889e-01 -1.2112500518560410e-01</leafValues></_>
        <_>
          <internalNodes>
            0 -1 81 -6.4605101943016052e-03</internalNodes>
          <leafValues>
            -4.6866741776466370e-01 1.5147851407527924e-01</leafValues></_>
        <_>
          <internalNodes>
            0 -1 1019 -1.9820677116513252e-03</internalNodes>
          <leafValues>
            -4.7201439738273621e-01 9.9787861108779907e-02</leafValues></_>
        <_>
          <internalNodes>
            0 -1 321 1.4194151386618614e-02</internalNodes>
          <leafValues>
            -1.7175801098346710e-01 3.0876761674880981e-01</leafValues></_>
        <_>
          <internalNodes>
            0 -1 881 -6.8367505446076393e-03</internalNodes>
          <leafValues>
            -4.4794738292694092e-01 1.2239011377096176e-01</leafValues></_>
        <_>
          <internalNodes>
            0 -1 1113 -5.7035717181861401e-03</internalNodes>
          <leafValues>
            -5.0045996904373169e-01 8.5958197712898254e-02</leafValues></_>
        <_>
          <internalNodes>
            0 -1 935 2.5214639026671648e-04</internalNodes>
          <leafValues>
            -2.0743881165981293e-01 2.4191312491893768e-01</leafValues></_>
        <_>
          <internalNodes>
            0 -1 94 -3.8552429527044296e-02</internalNodes>
          <leafValues>
            4.1100335121154785e-01 -1.1689206212759018e-01</leafValues></_>
        <_>
          <internalNodes>
            0 -1 279 -6.3579627312719822e-03</internalNodes>
          <leafValues>
            -4.3459156155586243e-01 1.1858551204204559e-01</leafValues></_>
        <_>
          <internalNodes>
            0 -1 685 -5.2578719332814217e-03</internalNodes>
          <leafValues>
            -6.3430529832839966e-01 7.8878812491893768e-02</leafValues></_>
        <_>
          <internalNodes>
            0 -1 224 8.4387082606554031e-03</internalNodes>
          <leafValues>
            9.0278103947639465e-02 -4.8079100251197815e-01</leafValues></_>
        <_>
          <internalNodes>
            0 -1 692 2.7529791623237543e-05</internalNodes>
          <leafValues>
            -2.0911607146263123e-01 2.0665217936038971e-01</leafValues></_>
        <_>
          <internalNodes>
            0 -1 709 5.0250538624823093e-03</internalNodes>
          <leafValues>
            -8.9333787560462952e-02 4.8321723937988281e-01</leafValues></_>
        <_>
          <internalNodes>
            0 -1 487 2.1601947955787182e-03</internalNodes>
          <leafValues>
            9.1403886675834656e-02 -5.0559431314468384e-01</leafValues></_>
        <_>
          <internalNodes>
            0 -1 1130 -2.3236521519720554e-03</internalNodes>
          <leafValues>
            -5.0690490007400513e-01 8.3219431340694427e-02</leafValues></_>
        <_>
          <internalNodes>
            0 -1 796 -2.8940063202753663e-04</internalNodes>
          <leafValues>
            3.4613162279129028e-01 -1.2365868687629700e-01</leafValues></_>
        <_>
          <internalNodes>
            0 -1 936 -2.7564470656216145e-03</internalNodes>
          <leafValues>
            -6.6320943832397461e-01 6.3392020761966705e-02</leafValues></_>
        <_>
          <internalNodes>
            0 -1 921 -2.0400101784616709e-03</internalNodes>
          <leafValues>
            -3.4104928374290466e-01 1.1061410605907440e-01</leafValues></_>
        <_>
          <internalNodes>
            0 -1 443 3.4781680442392826e-03</internalNodes>
          <leafValues>
            -1.4093439280986786e-01 3.0294010043144226e-01</leafValues></_>
        <_>
          <internalNodes>
            0 -1 847 2.2310417145490646e-02</internalNodes>
          <leafValues>
            -6.5955027937889099e-02 6.2648594379425049e-01</leafValues></_>
        <_>
          <internalNodes>
            0 -1 0 1.5489663928747177e-03</internalNodes>
          <leafValues>
            8.3710759878158569e-02 -5.0034034252166748e-01</leafValues></_>
        <_>
          <internalNodes>
            0 -1 212 3.6182887852191925e-03</internalNodes>
          <leafValues>
            9.3455664813518524e-02 -3.9064669609069824e-01</leafValues></_></weakClassifiers></_>
    <!-- stage 2 -->
    <_>
      <maxWeakCount>38</maxWeakCount>
      <stageThreshold>-8.3041703701019287e-01</stageThreshold>
      <weakClassifiers>
        <_>
          <internalNodes>
            0 -1 424 -1.0078981518745422e-01</internalNodes>
          <leafValues>
            8.4226489067077637e-01 1.7252396047115326e-01</leafValues></_>
        <_>
          <internalNodes>
            0 -1 191 -2.9024910926818848e-01</internalNodes>
          <leafValues>
            7.0246094465255737e-01 -7.8029222786426544e-02</leafValues></_>
        <_>
          <internalNodes>
            0 -1 401 2.4711294099688530e-02</internalNodes>
          <leafValues>
            -2.3492178320884705e-01 4.2382991313934326e-01</leafValues></_>
        <_>
          <internalNodes>
            0 -1 107 -8.1250416114926338e-03</internalNodes>
          <leafValues>
            -5.8029323816299438e-01 1.3539837300777435e-01</leafValues></_>
        <_>
          <internalNodes>
            0 -1 1081 -2.2901559714227915e-03</internalNodes>
          <leafValues>
            -5.1607698202133179e-01 1.3073611259460449e-01</leafValues></_>
        <_>
          <internalNodes>
            0 -1 973 6.3954830169677734e-02</internalNodes>
          <leafValues>
            1.1413865536451340e-01 -5.6115233898162842e-01</leafValues></_>
        <_>
          <internalNodes>
            0 -1 281 3.6726210266351700e-02</internalNodes>
          <leafValues>
            1.2776899337768555e-01 -5.8725744485855103e-01</leafValues></_>
        <_>
          <internalNodes>
            0 -1 10 6.7978403531014919e-03</internalNodes>
          <leafValues>
            1.3340912759304047e-01 -4.5374351739883423e-01</leafValues></_>
        <_>
          <internalNodes>
            0 -1 277 -2.0704315975308418e-03</internalNodes>
          <leafValues>
            -5.3750181198120117e-01 8.0879785120487213e-02</leafValues></_>
        <_>
          <internalNodes>
            0 -1 283 3.3105805516242981e-02</internalNodes>
          <leafValues>
            -1.4410394430160522e-01 4.3073838949203491e-01</leafValues></_>
        <_>
          <internalNodes>
            0 -1 515 -1.8638148903846741e-02</internalNodes>
          <leafValues>
            6.6954171657562256e-01 -7.4324190616607666e-02</leafValues></_>
        <_>
          <internalNodes>
            0 -1 565 -3.8205012679100037e-03</internalNodes>
          <leafValues>
            5.6017398834228516e-01 -7.8578345477581024e-02</leafValues></_>
        <_>
          <internalNodes>
            0 -1 1 -3.0408902093768120e-03</internalNodes>
          <leafValues>
            -4.6132460236549377e-01 1.3956379890441895e-01</leafValues></_>
        <_>
          <internalNodes>
            0 -1 480 -1.8658613786101341e-02</internalNodes>
          <leafValues>
            5.0436598062515259e-01 -1.2049662321805954e-01</leafValues></_>
        <_>
          <internalNodes>
            0 -1 381 -3.3426159620285034e-01</internalNodes>
          <leafValues>
            5.9933727979660034e-01 -5.9947438538074493e-02</leafValues></_>
        <_>
          <internalNodes>
            0 -1 1133 -1.6638045199215412e-03</internalNodes>
          <leafValues>
            -4.6651229262351990e-01 1.0436590760946274e-01</leafValues></_>
        <_>
          <internalNodes>
            0 -1 924 -4.7118403017520905e-03</internalNodes>
          <leafValues>
            -4.0730136632919312e-01 1.0898112505674362e-01</leafValues></_>
        <_>
          <internalNodes>
            0 -1 456 -1.4093890786170959e-02</internalNodes>
          <leafValues>
            4.5425814390182495e-01 -1.1202102899551392e-01</leafValues></_>
        <_>
          <internalNodes>
            0 -1 104 3.9996928535401821e-03</internalNodes>
          <leafValues>
            8.6975432932376862e-02 -5.8589428663253784e-01</leafValues></_>
        <_>
          <internalNodes>
            0 -1 91 -5.4081864655017853e-02</internalNodes>
          <leafValues>
            2.8333204984664917e-01 -1.5448118746280670e-01</leafValues></_>
        <_>
          <internalNodes>
            0 -1 375 1.4952819328755140e-03</internalNodes>
          <leafValues>
            9.7819462418556213e-02 -4.3278124928474426e-01</leafValues></_>
        <_>
          <internalNodes>
            0 -1 1104 4.8683704808354378e-03</internalNodes>
          <leafValues>
            1.1158112436532974e-01 -3.4860211610794067e-01</leafValues></_>
        <_>
          <internalNodes>
            0 -1 779 -9.0428795665502548e-03</internalNodes>
          <leafValues>
            -4.2790213227272034e-01 8.6701214313507080e-02</leafValues></_>
        <_>
          <internalNodes>
            0 -1 567 -2.6931971311569214e-02</internalNodes>
          <leafValues>
            7.2326755523681641e-01 -5.8580376207828522e-02</leafValues></_>
        <_>
          <internalNodes>
            0 -1 563 -3.5871863365173340e-03</internalNodes>
          <leafValues>
            4.8555347323417664e-01 -6.8354792892932892e-02</leafValues></_>
        <_>
          <internalNodes>
            0 -1 27 2.5725490413606167e-03</internalNodes>
          <leafValues>
            8.5973545908927917e-02 -4.7726413607597351e-01</leafValues></_>
        <_>
          <internalNodes>
            0 -1 512 -7.0482897572219372e-03</internalNodes>
          <leafValues>
            3.2141870260238647e-01 -1.2413231283426285e-01</leafValues></_>
        <_>
          <internalNodes>
            0 -1 421 -1.8374308943748474e-02</internalNodes>
          <leafValues>
            5.1318383216857910e-01 -6.8762443959712982e-02</leafValues></_>
        <_>
          <internalNodes>
            0 -1 26 -4.4102086685597897e-03</internalNodes>
          <leafValues>
            -4.0372383594512939e-01 9.4048112630844116e-02</leafValues></_>
        <_>
          <internalNodes>
            0 -1 243 -2.4362146854400635e-02</internalNodes>
          <leafValues>
            4.5649701356887817e-01 -8.3241440355777740e-02</leafValues></_>
        <_>
          <internalNodes>
            0 -1 841 1.3824274763464928e-02</internalNodes>
          <leafValues>
            -3.7754774093627930e-02 7.7764242887496948e-01</leafValues></_>
        <_>
          <internalNodes>
            0 -1 217 -1.6562980599701405e-03</internalNodes>
          <leafValues>
            -4.5813286304473877e-01 9.0417392551898956e-02</leafValues></_>
        <_>
          <internalNodes>
            0 -1 858 4.8380017280578613e-02</internalNodes>
          <leafValues>
            -4.2317960411310196e-02 9.4865816831588745e-01</leafValues></_>
        <_>
          <internalNodes>
            0 -1 571 -5.1482371054589748e-03</internalNodes>
          <leafValues>
            4.5213612914085388e-01 -6.5728083252906799e-02</leafValues></_>
        <_>
          <internalNodes>
            0 -1 310 5.5624998640269041e-04</internalNodes>
          <leafValues>
            1.1022166907787323e-01 -3.2070457935333252e-01</leafValues></_>
        <_>
          <internalNodes>
            0 -1 386 3.2463143579661846e-03</internalNodes>
          <leafValues>
            -6.9527700543403625e-02 5.2077180147171021e-01</leafValues></_>
        <_>
          <internalNodes>
            0 -1 138 2.6834991294890642e-03</internalNodes>
          <leafValues>
            9.5989584922790527e-02 -3.7652724981307983e-01</leafValues></_>
        <_>
          <internalNodes>
            0 -1 448 -9.5558203756809235e-03</internalNodes>
          <leafValues>
            -4.5328941941261292e-01 7.1519203484058380e-02</leafValues></_></weakClassifiers></_>
    <!-- stage 3 -->
    <_>
      <maxWeakCount>42</maxWeakCount>
      <stageThreshold>-7.6923328638076782e-01</stageThreshold>
      <weakClassifiers>
        <_>
          <internalNodes>
            0 -1 498 -1.0509365051984787e-01</internalNodes>
          <leafValues>
            8.4155577421188354e-01 1.9504643976688385e-01</leafValues></_>
        <_>
          <internalNodes>
            0 -1 80 -2.7062255144119263e-01</internalNodes>
          <leafValues>
            6.9971042871475220e-01 -6.9808945059776306e-02</leafValues></_>
        <_>
          <internalNodes>
            0 -1 345 1.8878985196352005e-02</internalNodes>
          <leafValues>
            -2.7722588181495667e-01 3.5754626989364624e-01</leafValues></_>
        <_>
          <internalNodes>
            0 -1 559 -1.5353576838970184e-01</internalNodes>
          <leafValues>
            5.6289249658584595e-01 -1.1340352892875671e-01</leafValues></_>
        <_>
          <internalNodes>
            0 -1 246 -2.9484292864799500e-01</internalNodes>
          <leafValues>
            6.7407411336898804e-01 -1.1269254982471466e-01</leafValues></_>
        <_>
          <internalNodes>
            0 -1 265 -1.4188998611643910e-03</internalNodes>
          <leafValues>
            -4.8694139719009399e-01 1.2040833383798599e-01</leafValues></_>
        <_>
          <internalNodes>
            0 -1 525 -5.6716114282608032e-02</internalNodes>
          <leafValues>
            5.1154190301895142e-01 -1.3448135554790497e-01</leafValues></_>
        <_>
          <internalNodes>
            0 -1 266 3.2413224689662457e-03</internalNodes>
          <leafValues>
            1.2251445651054382e-01 -5.1574498414993286e-01</leafValues></_>
        <_>
          <internalNodes>
            0 -1 318 5.2376310341060162e-03</internalNodes>
          <leafValues>
            1.0374557971954346e-01 -5.1470166444778442e-01</leafValues></_>
        <_>
          <internalNodes>
            0 -1 378 -2.4223979562520981e-03</internalNodes>
          <leafValues>
            -5.1504933834075928e-01 1.1214099079370499e-01</leafValues></_>
        <_>
          <internalNodes>
            0 -1 452 3.6873362958431244e-02</internalNodes>
          <leafValues>
            -1.3814538717269897e-01 4.3004903197288513e-01</leafValues></_>
        <_>
          <internalNodes>
            0 -1 1048 1.6637162771075964e-03</internalNodes>
          <leafValues>
            1.1814866214990616e-01 -4.5039194822311401e-01</leafValues></_>
        <_>
          <internalNodes>
            0 -1 172 -1.3330075144767761e-01</internalNodes>
          <leafValues>
            4.6192929148674011e-01 -1.1884741485118866e-01</leafValues></_>
        <_>
          <internalNodes>
            0 -1 1120 -1.0542096570134163e-03</internalNodes>
          <leafValues>
            -4.5200070738792419e-01 1.0467049479484558e-01</leafValues></_>
        <_>
          <internalNodes>
            0 -1 3 -6.6297892481088638e-03</internalNodes>
          <leafValues>
            -5.3333640098571777e-01 7.2583548724651337e-02</leafValues></_>
        <_>
          <internalNodes>
            0 -1 413 1.0727541148662567e-01</internalNodes>
          <leafValues>
            -9.7423560917377472e-02 4.5694658160209656e-01</leafValues></_>
        <_>
          <internalNodes>
            0 -1 453 -5.3198095411062241e-02</internalNodes>
          <leafValues>
            4.8258569836616516e-01 -9.2348568141460419e-02</leafValues></_>
        <_>
          <internalNodes>
            0 -1 197 -2.2055085282772779e-03</internalNodes>
          <leafValues>
            -4.2334187030792236e-01 9.3826547265052795e-02</leafValues></_>
        <_>
          <internalNodes>
            0 -1 566 -9.1927424073219299e-02</internalNodes>
          <leafValues>
            5.7453900575637817e-01 -7.3234692215919495e-02</leafValues></_>
        <_>
          <internalNodes>
            0 -1 997 -1.1935539077967405e-03</internalNodes>
          <leafValues>
            -4.8972961306571960e-01 8.4064930677413940e-02</leafValues></_>
        <_>
          <internalNodes>
            0 -1 316 -4.2642038315534592e-03</internalNodes>
          <leafValues>
            -5.3515857458114624e-01 5.7633347809314728e-02</leafValues></_>
        <_>
          <internalNodes>
            0 -1 951 -1.7899319063872099e-03</internalNodes>
          <leafValues>
            -3.8008993864059448e-01 8.3602480590343475e-02</leafValues></_>
        <_>
          <internalNodes>
            0 -1 587 1.3977919705212116e-02</internalNodes>
          <leafValues>
            8.9439578354358673e-02 -3.9976215362548828e-01</leafValues></_>
        <_>
          <internalNodes>
            0 -1 812 -6.3004652038216591e-03</internalNodes>
          <leafValues>
            -3.5161986947059631e-01 9.2907890677452087e-02</leafValues></_>
        <_>
          <internalNodes>
            0 -1 739 -1.4788301289081573e-01</internalNodes>
          <leafValues>
            4.6443083882331848e-01 -8.7180502712726593e-02</leafValues></_>
        <_>
          <internalNodes>
            0 -1 558 -5.3970282897353172e-03</internalNodes>
          <leafValues>
            5.7748907804489136e-01 -5.1658540964126587e-02</leafValues></_>
        <_>
          <internalNodes>
            0 -1 880 -2.4000713601708412e-03</internalNodes>
          <leafValues>
            -4.9439075589179993e-01 7.8657820820808411e-02</leafValues></_>
        <_>
          <internalNodes>
            0 -1 653 -1.6799753066152334e-03</internalNodes>
          <leafValues>
            3.1077501177787781e-01 -1.0803592205047607e-01</leafValues></_>
        <_>
          <internalNodes>
            0 -1 376 4.8041116679087281e-04</internalNodes>
          <leafValues>
            8.0002687871456146e-02 -4.2426222562789917e-01</leafValues></_>
        <_>
          <internalNodes>
            0 -1 249 4.8771269619464874e-02</internalNodes>
          <leafValues>
            -6.1892636120319366e-02 5.5848532915115356e-01</leafValues></_>
        <_>
          <internalNodes>
            0 -1 440 -2.8132982552051544e-02</internalNodes>
          <leafValues>
            2.5596880912780762e-01 -1.1555138975381851e-01</leafValues></_>
        <_>
          <internalNodes>
            0 -1 120 -6.3189053907990456e-03</internalNodes>
          <leafValues>
            -5.2149832248687744e-01 6.4202986657619476e-02</leafValues></_>
        <_>
          <internalNodes>
            0 -1 118 -3.1168531626462936e-02</internalNodes>
          <leafValues>
            4.9017325043678284e-01 -7.3447354137897491e-02</leafValues></_>
        <_>
          <internalNodes>
            0 -1 363 -3.8064651191234589e-02</internalNodes>
          <leafValues>
            2.0853187143802643e-01 -1.9188500940799713e-01</leafValues></_>
        <_>
          <internalNodes>
            0 -1 775 -7.1174197364598513e-04</internalNodes>
          <leafValues>
            -3.4630700945854187e-01 9.7729489207267761e-02</leafValues></_>
        <_>
          <internalNodes>
            0 -1 657 -1.9054959993809462e-03</internalNodes>
          <leafValues>
            4.6062448620796204e-01 -7.5883552432060242e-02</leafValues></_>
        <_>
          <internalNodes>
            0 -1 147 -7.0254895836114883e-03</internalNodes>
          <leafValues>
            -3.3217355608940125e-01 1.0958565026521683e-01</leafValues></_>
        <_>
          <internalNodes>
            0 -1 603 4.3764095753431320e-03</internalNodes>
          <leafValues>
            -5.6509472429752350e-02 6.3806945085525513e-01</leafValues></_>
        <_>
          <internalNodes>
            0 -1 1100 -1.2322110123932362e-03</internalNodes>
          <leafValues>
            -4.5934650301933289e-01 8.1790797412395477e-02</leafValues></_>
        <_>
          <internalNodes>
            0 -1 683 -4.8943930305540562e-03</internalNodes>
          <leafValues>
            -4.7900584340095520e-01 5.8705940842628479e-02</leafValues></_>
        <_>
          <internalNodes>
            0 -1 890 2.7145501226186752e-03</internalNodes>
          <leafValues>
            -8.2588970661163330e-02 3.9382848143577576e-01</leafValues></_>
        <_>
          <internalNodes>
            0 -1 1037 1.5020450809970498e-03</internalNodes>
          <leafValues>
            7.5410768389701843e-02 -4.4301885366439819e-01</leafValues></_></weakClassifiers></_>
    <!-- stage 4 -->
    <_>
      <maxWeakCount>23</maxWeakCount>
      <stageThreshold>-7.7619677782058716e-01</stageThreshold>
      <weakClassifiers>
        <_>
          <internalNodes>
            0 -1 80 -1.5654784440994263e-01</internalNodes>
          <leafValues>
            8.6409032344818115e-01 2.2958953678607941e-01</leafValues></_>
        <_>
          <internalNodes>
            0 -1 1080 -1.0552483145147562e-03</internalNodes>
          <leafValues>
            -5.5457156896591187e-01 3.8043290376663208e-01</leafValues></_>
        <_>
          <internalNodes>
            0 -1 256 -1.9475191831588745e-01</internalNodes>
          <leafValues>
            5.7132321596145630e-01 -2.1127276122570038e-01</leafValues></_>
        <_>
          <internalNodes>
            0 -1 198 -1.6140455845743418e-03</internalNodes>
          <leafValues>
            -6.6199982166290283e-01 1.4806048572063446e-01</leafValues></_>
        <_>
          <internalNodes>
            0 -1 366 -8.5601992905139923e-02</internalNodes>
          <leafValues>
            2.9972288012504578e-01 -2.7528053522109985e-01</leafValues></_>
        <_>
          <internalNodes>
            0 -1 1083 -5.8931525563821197e-04</internalNodes>
          <leafValues>
            -4.7020247578620911e-01 1.6895586252212524e-01</leafValues></_>
        <_>
          <internalNodes>
            0 -1 1140 4.3801451101899147e-04</internalNodes>
          <leafValues>
            7.8376919031143188e-02 -6.0913282632827759e-01</leafValues></_>
        <_>
          <internalNodes>
            0 -1 284 1.1211711913347244e-01</internalNodes>
          <leafValues>
            -1.3015750050544739e-01 5.7869255542755127e-01</leafValues></_>
        <_>
          <internalNodes>
            0 -1 171 -8.2595691084861755e-02</internalNodes>
          <leafValues>
            4.5146676898002625e-01 -1.5829838812351227e-01</leafValues></_>
        <_>
          <internalNodes>
            0 -1 57 8.2625210285186768e-02</internalNodes>
          <leafValues>
            -1.0069128125905991e-01 6.4836621284484863e-01</leafValues></_>
        <_>
          <internalNodes>
            0 -1 1118 -8.6338585242629051e-04</internalNodes>
          <leafValues>
            -5.2074152231216431e-01 1.4557418227195740e-01</leafValues></_>
        <_>
          <internalNodes>
            0 -1 749 1.2322526425123215e-02</internalNodes>
          <leafValues>
            -1.2125705182552338e-01 5.9946280717849731e-01</leafValues></_>
        <_>
          <internalNodes>
            0 -1 215 -1.0768201900646091e-03</internalNodes>
          <leafValues>
            -5.1006323099136353e-01 1.2347605824470520e-01</leafValues></_>
        <_>
          <internalNodes>
            0 -1 649 -2.8131663799285889e-02</internalNodes>
          <leafValues>
            5.6716769933700562e-01 -1.0942773520946503e-01</leafValues></_>
        <_>
          <internalNodes>
            0 -1 962 1.1054991045966744e-03</internalNodes>
          <leafValues>
            1.3395725190639496e-01 -4.2820963263511658e-01</leafValues></_>
        <_>
          <internalNodes>
            0 -1 1014 1.5988006489351392e-03</internalNodes>
          <leafValues>
            1.1234372854232788e-01 -4.8392063379287720e-01</leafValues></_>
        <_>
          <internalNodes>
            0 -1 531 -2.6703923940658569e-02</internalNodes>
          <leafValues>
            3.1356665492057800e-01 -2.0696309208869934e-01</leafValues></_>
        <_>
          <internalNodes>
            0 -1 160 -6.3880556263029575e-04</internalNodes>
          <leafValues>
            -5.4570460319519043e-01 1.0086926817893982e-01</leafValues></_>
        <_>
          <internalNodes>
            0 -1 357 6.6533498466014862e-02</internalNodes>
          <leafValues>
            -1.4463907480239868e-01 3.4245765209197998e-01</leafValues></_>
        <_>
          <internalNodes>
            0 -1 159 4.7911657020449638e-04</internalNodes>
          <leafValues>
            1.0286504775285721e-01 -5.2460187673568726e-01</leafValues></_>
        <_>
          <internalNodes>
            0 -1 41 -5.4784002713859081e-03</internalNodes>
          <leafValues>
            -5.7240539789199829e-01 8.2238338887691498e-02</leafValues></_>
        <_>
          <internalNodes>
            0 -1 1096 -6.1481539160013199e-04</internalNodes>
          <leafValues>
            -5.4623711109161377e-01 7.6163753867149353e-02</leafValues></_>
        <_>
          <internalNodes>
            0 -1 790 -2.3673400282859802e-02</internalNodes>
          <leafValues>
            4.4763490557670593e-01 -1.0666842758655548e-01</leafValues></_></weakClassifiers></_>
    <!-- stage 5 -->
    <_>
      <maxWeakCount>32</maxWeakCount>
      <stageThreshold>-8.1073093414306641e-01</stageThreshold>
      <weakClassifiers>
        <_>
          <internalNodes>
            0 -1 414 -9.6631146967411041e-02</internalNodes>
          <leafValues>
            8.1271409988403320e-01 1.3957935571670532e-01</leafValues></_>
        <_>
          <internalNodes>
            0 -1 183 -2.5412508845329285e-01</internalNodes>
          <leafValues>
            6.2021875381469727e-01 -1.3844463229179382e-01</leafValues></_>
        <_>
          <internalNodes>
            0 -1 524 -5.4758854210376740e-02</internalNodes>
          <leafValues>
            4.4117093086242676e-01 -1.8314263224601746e-01</leafValues></_>
        <_>
          <internalNodes>
            0 -1 698 -9.7456030547618866e-02</internalNodes>
          <leafValues>
            6.6376167535781860e-01 -1.1906739324331284e-01</leafValues></_>
        <_>
          <internalNodes>
            0 -1 301 -3.3728513866662979e-02</internalNodes>
          <leafValues>
            5.4359024763107300e-01 -1.7556430399417877e-01</leafValues></_>
        <_>
          <internalNodes>
            0 -1 260 3.8837169995531440e-04</internalNodes>
          <leafValues>
            1.7405311763286591e-01 -5.0164264440536499e-01</leafValues></_>
        <_>
          <internalNodes>
            0 -1 299 -1.9949067384004593e-02</internalNodes>
          <leafValues>
            4.4128468632698059e-01 -1.5045739710330963e-01</leafValues></_>
        <_>
          <internalNodes>
            0 -1 955 -7.7919173054397106e-04</internalNodes>
          <leafValues>
            -5.2569222450256348e-01 9.7625046968460083e-02</leafValues></_>
        <_>
          <internalNodes>
            0 -1 62 5.3227171301841736e-02</internalNodes>
          <leafValues>
            -1.1453575640916824e-01 5.1772320270538330e-01</leafValues></_>
        <_>
          <internalNodes>
            0 -1 239 -5.8357988018542528e-04</internalNodes>
          <leafValues>
            -4.5854881405830383e-01 1.4490617811679840e-01</leafValues></_>
        <_>
          <internalNodes>
            0 -1 1003 2.4646968813613057e-04</internalNodes>
          <leafValues>
            1.1542879790067673e-01 -4.0206271409988403e-01</leafValues></_>
        <_>
          <internalNodes>
            0 -1 445 6.7300006048753858e-04</internalNodes>
          <leafValues>
            7.4861302971839905e-02 -6.3946497440338135e-01</leafValues></_>
        <_>
          <internalNodes>
            0 -1 867 -1.2831972911953926e-02</internalNodes>
          <leafValues>
            4.5030033588409424e-01 -1.0959649831056595e-01</leafValues></_>
        <_>
          <internalNodes>
            0 -1 497 3.6367844790220261e-02</internalNodes>
          <leafValues>
            -1.2223907560110092e-01 3.9873382449150085e-01</leafValues></_>
        <_>
          <internalNodes>
            0 -1 211 -6.0974177904427052e-04</internalNodes>
          <leafValues>
            -4.0490993857383728e-01 1.2044496089220047e-01</leafValues></_>
        <_>
          <internalNodes>
            0 -1 670 3.3533126115798950e-02</internalNodes>
          <leafValues>
            -9.1826498508453369e-02 5.4675632715225220e-01</leafValues></_>
        <_>
          <internalNodes>
            0 -1 1129 -4.9068238586187363e-03</internalNodes>
          <leafValues>
            -3.7202230095863342e-01 1.3288241624832153e-01</leafValues></_>
        <_>
          <internalNodes>
            0 -1 125 7.7896367292851210e-04</internalNodes>
          <leafValues>
            8.4834374487400055e-02 -5.0411224365234375e-01</leafValues></_>
        <_>
          <internalNodes>
            0 -1 813 6.5802584867924452e-04</internalNodes>
          <leafValues>
            9.3972541391849518e-02 -4.2763975262641907e-01</leafValues></_>
        <_>
          <internalNodes>
            0 -1 555 -2.0388532429933548e-02</internalNodes>
          <leafValues>
            3.9109680056571960e-01 -1.1641324311494827e-01</leafValues></_>
        <_>
          <internalNodes>
            0 -1 772 6.6650530789047480e-04</internalNodes>
          <leafValues>
            9.0464480221271515e-02 -5.0768005847930908e-01</leafValues></_>
        <_>
          <internalNodes>
            0 -1 245 -2.7404982596635818e-02</internalNodes>
          <leafValues>
            3.9973670244216919e-01 -1.1173783242702484e-01</leafValues></_>
        <_>
          <internalNodes>
            0 -1 713 -1.9364409148693085e-02</internalNodes>
          <leafValues>
            3.6369180679321289e-01 -1.1688717454671860e-01</leafValues></_>
        <_>
          <internalNodes>
            0 -1 852 -1.8463057931512594e-03</internalNodes>
          <leafValues>
            -4.7148233652114868e-01 8.6309231817722321e-02</leafValues></_>
        <_>
          <internalNodes>
            0 -1 639 4.1404913645237684e-04</internalNodes>
          <leafValues>
            8.5864625871181488e-02 -4.2899757623672485e-01</leafValues></_>
        <_>
          <internalNodes>
            0 -1 22 -7.0110416412353516e-01</internalNodes>
          <leafValues>
            -8.5772860050201416e-01 4.0525808930397034e-02</leafValues></_>
        <_>
          <internalNodes>
            0 -1 694 4.7619566321372986e-02</internalNodes>
          <leafValues>
            -1.3149258494377136e-01 3.6829811334609985e-01</leafValues></_>
        <_>
          <internalNodes>
            0 -1 149 2.8700788971036673e-04</internalNodes>
          <leafValues>
            1.1481748521327972e-01 -3.5991343855857849e-01</leafValues></_>
        <_>
          <internalNodes>
            0 -1 305 -3.3506363630294800e-02</internalNodes>
          <leafValues>
            3.1269854307174683e-01 -1.4398935437202454e-01</leafValues></_>
        <_>
          <internalNodes>
            0 -1 449 -2.9504263773560524e-02</internalNodes>
          <leafValues>
            4.6412426233291626e-01 -8.8773369789123535e-02</leafValues></_>
        <_>
          <internalNodes>
            0 -1 13 -5.8872699737548828e-02</internalNodes>
          <leafValues>
            5.7875227928161621e-01 -5.8996584266424179e-02</leafValues></_>
        <_>
          <internalNodes>
            0 -1 343 -1.6649242490530014e-02</internalNodes>
          <leafValues>
            5.0165921449661255e-01 -8.0682717263698578e-02</leafValues></_></weakClassifiers></_>
    <!-- stage 6 -->
    <_>
      <maxWeakCount>40</maxWeakCount>
      <stageThreshold>-7.0548915863037109e-01</stageThreshold>
      <weakClassifiers>
        <_>
          <internalNodes>
            0 -1 96 -3.3452015370130539e-02</internalNodes>
          <leafValues>
            7.9846984148025513e-01 1.4344261586666107e-01</leafValues></_>
        <_>
          <internalNodes>
            0 -1 760 7.8783407807350159e-02</internalNodes>
          <leafValues>
            -1.6852878034114838e-01 4.9244225025177002e-01</leafValues></_>
        <_>
          <internalNodes>
            0 -1 643 -7.2804808616638184e-02</internalNodes>
          <leafValues>
            5.2550584077835083e-01 -1.3232910633087158e-01</leafValues></_>
        <_>
          <internalNodes>
            0 -1 158 1.4295049011707306e-02</internalNodes>
          <leafValues>
            1.3989326357841492e-01 -4.9027407169342041e-01</leafValues></_>
        <_>
          <internalNodes>
            0 -1 1013 -1.5912586823105812e-03</internalNodes>
          <leafValues>
            -5.2960139513015747e-01 1.0901846736669540e-01</leafValues></_>
        <_>
          <internalNodes>
            0 -1 394 -5.3500611335039139e-02</internalNodes>
          <leafValues>
            2.9022696614265442e-01 -1.9997750222682953e-01</leafValues></_>
        <_>
          <internalNodes>
            0 -1 1054 -6.0032971668988466e-04</internalNodes>
          <leafValues>
            -4.4048178195953369e-01 1.0740214586257935e-01</leafValues></_>
        <_>
          <internalNodes>
            0 -1 471 3.8031928241252899e-02</internalNodes>
          <leafValues>
            -1.4138238131999969e-01 4.7707441449165344e-01</leafValues></_>
        <_>
          <internalNodes>
            0 -1 9 -1.7239670269191265e-03</internalNodes>
          <leafValues>
            -5.1858270168304443e-01 1.3250938057899475e-01</leafValues></_>
        <_>
          <internalNodes>
            0 -1 358 5.7076066732406616e-02</internalNodes>
          <leafValues>
            -1.8907108902931213e-01 2.7968063950538635e-01</leafValues></_>
        <_>
          <internalNodes>
            0 -1 50 -9.8428770434111357e-04</internalNodes>
          <leafValues>
            -4.7754895687103271e-01 1.3130034506320953e-01</leafValues></_>
        <_>
          <internalNodes>
            0 -1 102 -4.8277241876348853e-04</internalNodes>
          <leafValues>
            -5.3050357103347778e-01 6.8996936082839966e-02</leafValues></_>
        <_>
          <internalNodes>
            0 -1 1115 5.0720444414764643e-04</internalNodes>
          <leafValues>
            7.8059583902359009e-02 -5.0407773256301880e-01</leafValues></_>
        <_>
          <internalNodes>
            0 -1 1116 -6.7204440711066127e-04</internalNodes>
          <leafValues>
            -4.5808440446853638e-01 9.4030961394309998e-02</leafValues></_>
        <_>
          <internalNodes>
            0 -1 742 -1.2955902516841888e-01</internalNodes>
          <leafValues>
            5.2632761001586914e-01 -9.2059984803199768e-02</leafValues></_>
        <_>
          <internalNodes>
            0 -1 862 2.6646800339221954e-02</internalNodes>
          <leafValues>
            -1.4460204541683197e-01 2.9738390445709229e-01</leafValues></_>
        <_>
          <internalNodes>
            0 -1 633 -1.0578983929008245e-03</internalNodes>
          <leafValues>
            -3.6731952428817749e-01 1.0902059078216553e-01</leafValues></_>
        <_>
          <internalNodes>
            0 -1 320 1.5481933951377869e-01</internalNodes>
          <leafValues>
            7.6545268297195435e-02 -5.2667230367660522e-01</leafValues></_>
        <_>
          <internalNodes>
            0 -1 18 2.9292285442352295e-01</internalNodes>
          <leafValues>
            4.9413200467824936e-02 -6.6605651378631592e-01</leafValues></_>
        <_>
          <internalNodes>
            0 -1 1087 -7.3032878572121263e-04</internalNodes>
          <leafValues>
            -4.0468755364418030e-01 9.6909664571285248e-02</leafValues></_>
        <_>
          <internalNodes>
            0 -1 707 2.5548629462718964e-02</internalNodes>
          <leafValues>
            -1.0539293289184570e-01 3.8304558396339417e-01</leafValues></_>
        <_>
          <internalNodes>
            0 -1 1085 7.2805373929440975e-04</internalNodes>
          <leafValues>
            9.3675374984741211e-02 -4.3592420220375061e-01</leafValues></_>
        <_>
          <internalNodes>
            0 -1 315 5.7327980175614357e-04</internalNodes>
          <leafValues>
            1.0532071441411972e-01 -3.1653195619583130e-01</leafValues></_>
        <_>
          <internalNodes>
            0 -1 754 8.7415948510169983e-03</internalNodes>
          <leafValues>
            -1.0552885383367538e-01 3.4209477901458740e-01</leafValues></_>
        <_>
          <internalNodes>
            0 -1 129 -1.6659515677019954e-03</internalNodes>
          <leafValues>
            -3.3080518245697021e-01 1.2047419697046280e-01</leafValues></_>
        <_>
          <internalNodes>
            0 -1 640 -7.5227282941341400e-03</internalNodes>
          <leafValues>
            3.6589393019676208e-01 -1.0091307014226913e-01</leafValues></_>
        <_>
          <internalNodes>
            0 -1 544 3.1165821477770805e-02</internalNodes>
          <leafValues>
            -1.2444856762886047e-01 3.0358201265335083e-01</leafValues></_>
        <_>
          <internalNodes>
            0 -1 466 -1.6293892264366150e-01</internalNodes>
          <leafValues>
            3.6419406533241272e-01 -1.0809202492237091e-01</leafValues></_>
        <_>
          <internalNodes>
            0 -1 314 -6.5442058257758617e-04</internalNodes>
          <leafValues>
            -4.0837198495864868e-01 9.2494964599609375e-02</leafValues></_>
        <_>
          <internalNodes>
            0 -1 740 1.6319097951054573e-02</internalNodes>
          <leafValues>
            -8.8984742760658264e-02 4.4204369187355042e-01</leafValues></_>
        <_>
          <internalNodes>
            0 -1 361 -3.0465023592114449e-02</internalNodes>
          <leafValues>
            4.5152586698532104e-01 -7.5735174119472504e-02</leafValues></_>
        <_>
          <internalNodes>
            0 -1 1046 -1.4520550612360239e-03</internalNodes>
          <leafValues>
            -4.1773825883865356e-01 9.0329170227050781e-02</leafValues></_>
        <_>
          <internalNodes>
            0 -1 77 -3.4699924290180206e-02</internalNodes>
          <leafValues>
            4.1806152462959290e-01 -9.3618199229240417e-02</leafValues></_>
        <_>
          <internalNodes>
            0 -1 396 -3.4561060369014740e-02</internalNodes>
          <leafValues>
            4.7969996929168701e-01 -7.1646884083747864e-02</leafValues></_>
        <_>
          <internalNodes>
            0 -1 588 -7.7177642378956079e-04</internalNodes>
          <leafValues>
            -4.3236291408538818e-01 8.7164103984832764e-02</leafValues></_>
        <_>
          <internalNodes>
            0 -1 402 -1.6372092068195343e-02</internalNodes>
          <leafValues>
            3.2687303423881531e-01 -1.1342661082744598e-01</leafValues></_>
        <_>
          <internalNodes>
            0 -1 263 -5.5714248446747661e-04</internalNodes>
          <leafValues>
            -4.1451537609100342e-01 9.0200826525688171e-02</leafValues></_>
        <_>
          <internalNodes>
            0 -1 774 -7.6949043432250619e-04</internalNodes>
          <leafValues>
            -4.5817860960960388e-01 7.2626285254955292e-02</leafValues></_>
        <_>
          <internalNodes>
            0 -1 509 2.3933488409966230e-03</internalNodes>
          <leafValues>
            -9.5275014638900757e-02 4.0769454836845398e-01</leafValues></_>
        <_>
          <internalNodes>
            0 -1 665 -6.4677536487579346e-02</internalNodes>
          <leafValues>
            6.8241882324218750e-01 -4.6518821269273758e-02</leafValues></_></weakClassifiers></_>
    <!-- stage 7 -->
    <_>
      <maxWeakCount>52</maxWeakCount>
      <stageThreshold>-6.6087526082992554e-01</stageThreshold>
      <weakClassifiers>
        <_>
          <internalNodes>
            0 -1 85 -5.9636764228343964e-02</internalNodes>
          <leafValues>
            8.0701404809951782e-01 2.3423422873020172e-01</leafValues></_>
        <_>
          <internalNodes>
            0 -1 200 -1.6549760103225708e-01</internalNodes>
          <leafValues>
            6.4231854677200317e-01 -1.1416569352149963e-02</leafValues></_>
        <_>
          <internalNodes>
            0 -1 162 -6.4657278358936310e-02</internalNodes>
          <leafValues>
            2.3207752406597137e-01 -2.9852992296218872e-01</leafValues></_>
        <_>
          <internalNodes>
            0 -1 1101 -1.0662321932613850e-02</internalNodes>
          <leafValues>
            -5.6682771444320679e-01 9.3556180596351624e-02</leafValues></_>
        <_>
          <internalNodes>
            0 -1 403 1.7634950578212738e-02</internalNodes>
          <leafValues>
            -2.7022910118103027e-01 1.9397880136966705e-01</leafValues></_>
        <_>
          <internalNodes>
            0 -1 1077 -1.2692427262663841e-03</internalNodes>
          <leafValues>
            -5.9859949350357056e-01 8.2779429852962494e-02</leafValues></_>
        <_>
          <internalNodes>
            0 -1 165 1.1579102138057351e-03</internalNodes>
          <leafValues>
            8.1703655421733856e-02 -4.3975159525871277e-01</leafValues></_>
        <_>
          <internalNodes>
            0 -1 623 -4.2114891111850739e-03</internalNodes>
          <leafValues>
            2.5748676061630249e-01 -1.4428943395614624e-01</leafValues></_>
        <_>
          <internalNodes>
            0 -1 504 -3.7553951144218445e-02</internalNodes>
          <leafValues>
            2.9650112986564636e-01 -1.4811681210994720e-01</leafValues></_>
        <_>
          <internalNodes>
            0 -1 331 1.1698085814714432e-02</internalNodes>
          <leafValues>
            -1.4809027314186096e-01 3.6435213685035706e-01</leafValues></_>
        <_>
          <internalNodes>
            0 -1 568 1.4690883457660675e-02</internalNodes>
          <leafValues>
            -7.3771148920059204e-02 4.6278789639472961e-01</leafValues></_>
        <_>
          <internalNodes>
            0 -1 755 -4.1078414767980576e-02</internalNodes>
          <leafValues>
            4.6303606033325195e-01 -9.6668466925621033e-02</leafValues></_>
        <_>
          <internalNodes>
            0 -1 302 6.6721218172460794e-04</internalNodes>
          <leafValues>
            8.3520792424678802e-02 -4.9727904796600342e-01</leafValues></_>
        <_>
          <internalNodes>
            0 -1 667 8.9285485446453094e-03</internalNodes>
          <leafValues>
            -9.7704716026782990e-02 3.5992988944053650e-01</leafValues></_>
        <_>
          <internalNodes>
            0 -1 203 1.0202670469880104e-02</internalNodes>
          <leafValues>
            5.7606339454650879e-02 -5.6238132715225220e-01</leafValues></_>
        <_>
          <internalNodes>
            0 -1 919 -2.0229935180395842e-03</internalNodes>
          <leafValues>
            -4.0927734971046448e-01 7.6093636453151703e-02</leafValues></_>
        <_>
          <internalNodes>
            0 -1 169 -2.1959157660603523e-02</internalNodes>
          <leafValues>
            2.7089613676071167e-01 -1.2249854207038879e-01</leafValues></_>
        <_>
          <internalNodes>
            0 -1 827 1.7149843275547028e-02</internalNodes>
          <leafValues>
            -9.6846096217632294e-02 3.2143554091453552e-01</leafValues></_>
        <_>
          <internalNodes>
            0 -1 1086 -5.1290832925587893e-04</internalNodes>
          <leafValues>
            -3.7398552894592285e-01 8.7373465299606323e-02</leafValues></_>
        <_>
          <internalNodes>
            0 -1 1102 7.8969082096591592e-04</internalNodes>
          <leafValues>
            5.9039037674665451e-02 -5.2313315868377686e-01</leafValues></_>
        <_>
          <internalNodes>
            0 -1 791 -1.6080187633633614e-03</internalNodes>
          <leafValues>
            4.4620266556739807e-01 -7.1679562330245972e-02</leafValues></_>
        <_>
          <internalNodes>
            0 -1 222 -9.9332863464951515e-04</internalNodes>
          <leafValues>
            -4.1239351034164429e-01 7.2395548224449158e-02</leafValues></_>
        <_>
          <internalNodes>
            0 -1 44 -1.0364686138927937e-02</internalNodes>
          <leafValues>
            -4.1091227531433105e-01 6.4133942127227783e-02</leafValues></_>
        <_>
          <internalNodes>
            0 -1 412 -1.4121213555335999e-01</internalNodes>
          <leafValues>
            4.5175594091415405e-01 -6.8410545587539673e-02</leafValues></_>
        <_>
          <internalNodes>
            0 -1 528 -3.1366123585030437e-04</internalNodes>
          <leafValues>
            2.0008422434329987e-01 -1.6088502109050751e-01</leafValues></_>
        <_>
          <internalNodes>
            0 -1 253 8.9144781231880188e-03</internalNodes>
          <leafValues>
            -8.6351186037063599e-02 3.4417232871055603e-01</leafValues></_>
        <_>
          <internalNodes>
            0 -1 517 5.5962763726711273e-03</internalNodes>
          <leafValues>
            -8.4930464625358582e-02 3.1333899497985840e-01</leafValues></_>
        <_>
          <internalNodes>
            0 -1 390 -1.8162481486797333e-02</internalNodes>
          <leafValues>
            1.5996712446212769e-01 -1.6687680780887604e-01</leafValues></_>
        <_>
          <internalNodes>
            0 -1 298 -1.7432676628232002e-02</internalNodes>
          <leafValues>
            4.1061863303184509e-01 -6.5627306699752808e-02</leafValues></_>
        <_>
          <internalNodes>
            0 -1 479 6.3021564856171608e-03</internalNodes>
          <leafValues>
            -8.5246056318283081e-02 3.1674972176551819e-01</leafValues></_>
        <_>
          <internalNodes>
            0 -1 1091 -1.1651589302346110e-03</internalNodes>
          <leafValues>
            -4.4144022464752197e-01 6.3189342617988586e-02</leafValues></_>
        <_>
          <internalNodes>
            0 -1 267 1.2434625625610352e-01</internalNodes>
          <leafValues>
            3.7098672240972519e-02 -6.4135581254959106e-01</leafValues></_>
        <_>
          <internalNodes>
            0 -1 492 1.8679690547287464e-03</internalNodes>
          <leafValues>
            6.5259009599685669e-02 -3.7614342570304871e-01</leafValues></_>
        <_>
          <internalNodes>
            0 -1 586 8.4533108747564256e-05</internalNodes>
          <leafValues>
            -2.3971179127693176e-01 1.0742069035768509e-01</leafValues></_>
        <_>
          <internalNodes>
            0 -1 800 9.2941231559962034e-04</internalNodes>
          <leafValues>
            -1.0504727810621262e-01 2.4319450557231903e-01</leafValues></_>
        <_>
          <internalNodes>
            0 -1 1072 1.0191182373091578e-03</internalNodes>
          <leafValues>
            6.3016369938850403e-02 -4.6119987964630127e-01</leafValues></_>
        <_>
          <internalNodes>
            0 -1 551 -2.6736017316579819e-03</internalNodes>
          <leafValues>
            3.0697929859161377e-01 -8.6424373090267181e-02</leafValues></_>
        <_>
          <internalNodes>
            0 -1 294 7.1399012813344598e-04</internalNodes>
          <leafValues>
            6.5665669739246368e-02 -3.7198752164840698e-01</leafValues></_>
        <_>
          <internalNodes>
            0 -1 451 -1.5509836375713348e-02</internalNodes>
          <leafValues>
            2.6617977023124695e-01 -1.0090275108814240e-01</leafValues></_>
        <_>
          <internalNodes>
            0 -1 889 5.7444246485829353e-03</internalNodes>
          <leafValues>
            -7.4515551328659058e-02 3.4997403621673584e-01</leafValues></_>
        <_>
          <internalNodes>
            0 -1 368 -3.1328715849667788e-03</internalNodes>
          <leafValues>
            3.0251133441925049e-01 -7.8796207904815674e-02</leafValues></_>
        <_>
          <internalNodes>
            0 -1 922 7.3835632065311074e-04</internalNodes>
          <leafValues>
            5.7304270565509796e-02 -4.7999519109725952e-01</leafValues></_>
        <_>
          <internalNodes>
            0 -1 1032 -5.9751328080892563e-05</internalNodes>
          <leafValues>
            1.8217994272708893e-01 -1.4323158562183380e-01</leafValues></_>
        <_>
          <internalNodes>
            0 -1 1138 -5.3161656251177192e-04</internalNodes>
          <leafValues>
            -4.6556898951530457e-01 5.4251477122306824e-02</leafValues></_>
        <_>
          <internalNodes>
            0 -1 942 -1.4281586045399308e-03</internalNodes>
          <leafValues>
            -4.8851567506790161e-01 4.9980245530605316e-02</leafValues></_>
        <_>
          <internalNodes>
            0 -1 1027 3.9824750274419785e-03</internalNodes>
          <leafValues>
            -6.4141534268856049e-02 4.1400709748268127e-01</leafValues></_>
        <_>
          <internalNodes>
            0 -1 450 4.9616932868957520e-02</internalNodes>
          <leafValues>
            -7.1309246122837067e-02 3.4641483426094055e-01</leafValues></_>
        <_>
          <internalNodes>
            0 -1 247 -1.8153793644160032e-03</internalNodes>
          <leafValues>
            -4.8079603910446167e-01 5.5750139057636261e-02</leafValues></_>
        <_>
          <internalNodes>
            0 -1 832 -2.0573611254803836e-04</internalNodes>
          <leafValues>
            1.8682935833930969e-01 -1.3777598738670349e-01</leafValues></_>
        <_>
          <internalNodes>
            0 -1 980 3.9242971688508987e-03</internalNodes>
          <leafValues>
            -7.0536345243453979e-02 3.1507748365402222e-01</leafValues></_>
        <_>
          <internalNodes>
            0 -1 286 3.7874368717893958e-04</internalNodes>
          <leafValues>
            6.8679466843605042e-02 -3.7863543629646301e-01</leafValues></_>
        <_>
          <internalNodes>
            0 -1 399 -1.9559508189558983e-02</internalNodes>
          <leafValues>
            3.3569160103797913e-01 -7.3203727602958679e-02</leafValues></_></weakClassifiers></_>
    <!-- stage 8 -->
    <_>
      <maxWeakCount>62</maxWeakCount>
      <stageThreshold>-7.1075010299682617e-01</stageThreshold>
      <weakClassifiers>
        <_>
          <internalNodes>
            0 -1 89 -1.5418636798858643e-01</internalNodes>
          <leafValues>
            8.1443744897842407e-01 3.3122172951698303e-01</leafValues></_>
        <_>
          <internalNodes>
            0 -1 178 -4.5426321029663086e-01</internalNodes>
          <leafValues>
            8.1885308027267456e-01 5.8916017413139343e-02</leafValues></_>
        <_>
          <internalNodes>
            0 -1 21 -1.7826046049594879e-01</internalNodes>
          <leafValues>
            2.4902758002281189e-01 -3.0172753334045410e-01</leafValues></_>
        <_>
          <internalNodes>
            0 -1 163 -3.9695906452834606e-03</internalNodes>
          <leafValues>
            -5.3507375717163086e-01 5.0951037555932999e-02</leafValues></_>
        <_>
          <internalNodes>
            0 -1 341 -4.8212623223662376e-03</internalNodes>
          <leafValues>
            -3.8142764568328857e-01 1.1268017441034317e-01</leafValues></_>
        <_>
          <internalNodes>
            0 -1 271 3.6248090327717364e-04</internalNodes>
          <leafValues>
            8.9488849043846130e-02 -4.7908669710159302e-01</leafValues></_>
        <_>
          <internalNodes>
            0 -1 1099 -1.0775845497846603e-02</internalNodes>
          <leafValues>
            -3.6500188708305359e-01 1.1451854556798935e-01</leafValues></_>
        <_>
          <internalNodes>
            0 -1 814 1.3082397636026144e-03</internalNodes>
          <leafValues>
            5.8430660516023636e-02 -5.4320508241653442e-01</leafValues></_>
        <_>
          <internalNodes>
            0 -1 735 -2.1238005720078945e-03</internalNodes>
          <leafValues>
            -4.2109879851341248e-01 9.3141011893749237e-02</leafValues></_>
        <_>
          <internalNodes>
            0 -1 130 4.7037620097398758e-03</internalNodes>
          <leafValues>
            -2.6862403750419617e-01 1.4489881694316864e-01</leafValues></_>
        <_>
          <internalNodes>
            0 -1 207 3.4876086283475161e-04</internalNodes>
          <leafValues>
            9.7737818956375122e-02 -3.9777997136116028e-01</leafValues></_>
        <_>
          <internalNodes>
            0 -1 605 -2.5435272604227066e-02</internalNodes>
          <leafValues>
            4.5763519406318665e-01 -8.3312131464481354e-02</leafValues></_>
        <_>
          <internalNodes>
            0 -1 420 5.4821461439132690e-02</internalNodes>
          <leafValues>
            -1.5649315714836121e-01 2.3820953071117401e-01</leafValues></_>
        <_>
          <internalNodes>
            0 -1 40 -3.7497458979487419e-03</internalNodes>
          <leafValues>
            -4.7692796587944031e-01 7.0777736604213715e-02</leafValues></_>
        <_>
          <internalNodes>
            0 -1 745 6.8122320808470249e-03</internalNodes>
          <leafValues>
            -9.8773017525672913e-02 3.5879516601562500e-01</leafValues></_>
        <_>
          <internalNodes>
            0 -1 1050 4.9784651491791010e-04</internalNodes>
          <leafValues>
            7.8927785158157349e-02 -4.6190127730369568e-01</leafValues></_>
        <_>
          <internalNodes>
            0 -1 261 3.9462670683860779e-02</internalNodes>
          <leafValues>
            -7.6588533818721771e-02 4.5608872175216675e-01</leafValues></_>
        <_>
          <internalNodes>
            0 -1 268 2.2648083977401257e-03</internalNodes>
          <leafValues>
            1.1234554648399353e-01 -3.0200865864753723e-01</leafValues></_>
        <_>
          <internalNodes>
            0 -1 828 -4.2240060865879059e-03</internalNodes>
          <leafValues>
            5.7172399759292603e-01 -6.4021341502666473e-02</leafValues></_>
        <_>
          <internalNodes>
            0 -1 76 1.0190694592893124e-03</internalNodes>
          <leafValues>
            8.2279480993747711e-02 -4.1921061277389526e-01</leafValues></_>
        <_>
          <internalNodes>
            0 -1 233 -6.3784243538975716e-03</internalNodes>
          <leafValues>
            -5.8068579435348511e-01 4.0045451372861862e-02</leafValues></_>
        <_>
          <internalNodes>
            0 -1 1089 1.3761578593403101e-03</internalNodes>
          <leafValues>
            5.3796522319316864e-02 -4.7381141781806946e-01</leafValues></_>
        <_>
          <internalNodes>
            0 -1 221 2.4625679478049278e-02</internalNodes>
          <leafValues>
            5.5720336735248566e-02 -4.5823746919631958e-01</leafValues></_>
        <_>
          <internalNodes>
            0 -1 470 1.6881827265024185e-02</internalNodes>
          <leafValues>
            -9.1297350823879242e-02 3.0892789363861084e-01</leafValues></_>
        <_>
          <internalNodes>
            0 -1 719 -3.7545599043369293e-02</internalNodes>
          <leafValues>
            4.1450130939483643e-01 -6.5193228423595428e-02</leafValues></_>
        <_>
          <internalNodes>
            0 -1 105 1.0095149045810103e-03</internalNodes>
          <leafValues>
            5.5824376642704010e-02 -5.0706690549850464e-01</leafValues></_>
        <_>
          <internalNodes>
            0 -1 167 -1.2708220630884171e-02</internalNodes>
          <leafValues>
            2.1820507943630219e-01 -1.2880429625511169e-01</leafValues></_>
        <_>
          <internalNodes>
            0 -1 793 3.8454337045550346e-03</internalNodes>
          <leafValues>
            -7.9372294247150421e-02 3.4686300158500671e-01</leafValues></_>
        <_>
          <internalNodes>
            0 -1 854 -1.8344949930906296e-03</internalNodes>
          <leafValues>
            -3.9994150400161743e-01 7.5043760240077972e-02</leafValues></_>
        <_>
          <internalNodes>
            0 -1 520 -8.2364514470100403e-02</internalNodes>
          <leafValues>
            4.0838181972503662e-01 -6.8351455032825470e-02</leafValues></_>
        <_>
          <internalNodes>
            0 -1 1111 -8.4256316768005490e-04</internalNodes>
          <leafValues>
            -4.1151624917984009e-01 6.5420158207416534e-02</leafValues></_>
        <_>
          <internalNodes>
            0 -1 789 2.8947342652827501e-03</internalNodes>
          <leafValues>
            -8.3165511488914490e-02 3.3447948098182678e-01</leafValues></_>
        <_>
          <internalNodes>
            0 -1 274 -3.2089976593852043e-04</internalNodes>
          <leafValues>
            -3.6480388045310974e-01 7.2282336652278900e-02</leafValues></_>
        <_>
          <internalNodes>
            0 -1 186 1.8501546233892441e-02</internalNodes>
          <leafValues>
            -6.2014065682888031e-02 4.4029015302658081e-01</leafValues></_>
        <_>
          <internalNodes>
            0 -1 564 -1.3617683947086334e-01</internalNodes>
          <leafValues>
            2.9127055406570435e-01 -8.8016614317893982e-02</leafValues></_>
        <_>
          <internalNodes>
            0 -1 113 -1.9032415002584457e-02</internalNodes>
          <leafValues>
            4.0023383498191833e-01 -6.7329354584217072e-02</leafValues></_>
        <_>
          <internalNodes>
            0 -1 942 -9.3508791178464890e-04</internalNodes>
          <leafValues>
            -3.8531365990638733e-01 7.3752023279666901e-02</leafValues></_>
        <_>
          <internalNodes>
            0 -1 12 1.5114598907530308e-02</internalNodes>
          <leafValues>
            -1.0202291607856750e-01 2.9616469144821167e-01</leafValues></_>
        <_>
          <internalNodes>
            0 -1 313 3.5327312070876360e-04</internalNodes>
          <leafValues>
            7.9979583621025085e-02 -3.6963161826133728e-01</leafValues></_>
        <_>
          <internalNodes>
            0 -1 106 -6.8114986643195152e-03</internalNodes>
          <leafValues>
            -3.5339784622192383e-01 6.5466210246086121e-02</leafValues></_>
        <_>
          <internalNodes>
            0 -1 606 4.0256563806906343e-04</internalNodes>
          <leafValues>
            -8.0564394593238831e-02 3.1480655074119568e-01</leafValues></_>
        <_>
          <internalNodes>
            0 -1 410 9.3791997060179710e-03</internalNodes>
          <leafValues>
            4.3498244136571884e-02 -6.2599527835845947e-01</leafValues></_>
        <_>
          <internalNodes>
            0 -1 1061 1.4700405299663544e-02</internalNodes>
          <leafValues>
            3.5196390002965927e-02 -5.9159827232360840e-01</leafValues></_>
        <_>
          <internalNodes>
            0 -1 864 -5.6873494759202003e-04</internalNodes>
          <leafValues>
            2.6805031299591064e-01 -1.0109629482030869e-01</leafValues></_>
        <_>
          <internalNodes>
            0 -1 891 -6.4000301063060760e-04</internalNodes>
          <leafValues>
            2.1627752482891083e-01 -1.1684194207191467e-01</leafValues></_>
        <_>
          <internalNodes>
            0 -1 580 -3.5538300871849060e-03</internalNodes>
          <leafValues>
            -4.4650989770889282e-01 5.8189298957586288e-02</leafValues></_>
        <_>
          <internalNodes>
            0 -1 629 1.4165858738124371e-03</internalNodes>
          <leafValues>
            -1.3813844323158264e-01 1.8881760537624359e-01</leafValues></_>
        <_>
          <internalNodes>
            0 -1 61 2.5815833359956741e-03</internalNodes>
          <leafValues>
            5.4239124059677124e-02 -4.6269053220748901e-01</leafValues></_>
        <_>
          <internalNodes>
            0 -1 518 -1.3018939644098282e-02</internalNodes>
          <leafValues>
            5.1115244626998901e-01 -5.1553279161453247e-02</leafValues></_>
        <_>
          <internalNodes>
            0 -1 1106 4.0195620385929942e-04</internalNodes>
          <leafValues>
            7.1464635431766510e-02 -3.6688283085823059e-01</leafValues></_>
        <_>
          <internalNodes>
            0 -1 411 -3.6749006249010563e-03</internalNodes>
          <leafValues>
            -4.4778549671173096e-01 5.1887761801481247e-02</leafValues></_>
        <_>
          <internalNodes>
            0 -1 560 4.3651950545608997e-04</internalNodes>
          <leafValues>
            -9.5031566917896271e-02 2.4725201725959778e-01</leafValues></_>
        <_>
          <internalNodes>
            0 -1 763 -1.0353129357099533e-02</internalNodes>
          <leafValues>
            4.2363139986991882e-01 -5.4269012063741684e-02</leafValues></_>
        <_>
          <internalNodes>
            0 -1 205 1.8786117434501648e-02</internalNodes>
          <leafValues>
            3.9235252887010574e-02 -6.3718473911285400e-01</leafValues></_>
        <_>
          <internalNodes>
            0 -1 316 -2.2738478146493435e-03</internalNodes>
          <leafValues>
            -3.4272620081901550e-01 6.6470436751842499e-02</leafValues></_>
        <_>
          <internalNodes>
            0 -1 384 -4.7811940312385559e-03</internalNodes>
          <leafValues>
            3.9975261688232422e-01 -5.9458855539560318e-02</leafValues></_>
        <_>
          <internalNodes>
            0 -1 426 7.6553979888558388e-03</internalNodes>
          <leafValues>
            -8.8216602802276611e-02 2.6935753226280212e-01</leafValues></_>
        <_>
          <internalNodes>
            0 -1 327 -5.1291786134243011e-02</internalNodes>
          <leafValues>
            3.8155233860015869e-01 -6.2076751142740250e-02</leafValues></_>
        <_>
          <internalNodes>
            0 -1 1127 -2.1789078600704670e-03</internalNodes>
          <leafValues>
            -4.1423085331916809e-01 5.6208822876214981e-02</leafValues></_>
        <_>
          <internalNodes>
            0 -1 732 5.3013092838227749e-04</internalNodes>
          <leafValues>
            5.2639003843069077e-02 -4.0216451883316040e-01</leafValues></_>
        <_>
          <internalNodes>
            0 -1 979 -4.3550557456910610e-03</internalNodes>
          <leafValues>
            3.9104524254798889e-01 -6.5018296241760254e-02</leafValues></_>
        <_>
          <internalNodes>
            0 -1 761 9.8545872606337070e-04</internalNodes>
          <leafValues>
            -8.3150774240493774e-02 2.5889554619789124e-01</leafValues></_></weakClassifiers></_>
    <!-- stage 9 -->
    <_>
      <maxWeakCount>61</maxWeakCount>
      <stageThreshold>-5.6335008144378662e-01</stageThreshold>
      <weakClassifiers>
        <_>
          <internalNodes>
            0 -1 756 5.7754211127758026e-02</internalNodes>
          <leafValues>
            2.8361856937408447e-01 7.7597838640213013e-01</leafValues></_>
        <_>
          <internalNodes>
            0 -1 400 1.9045505672693253e-02</internalNodes>
          <leafValues>
            -1.7948466539382935e-01 4.4647520780563354e-01</leafValues></_>
        <_>
          <internalNodes>
            0 -1 782 -1.4906525611877441e-02</internalNodes>
          <leafValues>
            4.5932659506797791e-01 -1.8440335988998413e-01</leafValues></_>
        <_>
          <internalNodes>
            0 -1 545 9.1641914332285523e-04</internalNodes>
          <leafValues>
            -1.9017165899276733e-01 2.5927534699440002e-01</leafValues></_>
        <_>
          <internalNodes>
            0 -1 188 -3.1266728043556213e-01</internalNodes>
          <leafValues>
            4.6853801608085632e-01 -1.2412808090448380e-01</leafValues></_>
        <_>
          <internalNodes>
            0 -1 193 -4.8264726996421814e-02</internalNodes>
          <leafValues>
            3.0056929588317871e-01 -1.4609482884407043e-01</leafValues></_>
        <_>
          <internalNodes>
            0 -1 435 -5.5726356804370880e-02</internalNodes>
          <leafValues>
            3.2995608448982239e-01 -1.5214212238788605e-01</leafValues></_>
        <_>
          <internalNodes>
            0 -1 611 -8.0773055553436279e-02</internalNodes>
          <leafValues>
            3.6753731966018677e-01 -9.5468983054161072e-02</leafValues></_>
        <_>
          <internalNodes>
            0 -1 693 -2.9941955581307411e-03</internalNodes>
          <leafValues>
            3.0501669645309448e-01 -1.3295552134513855e-01</leafValues></_>
        <_>
          <internalNodes>
            0 -1 696 -5.3210956975817680e-03</internalNodes>
          <leafValues>
            2.1892282366752625e-01 -1.7576764523983002e-01</leafValues></_>
        <_>
          <internalNodes>
            0 -1 699 -5.7295160368084908e-03</internalNodes>
          <leafValues>
            3.2834726572036743e-01 -1.1397258192300797e-01</leafValues></_>
        <_>
          <internalNodes>
            0 -1 226 5.7791508734226227e-03</internalNodes>
          <leafValues>
            6.5666750073432922e-02 -5.3360676765441895e-01</leafValues></_>
        <_>
          <internalNodes>
            0 -1 287 1.6360743902623653e-03</internalNodes>
          <leafValues>
            -1.3217198848724365e-01 2.2693213820457458e-01</leafValues></_>
        <_>
          <internalNodes>
            0 -1 15 -2.2252621129155159e-02</internalNodes>
          <leafValues>
            -4.9196210503578186e-01 7.5241148471832275e-02</leafValues></_>
        <_>
          <internalNodes>
            0 -1 74 -4.2401608079671860e-03</internalNodes>
          <leafValues>
            -5.6686663627624512e-01 4.4671237468719482e-02</leafValues></_>
        <_>
          <internalNodes>
            0 -1 78 1.0433069430291653e-02</internalNodes>
          <leafValues>
            4.5440759509801865e-02 -5.9213548898696899e-01</leafValues></_>
        <_>
          <internalNodes>
            0 -1 831 -6.8641279358416796e-04</internalNodes>
          <leafValues>
            2.9020300507545471e-01 -1.0390897840261459e-01</leafValues></_>
        <_>
          <internalNodes>
            0 -1 789 2.2236602380871773e-03</internalNodes>
          <leafValues>
            -8.8459178805351257e-02 3.1032148003578186e-01</leafValues></_>
        <_>
          <internalNodes>
            0 -1 1060 8.0654025077819824e-04</internalNodes>
          <leafValues>
            6.7931093275547028e-02 -4.5020726323127747e-01</leafValues></_>
        <_>
          <internalNodes>
            0 -1 218 9.3960884260013700e-04</internalNodes>
          <leafValues>
            -2.0380896329879761e-01 1.3504983484745026e-01</leafValues></_>
        <_>
          <internalNodes>
            0 -1 578 1.4467437751591206e-02</internalNodes>
          <leafValues>
            -8.9189320802688599e-02 3.4971076250076294e-01</leafValues></_>
        <_>
          <internalNodes>
            0 -1 503 8.8800396770238876e-04</internalNodes>
          <leafValues>
            -1.2979048490524292e-01 2.0756085216999054e-01</leafValues></_>
        <_>
          <internalNodes>
            0 -1 1123 -1.4566765166819096e-03</internalNodes>
          <leafValues>
            -3.8187158107757568e-01 7.2545059025287628e-02</leafValues></_>
        <_>
          <internalNodes>
            0 -1 795 -2.5445836945436895e-04</internalNodes>
          <leafValues>
            2.9032206535339355e-01 -1.0268197208642960e-01</leafValues></_>
        <_>
          <internalNodes>
            0 -1 669 -1.2310648337006569e-02</internalNodes>
          <leafValues>
            2.9355853796005249e-01 -8.6188010871410370e-02</leafValues></_>
        <_>
          <internalNodes>
            0 -1 490 7.5630862265825272e-03</internalNodes>
          <leafValues>
            5.0190728157758713e-02 -5.4733079671859741e-01</leafValues></_>
        <_>
          <internalNodes>
            0 -1 128 1.0563347022980452e-03</internalNodes>
          <leafValues>
            5.7613380253314972e-02 -4.3110188841819763e-01</leafValues></_>
        <_>
          <internalNodes>
            0 -1 714 -1.0131336748600006e-03</internalNodes>
          <leafValues>
            3.2723131775856018e-01 -8.2533083856105804e-02</leafValues></_>
        <_>
          <internalNodes>
            0 -1 1067 -2.9476969502866268e-03</internalNodes>
          <leafValues>
            -4.2404714226722717e-01 6.1597093939781189e-02</leafValues></_>
        <_>
          <internalNodes>
            0 -1 621 1.4150491915643215e-04</internalNodes>
          <leafValues>
            -1.0086759179830551e-01 2.4260377883911133e-01</leafValues></_>
        <_>
          <internalNodes>
            0 -1 884 4.5273631258169189e-05</internalNodes>
          <leafValues>
            -1.2533652782440186e-01 1.8495093286037445e-01</leafValues></_>
        <_>
          <internalNodes>
            0 -1 1125 1.6760220751166344e-03</internalNodes>
          <leafValues>
            7.9058386385440826e-02 -2.9359087347984314e-01</leafValues></_>
        <_>
          <internalNodes>
            0 -1 966 -1.0445404332131147e-03</internalNodes>
          <leafValues>
            2.1671313047409058e-01 -1.1365903168916702e-01</leafValues></_>
        <_>
          <internalNodes>
            0 -1 908 4.1749522089958191e-02</internalNodes>
          <leafValues>
            -6.9371081888675690e-02 4.0140581130981445e-01</leafValues></_>
        <_>
          <internalNodes>
            0 -1 364 -7.0114340633153915e-03</internalNodes>
          <leafValues>
            4.3023934960365295e-01 -5.2217401564121246e-02</leafValues></_>
        <_>
          <internalNodes>
            0 -1 130 2.4107866920530796e-03</internalNodes>
          <leafValues>
            -2.0756743848323822e-01 1.1290578544139862e-01</leafValues></_>
        <_>
          <internalNodes>
            0 -1 871 -5.7731987908482552e-04</internalNodes>
          <leafValues>
            2.4990551173686981e-01 -9.6340373158454895e-02</leafValues></_>
        <_>
          <internalNodes>
            0 -1 114 3.4726399462670088e-04</internalNodes>
          <leafValues>
            6.7581057548522949e-02 -3.6142104864120483e-01</leafValues></_>
        <_>
          <internalNodes>
            0 -1 391 2.1957522258162498e-03</internalNodes>
          <leafValues>
            -6.7552521824836731e-02 3.5324928164482117e-01</leafValues></_>
        <_>
          <internalNodes>
            0 -1 1121 9.9347042851150036e-04</internalNodes>
          <leafValues>
            5.0947867333889008e-02 -4.7688180208206177e-01</leafValues></_>
        <_>
          <internalNodes>
            0 -1 896 -3.0255567980930209e-04</internalNodes>
          <leafValues>
            1.9820299744606018e-01 -1.1543969064950943e-01</leafValues></_>
        <_>
          <internalNodes>
            0 -1 769 8.3268166054040194e-04</internalNodes>
          <leafValues>
            -1.0506585240364075e-01 2.2147750854492188e-01</leafValues></_>
        <_>
          <internalNodes>
            0 -1 717 1.1673921253532171e-03</internalNodes>
          <leafValues>
            -1.0449590533971786e-01 2.1116973459720612e-01</leafValues></_>
        <_>
          <internalNodes>
            0 -1 308 -7.0732692256569862e-04</internalNodes>
          <leafValues>
            1.3070383667945862e-01 -1.7825067043304443e-01</leafValues></_>
        <_>
          <internalNodes>
            0 -1 875 1.3872426934540272e-03</internalNodes>
          <leafValues>
            5.8156739920377731e-02 -3.6172410845756531e-01</leafValues></_>
        <_>
          <internalNodes>
            0 -1 826 -1.9211144535802305e-04</internalNodes>
          <leafValues>
            2.4050986766815186e-01 -9.5828242599964142e-02</leafValues></_>
        <_>
          <internalNodes>
            0 -1 734 -5.1953294314444065e-04</internalNodes>
          <leafValues>
            -4.4797736406326294e-01 5.0542104989290237e-02</leafValues></_>
        <_>
          <internalNodes>
            0 -1 870 -5.0200271653011441e-04</internalNodes>
          <leafValues>
            1.5958367288112640e-01 -1.3898451626300812e-01</leafValues></_>
        <_>
          <internalNodes>
            0 -1 332 -2.8890995308756828e-03</internalNodes>
          <leafValues>
            1.6501900553703308e-01 -1.3168360292911530e-01</leafValues></_>
        <_>
          <internalNodes>
            0 -1 926 3.3409190364181995e-03</internalNodes>
          <leafValues>
            -9.6147224307060242e-02 2.5973916053771973e-01</leafValues></_>
        <_>
          <internalNodes>
            0 -1 960 4.4912699609994888e-02</internalNodes>
          <leafValues>
            -5.8651410043239594e-02 3.7869957089424133e-01</leafValues></_>
        <_>
          <internalNodes>
            0 -1 970 6.0419645160436630e-04</internalNodes>
          <leafValues>
            5.4520636796951294e-02 -4.2388522624969482e-01</leafValues></_>
        <_>
          <internalNodes>
            0 -1 612 7.6205008663237095e-03</internalNodes>
          <leafValues>
            -8.3035506308078766e-02 2.5809460878372192e-01</leafValues></_>
        <_>
          <internalNodes>
            0 -1 934 2.3972608614712954e-03</internalNodes>
          <leafValues>
            6.9370470941066742e-02 -3.3639821410179138e-01</leafValues></_>
        <_>
          <internalNodes>
            0 -1 334 1.9688945263624191e-02</internalNodes>
          <leafValues>
            -7.9032823443412781e-02 2.6578980684280396e-01</leafValues></_>
        <_>
          <internalNodes>
            0 -1 731 1.3599311932921410e-03</internalNodes>
          <leafValues>
            -1.3484215736389160e-01 1.7233614623546600e-01</leafValues></_>
        <_>
          <internalNodes>
            0 -1 84 6.5881378948688507e-02</internalNodes>
          <leafValues>
            -7.7532611787319183e-02 3.6440220475196838e-01</leafValues></_>
        <_>
          <internalNodes>
            0 -1 437 -3.9603706449270248e-02</internalNodes>
          <leafValues>
            1.6468748450279236e-01 -1.4316256344318390e-01</leafValues></_>
        <_>
          <internalNodes>
            0 -1 373 1.0096138576045632e-03</internalNodes>
          <leafValues>
            4.9137122929096222e-02 -4.3372851610183716e-01</leafValues></_>
        <_>
          <internalNodes>
            0 -1 83 -5.6622855365276337e-02</internalNodes>
          <leafValues>
            3.0457028746604919e-01 -7.5070187449455261e-02</leafValues></_>
        <_>
          <internalNodes>
            0 -1 137 2.4334997870028019e-03</internalNodes>
          <leafValues>
            5.2660580724477768e-02 -4.7391128540039063e-01</leafValues></_></weakClassifiers></_>
    <!-- stage 10 -->
    <_>
      <maxWeakCount>72</maxWeakCount>
      <stageThreshold>-5.3634220361709595e-01</stageThreshold>
      <weakClassifiers>
        <_>
          <internalNodes>
            0 -1 176 -2.6955464482307434e-01</internalNodes>
          <leafValues>
            8.2076352834701538e-01 3.8108429312705994e-01</leafValues></_>
        <_>
          <internalNodes>
            0 -1 535 2.1404784172773361e-02</internalNodes>
          <leafValues>
            -9.6834741532802582e-02 3.8589784502983093e-01</leafValues></_>
        <_>
          <internalNodes>
            0 -1 59 -4.4541203975677490e-01</internalNodes>
          <leafValues>
            5.3956520557403564e-01 -8.6841195821762085e-02</leafValues></_>
        <_>
          <internalNodes>
            0 -1 495 1.8563069403171539e-02</internalNodes>
          <leafValues>
            -1.6677357256412506e-01 3.0175301432609558e-01</leafValues></_>
        <_>
          <internalNodes>
            0 -1 146 2.9659597203135490e-02</internalNodes>
          <leafValues>
            1.4925569295883179e-01 -4.2761847376823425e-01</leafValues></_>
        <_>
          <internalNodes>
            0 -1 1079 -2.2642213851213455e-02</internalNodes>
          <leafValues>
            -4.3477064371109009e-01 3.9819128811359406e-02</leafValues></_>
        <_>
          <internalNodes>
            0 -1 1020 4.2634636163711548e-02</internalNodes>
          <leafValues>
            8.9676499366760254e-02 -4.4789886474609375e-01</leafValues></_>
        <_>
          <internalNodes>
            0 -1 37 -7.0192320272326469e-03</internalNodes>
          <leafValues>
            -4.0333294868469238e-01 8.2363702356815338e-02</leafValues></_>
        <_>
          <internalNodes>
            0 -1 14 -1.6401644796133041e-02</internalNodes>
          <leafValues>
            -4.9494394659996033e-01 5.3478054702281952e-02</leafValues></_>
        <_>
          <internalNodes>
            0 -1 70 -6.5610654652118683e-02</internalNodes>
          <leafValues>
            3.4883981943130493e-01 -8.2987621426582336e-02</leafValues></_>
        <_>
          <internalNodes>
            0 -1 784 -1.8923662137240171e-03</internalNodes>
          <leafValues>
            6.1306411027908325e-01 -5.3397428244352341e-02</leafValues></_>
        <_>
          <internalNodes>
            0 -1 659 -1.5859955456107855e-03</internalNodes>
          <leafValues>
            2.5944820046424866e-01 -9.4794027507305145e-02</leafValues></_>
        <_>
          <internalNodes>
            0 -1 51 1.4597663655877113e-02</internalNodes>
          <leafValues>
            4.4387165457010269e-02 -5.3810769319534302e-01</leafValues></_>
        <_>
          <internalNodes>
            0 -1 703 -6.9732242263853550e-04</internalNodes>
          <leafValues>
            2.7515104413032532e-01 -9.4485282897949219e-02</leafValues></_>
        <_>
          <internalNodes>
            0 -1 635 -7.3009245097637177e-03</internalNodes>
          <leafValues>
            -3.8785827159881592e-01 6.5258286893367767e-02</leafValues></_>
        <_>
          <internalNodes>
            0 -1 214 1.3614613562822342e-03</internalNodes>
          <leafValues>
            5.1463693380355835e-02 -4.6436080336570740e-01</leafValues></_>
        <_>
          <internalNodes>
            0 -1 312 8.7768919765949249e-03</internalNodes>
          <leafValues>
            5.8072410523891449e-02 -3.9656114578247070e-01</leafValues></_>
        <_>
          <internalNodes>
            0 -1 842 -1.3611080124974251e-02</internalNodes>
          <leafValues>
            2.2424970567226410e-01 -1.1407745629549026e-01</leafValues></_>
        <_>
          <internalNodes>
            0 -1 1114 -3.1376169063150883e-03</internalNodes>
          <leafValues>
            -3.9661478996276855e-01 6.7532628774642944e-02</leafValues></_>
        <_>
          <internalNodes>
            0 -1 788 -1.9679749384522438e-03</internalNodes>
          <leafValues>
            3.2689860463142395e-01 -8.1023529171943665e-02</leafValues></_>
        <_>
          <internalNodes>
            0 -1 270 7.2409962303936481e-03</internalNodes>
          <leafValues>
            -1.9058813154697418e-01 1.3757163286209106e-01</leafValues></_>
        <_>
          <internalNodes>
            0 -1 460 1.0166371613740921e-01</internalNodes>
          <leafValues>
            -6.3600771129131317e-02 3.9391514658927917e-01</leafValues></_>
        <_>
          <internalNodes>
            0 -1 1045 4.3364213779568672e-03</internalNodes>
          <leafValues>
            7.7875994145870209e-02 -3.2151809334754944e-01</leafValues></_>
        <_>
          <internalNodes>
            0 -1 622 1.2888520956039429e-02</internalNodes>
          <leafValues>
            -8.1052780151367188e-02 3.0289554595947266e-01</leafValues></_>
        <_>
          <internalNodes>
            0 -1 32 -4.5298181474208832e-02</internalNodes>
          <leafValues>
            9.4446435570716858e-02 -2.5959864258766174e-01</leafValues></_>
        <_>
          <internalNodes>
            0 -1 604 -1.2247136328369379e-03</internalNodes>
          <leafValues>
            2.0262670516967773e-01 -1.2463087588548660e-01</leafValues></_>
        <_>
          <internalNodes>
            0 -1 609 -2.4545271880924702e-03</internalNodes>
          <leafValues>
            2.5320872664451599e-01 -9.6009992063045502e-02</leafValues></_>
        <_>
          <internalNodes>
            0 -1 929 -5.2082288311794400e-04</internalNodes>
          <leafValues>
            2.4057535827159882e-01 -9.7355462610721588e-02</leafValues></_>
        <_>
          <internalNodes>
            0 -1 607 1.3885271036997437e-03</internalNodes>
          <leafValues>
            -5.4540459066629410e-02 3.9893114566802979e-01</leafValues></_>
        <_>
          <internalNodes>
            0 -1 972 1.2366034789010882e-03</internalNodes>
          <leafValues>
            6.9651387631893158e-02 -3.3053520321846008e-01</leafValues></_>
        <_>
          <internalNodes>
            0 -1 356 3.3747036941349506e-03</internalNodes>
          <leafValues>
            -1.4881707727909088e-01 1.8001353740692139e-01</leafValues></_>
        <_>
          <internalNodes>
            0 -1 573 9.8602674901485443e-02</internalNodes>
          <leafValues>
            -7.4737705290317535e-02 3.2574638724327087e-01</leafValues></_>
        <_>
          <internalNodes>
            0 -1 1109 -2.4945973418653011e-03</internalNodes>
          <leafValues>
            -3.5926467180252075e-01 6.4583159983158112e-02</leafValues></_>
        <_>
          <internalNodes>
            0 -1 236 6.2280078418552876e-04</internalNodes>
          <leafValues>
            7.4385195970535278e-02 -2.7056455612182617e-01</leafValues></_>
        <_>
          <internalNodes>
            0 -1 529 -2.0179724320769310e-02</internalNodes>
          <leafValues>
            1.9801375269889832e-01 -1.1539278179407120e-01</leafValues></_>
        <_>
          <internalNodes>
            0 -1 656 -2.7248612605035305e-03</internalNodes>
          <leafValues>
            2.2076381742954254e-01 -9.4168774783611298e-02</leafValues></_>
        <_>
          <internalNodes>
            0 -1 785 1.9541964866220951e-03</internalNodes>
          <leafValues>
            -8.0471597611904144e-02 2.5016307830810547e-01</leafValues></_>
        <_>
          <internalNodes>
            0 -1 248 -5.3354911506175995e-03</internalNodes>
          <leafValues>
            -3.8946789503097534e-01 5.3541086614131927e-02</leafValues></_>
        <_>
          <internalNodes>
            0 -1 42 -5.9879726904910058e-05</internalNodes>
          <leafValues>
            1.9072641432285309e-01 -1.0549740493297577e-01</leafValues></_>
        <_>
          <internalNodes>
            0 -1 441 1.3851396506652236e-03</internalNodes>
          <leafValues>
            5.2394200116395950e-02 -3.7965849041938782e-01</leafValues></_>
        <_>
          <internalNodes>
            0 -1 702 9.3351444229483604e-04</internalNodes>
          <leafValues>
            -9.9712282419204712e-02 2.1339634060859680e-01</leafValues></_>
        <_>
          <internalNodes>
            0 -1 641 -6.5071048447862267e-04</internalNodes>
          <leafValues>
            2.1462094783782959e-01 -1.0147971659898758e-01</leafValues></_>
        <_>
          <internalNodes>
            0 -1 1057 -9.8172272555530071e-04</internalNodes>
          <leafValues>
            -3.8039934635162354e-01 5.3706042468547821e-02</leafValues></_>
        <_>
          <internalNodes>
            0 -1 510 -1.4602538198232651e-02</internalNodes>
          <leafValues>
            1.2025496363639832e-01 -1.5742336213588715e-01</leafValues></_>
        <_>
          <internalNodes>
            0 -1 465 3.4026504727080464e-04</internalNodes>
          <leafValues>
            -8.3858132362365723e-02 2.3025777935981750e-01</leafValues></_>
        <_>
          <internalNodes>
            0 -1 389 1.2697649654000998e-03</internalNodes>
          <leafValues>
            -7.2042286396026611e-02 2.8979989886283875e-01</leafValues></_>
        <_>
          <internalNodes>
            0 -1 109 -5.7844188064336777e-02</internalNodes>
          <leafValues>
            3.8127684593200684e-01 -5.4903328418731689e-02</leafValues></_>
        <_>
          <internalNodes>
            0 -1 474 1.1503364890813828e-01</internalNodes>
          <leafValues>
            -6.9804772734642029e-02 2.7642795443534851e-01</leafValues></_>
        <_>
          <internalNodes>
            0 -1 338 -2.2258090320974588e-03</internalNodes>
          <leafValues>
            1.9557179510593414e-01 -9.6101939678192139e-02</leafValues></_>
        <_>
          <internalNodes>
            0 -1 112 1.8226160900667310e-03</internalNodes>
          <leafValues>
            3.4846294671297073e-02 -5.5268388986587524e-01</leafValues></_>
        <_>
          <internalNodes>
            0 -1 1039 4.0106890082824975e-05</internalNodes>
          <leafValues>
            -1.1393415182828903e-01 1.6132009029388428e-01</leafValues></_>
        <_>
          <internalNodes>
            0 -1 416 2.1175351738929749e-01</internalNodes>
          <leafValues>
            -5.2524443715810776e-02 3.5374745726585388e-01</leafValues></_>
        <_>
          <internalNodes>
            0 -1 634 4.7792200930416584e-03</internalNodes>
          <leafValues>
            3.9056718349456787e-02 -4.8949092626571655e-01</leafValues></_>
        <_>
          <internalNodes>
            0 -1 177 3.2062970101833344e-02</internalNodes>
          <leafValues>
            -3.9371494203805923e-02 4.6294039487838745e-01</leafValues></_>
        <_>
          <internalNodes>
            0 -1 86 -3.7161749787628651e-03</internalNodes>
          <leafValues>
            -3.2575854659080505e-01 6.1152543872594833e-02</leafValues></_>
        <_>
          <internalNodes>
            0 -1 912 1.1277071200311184e-02</internalNodes>
          <leafValues>
            2.4996379390358925e-02 -6.7842298746109009e-01</leafValues></_>
        <_>
          <internalNodes>
            0 -1 765 -2.4524988839402795e-04</internalNodes>
          <leafValues>
            2.2024621069431305e-01 -8.1725887954235077e-02</leafValues></_>
        <_>
          <internalNodes>
            0 -1 767 -3.0820555984973907e-03</internalNodes>
          <leafValues>
            -4.0766197443008423e-01 4.2548220604658127e-02</leafValues></_>
        <_>
          <internalNodes>
            0 -1 273 3.3749394118785858e-02</internalNodes>
          <leafValues>
            2.9030008241534233e-02 -5.3773397207260132e-01</leafValues></_>
        <_>
          <internalNodes>
            0 -1 579 4.7621384263038635e-02</internalNodes>
          <leafValues>
            -1.6689658164978027e-01 1.0758988559246063e-01</leafValues></_>
        <_>
          <internalNodes>
            0 -1 906 -4.0455169975757599e-02</internalNodes>
          <leafValues>
            2.7475991845130920e-01 -6.7166604101657867e-02</leafValues></_>
        <_>
          <internalNodes>
            0 -1 856 4.0567112155258656e-03</internalNodes>
          <leafValues>
            5.7678703218698502e-02 -3.3559387922286987e-01</leafValues></_>
        <_>
          <internalNodes>
            0 -1 651 -7.4706517625600100e-04</internalNodes>
          <leafValues>
            4.7537341713905334e-01 -3.9364885538816452e-02</leafValues></_>
        <_>
          <internalNodes>
            0 -1 618 -1.3175493804737926e-03</internalNodes>
          <leafValues>
            1.7605470120906830e-01 -9.7517289221286774e-02</leafValues></_>
        <_>
          <internalNodes>
            0 -1 944 3.7487745285034180e-02</internalNodes>
          <leafValues>
            3.4091100096702576e-02 -5.1701062917709351e-01</leafValues></_>
        <_>
          <internalNodes>
            0 -1 1052 -1.6818499425426126e-03</internalNodes>
          <leafValues>
            -4.5358198881149292e-01 3.7672482430934906e-02</leafValues></_>
        <_>
          <internalNodes>
            0 -1 1076 -4.1302744648419321e-05</internalNodes>
          <leafValues>
            1.7223614454269409e-01 -1.1049231141805649e-01</leafValues></_>
        <_>
          <internalNodes>
            0 -1 990 1.4148245099931955e-03</internalNodes>
          <leafValues>
            -6.8490386009216309e-02 2.5769361853599548e-01</leafValues></_>
        <_>
          <internalNodes>
            0 -1 1044 2.9102684929966927e-03</internalNodes>
          <leafValues>
            3.6019854247570038e-02 -5.0867402553558350e-01</leafValues></_>
        <_>
          <internalNodes>
            0 -1 359 4.0714607166592032e-05</internalNodes>
          <leafValues>
            -1.1099249869585037e-01 1.5999980270862579e-01</leafValues></_>
        <_>
          <internalNodes>
            0 -1 208 -2.3282072506844997e-03</internalNodes>
          <leafValues>
            -3.0587995052337646e-01 6.2212217599153519e-02</leafValues></_>
        <_>
          <internalNodes>
            0 -1 1009 -4.8690322728361934e-05</internalNodes>
          <leafValues>
            1.5830191969871521e-01 -1.1661017686128616e-01</leafValues></_></weakClassifiers></_>
    <!-- stage 11 -->
    <_>
      <maxWeakCount>65</maxWeakCount>
      <stageThreshold>-6.7738443613052368e-01</stageThreshold>
      <weakClassifiers>
        <_>
          <internalNodes>
            0 -1 65 -2.9972338676452637e-01</internalNodes>
          <leafValues>
            8.2879567146301270e-01 4.0422433614730835e-01</leafValues></_>
        <_>
          <internalNodes>
            0 -1 175 -4.7303983569145203e-01</internalNodes>
          <leafValues>
            6.5826678276062012e-01 3.6717042326927185e-02</leafValues></_>
        <_>
          <internalNodes>
            0 -1 1070 -1.8590416293591261e-03</internalNodes>
          <leafValues>
            -5.3496098518371582e-01 1.3077977299690247e-01</leafValues></_>
        <_>
          <internalNodes>
            0 -1 1120 7.3693523881956935e-04</internalNodes>
          <leafValues>
            1.1542111635208130e-01 -4.6340066194534302e-01</leafValues></_>
        <_>
          <internalNodes>
            0 -1 352 1.2754551135003567e-02</internalNodes>
          <leafValues>
            1.0920274257659912e-01 -4.7100898623466492e-01</leafValues></_>
        <_>
          <internalNodes>
            0 -1 543 -2.8037498705089092e-03</internalNodes>
          <leafValues>
            -4.8709386587142944e-01 1.0118057578802109e-01</leafValues></_>
        <_>
          <internalNodes>
            0 -1 7 -9.3549415469169617e-03</internalNodes>
          <leafValues>
            -4.7511923313140869e-01 9.9699258804321289e-02</leafValues></_>
        <_>
          <internalNodes>
            0 -1 751 -2.3797980975359678e-03</internalNodes>
          <leafValues>
            5.9065330028533936e-01 -1.1859922856092453e-01</leafValues></_>
        <_>
          <internalNodes>
            0 -1 192 8.0056441947817802e-03</internalNodes>
          <leafValues>
            1.4892406761646271e-01 -4.0171745419502258e-01</leafValues></_>
        <_>
          <internalNodes>
            0 -1 145 3.2272276002913713e-03</internalNodes>
          <leafValues>
            4.6987008303403854e-02 -4.4160032272338867e-01</leafValues></_>
        <_>
          <internalNodes>
            0 -1 1122 -9.3259965069591999e-04</internalNodes>
