<?xml version="1.0"?>
<opencv_storage>
<cascade>
  <stageType>BOOST</stageType>
  <featureType>HAAR</featureType>
  <height>24</height>
  <width>32</width>
  <stageParams>
    <boostType>GAB</boostType>
    <minHitRate>9.9500000476837158e-01</minHitRate>
    <maxFalseAlarm>5.0000000000000000e-01</maxFalseAlarm>
    <weightTrimRate>9.4999998807907104e-01</weightTrimRate>
    <maxDepth>1</maxDepth>
    <maxWeakCount>100</maxWeakCount></stageParams>
  <featureParams>
    <maxCatCount>0</maxCatCount>
    <featSize>1</featSize>
    <mode>BASIC</mode></featureParams>
  <stageNum>20</stageNum>
  <stages>
    <!-- stage 0 -->
    <_>
      <maxWeakCount>4</maxWeakCount>
      <stageThreshold>-1.1942603588104248e+00</stageThreshold>
      <weakClassifiers>
        <_>
          <internalNodes>
            0 -1 114 -6.6040426492691040e-02</internalNodes>
          <leafValues>
            7.8431373834609985e-01 -7.9575330018997192e-01</leafValues></_>
        <_>
          <internalNodes>
            0 -1 101 1.0322670277673751e-04</internalNodes>
          <leafValues>
            3.5237956047058105e-01 -8.3378869295120239e-01</leafValues></_>
        <_>
          <internalNodes>
            0 -1 38 -1.6045811772346497e-01</internalNodes>
          <leafValues>
            8.5173606872558594e-01 -4.2856615781784058e-01</leafValues></_>
        <_>
          <internalNodes>
            0 -1 87 -7.8191012144088745e-02</internalNodes>
          <leafValues>
            8.6384767293930054e-01 -2.7778667211532593e-01</leafValues></_></weakClassifiers></_>
    <!-- stage 1 -->
    <_>
      <maxWeakCount>5</maxWeakCount>
      <stageThreshold>-9.4498515129089355e-01</stageThreshold>
      <weakClassifiers>
        <_>
          <internalNodes>
            0 -1 102 -1.2550708651542664e-01</internalNodes>
          <leafValues>
            7.7848100662231445e-01 -8.1001019477844238e-01</leafValues></_>
        <_>
          <internalNodes>
            0 -1 57 -2.0548799633979797e-01</internalNodes>
          <leafValues>
            9.0241056680679321e-01 -4.5437055826187134e-01</leafValues></_>
        <_>
          <internalNodes>
            0 -1 151 4.4706364860758185e-05</internalNodes>
          <leafValues>
            3.6587646603584290e-01 -9.2287141084671021e-01</leafValues></_>
        <_>
          <internalNodes>
            0 -1 95 -1.4264379441738129e-01</internalNodes>
          <leafValues>
            8.5773181915283203e-01 -4.3154290318489075e-01</leafValues></_>
        <_>
          <internalNodes>
            0 -1 138 4.0690567402634770e-05</internalNodes>
          <leafValues>
            3.8506206870079041e-01 -8.7878930568695068e-01</leafValues></_></weakClassifiers></_>
    <!-- stage 2 -->
    <_>
      <maxWeakCount>4</maxWeakCount>
      <stageThreshold>-1.0712705850601196e+00</stageThreshold>
      <weakClassifiers>
        <_>
          <internalNodes>
            0 -1 103 -1.0051780194044113e-01</internalNodes>
          <leafValues>
            8.7044537067413330e-01 -7.2709923982620239e-01</leafValues></_>
        <_>
          <internalNodes>
            0 -1 144 3.4729462640825659e-05</internalNodes>
          <leafValues>
            2.7096536755561829e-01 -8.5098606348037720e-01</leafValues></_>
        <_>
          <internalNodes>
            0 -1 4 -2.9425253160297871e-05</internalNodes>
          <leafValues>
            -8.4136086702346802e-01 2.6630079746246338e-01</leafValues></_>
        <_>
          <internalNodes>
            0 -1 1 -2.7261647119303234e-05</internalNodes>
          <leafValues>
            -8.8143754005432129e-01 2.8655844926834106e-01</leafValues></_></weakClassifiers></_>
    <!-- stage 3 -->
    <_>
      <maxWeakCount>7</maxWeakCount>
      <stageThreshold>-1.5737080574035645e+00</stageThreshold>
      <weakClassifiers>
        <_>
          <internalNodes>
            0 -1 85 -1.5867623686790466e-01</internalNodes>
          <leafValues>
            7.0731705427169800e-01 -7.4404764175415039e-01</leafValues></_>
        <_>
          <internalNodes>
            0 -1 15 -3.0090344807831571e-05</internalNodes>
          <leafValues>
            -7.7988296747207642e-01 2.5814956426620483e-01</leafValues></_>
        <_>
          <internalNodes>
            0 -1 150 2.8328818734735250e-04</internalNodes>
          <leafValues>
            2.4261127412319183e-01 -8.2221299409866333e-01</leafValues></_>
        <_>
          <internalNodes>
            0 -1 70 -3.0094890462351032e-05</internalNodes>
          <leafValues>
            -7.1818614006042480e-01 2.8067716956138611e-01</leafValues></_>
        <_>
          <internalNodes>
            0 -1 9 -1.4879587979521602e-04</internalNodes>
          <leafValues>
            -8.7509971857070923e-01 2.2025042772293091e-01</leafValues></_>
        <_>
          <internalNodes>
            0 -1 77 -2.6809033751487732e-01</internalNodes>
          <leafValues>
            8.0516904592514038e-01 -3.2538664340972900e-01</leafValues></_>
        <_>
          <internalNodes>
            0 -1 74 -1.7538203299045563e-01</internalNodes>
          <leafValues>
            5.9689456224441528e-01 -3.7733504176139832e-01</leafValues></_></weakClassifiers></_>
    <!-- stage 4 -->
    <_>
      <maxWeakCount>6</maxWeakCount>
      <stageThreshold>-1.6785664558410645e+00</stageThreshold>
      <weakClassifiers>
        <_>
          <internalNodes>
            0 -1 61 1.6086928546428680e-01</internalNodes>
          <leafValues>
            -6.9216239452362061e-01 7.8813558816909790e-01</leafValues></_>
        <_>
          <internalNodes>
            0 -1 89 -2.2432860732078552e-01</internalNodes>
          <leafValues>
            7.5239253044128418e-01 -3.8993373513221741e-01</leafValues></_>
        <_>
          <internalNodes>
            0 -1 69 -1.5547817747574300e-04</internalNodes>
          <leafValues>
            -8.2858365774154663e-01 3.1046506762504578e-01</leafValues></_>
        <_>
          <internalNodes>
            0 -1 124 -1.4686104841530323e-03</internalNodes>
          <leafValues>
            -7.6713705062866211e-01 2.6850754022598267e-01</leafValues></_>
        <_>
          <internalNodes>
            0 -1 80 -1.0420896857976913e-01</internalNodes>
          <leafValues>
            6.7851555347442627e-01 -3.6558178067207336e-01</leafValues></_>
        <_>
          <internalNodes>
            0 -1 45 -1.3953827146906406e-04</internalNodes>
          <leafValues>
            -8.0986112356185913e-01 3.0775165557861328e-01</leafValues></_></weakClassifiers></_>
    <!-- stage 5 -->
    <_>
      <maxWeakCount>7</maxWeakCount>
      <stageThreshold>-1.4237141609191895e+00</stageThreshold>
      <weakClassifiers>
        <_>
          <internalNodes>
            0 -1 94 -1.7640963196754456e-01</internalNodes>
          <leafValues>
            5.8870965242385864e-01 -6.6189110279083252e-01</leafValues></_>
        <_>
          <internalNodes>
            0 -1 20 7.0054561365395784e-04</internalNodes>
          <leafValues>
            1.7652539908885956e-01 -8.4532052278518677e-01</leafValues></_>
        <_>
          <internalNodes>
            0 -1 153 -6.1741062381770462e-05</internalNodes>
          <leafValues>
            -8.2821458578109741e-01 1.7538405954837799e-01</leafValues></_>
        <_>
          <internalNodes>
            0 -1 75 -2.9461979866027832e-03</internalNodes>
          <leafValues>
            -8.7178832292556763e-01 2.0040507614612579e-01</leafValues></_>
        <_>
          <internalNodes>
            0 -1 142 2.6704458286985755e-04</internalNodes>
          <leafValues>
            2.3229505121707916e-01 -7.7483516931533813e-01</leafValues></_>
        <_>
          <internalNodes>
            0 -1 11 -1.9933002477046102e-04</internalNodes>
          <leafValues>
            -6.5278184413909912e-01 2.4902282655239105e-01</leafValues></_>
        <_>
          <internalNodes>
            0 -1 172 2.0954516367055476e-04</internalNodes>
          <leafValues>
            2.2998911142349243e-01 -7.2841531038284302e-01</leafValues></_></weakClassifiers></_>
    <!-- stage 6 -->
    <_>
      <maxWeakCount>8</maxWeakCount>
      <stageThreshold>-1.8120814561843872e+00</stageThreshold>
      <weakClassifiers>
        <_>
          <internalNodes>
            0 -1 109 7.5931645929813385e-02</internalNodes>
          <leafValues>
            -6.6410750150680542e-01 5.7312250137329102e-01</leafValues></_>
        <_>
          <internalNodes>
            0 -1 27 -3.6112433008383960e-05</internalNodes>
          <leafValues>
            3.5679471492767334e-01 -5.4011249542236328e-01</leafValues></_>
        <_>
          <internalNodes>
            0 -1 140 -8.1533787306398153e-04</internalNodes>
          <leafValues>
            -7.0818585157394409e-01 2.2974741458892822e-01</leafValues></_>
        <_>
          <internalNodes>
            0 -1 162 3.6649836692959070e-04</internalNodes>
          <leafValues>
            2.1057593822479248e-01 -9.1832590103149414e-01</leafValues></_>
        <_>
          <internalNodes>
            0 -1 128 1.5128180384635925e-03</internalNodes>
          <leafValues>
            1.7524108290672302e-01 -7.8531247377395630e-01</leafValues></_>
        <_>
          <internalNodes>
            0 -1 96 1.6928746481426060e-04</internalNodes>
          <leafValues>
            -2.6221203804016113e-01 7.0741403102874756e-01</leafValues></_>
        <_>
          <internalNodes>
            0 -1 96 -2.0353790023364127e-04</internalNodes>
          <leafValues>
            6.6888475418090820e-01 -2.6246109604835510e-01</leafValues></_>
        <_>
          <internalNodes>
            0 -1 154 -1.6254611313343048e-02</internalNodes>
          <leafValues>
            -8.9777600765228271e-01 2.3918056488037109e-01</leafValues></_></weakClassifiers></_>
    <!-- stage 7 -->
    <_>
      <maxWeakCount>7</maxWeakCount>
      <stageThreshold>-1.7535077333450317e+00</stageThreshold>
      <weakClassifiers>
        <_>
          <internalNodes>
            0 -1 30 5.2789462642977014e-05</internalNodes>
          <leafValues>
            -8.1986755132675171e-01 1.3333334028720856e-01</leafValues></_>
        <_>
          <internalNodes>
            0 -1 39 -1.4918263256549835e-01</internalNodes>
          <leafValues>
            5.4015469551086426e-01 -4.1242986917495728e-01</leafValues></_>
        <_>
          <internalNodes>
            0 -1 159 2.8459434397518635e-03</internalNodes>
          <leafValues>
            2.3482753336429596e-01 -7.1682316064834595e-01</leafValues></_>
        <_>
          <internalNodes>
            0 -1 60 -5.2246935665607452e-03</internalNodes>
          <leafValues>
            -8.3124125003814697e-01 2.1431200206279755e-01</leafValues></_>
        <_>
          <internalNodes>
            0 -1 0 1.0712057701312006e-04</internalNodes>
          <leafValues>
            -3.9729240536689758e-01 4.3698677420616150e-01</leafValues></_>
        <_>
          <internalNodes>
            0 -1 107 -4.7516822814941406e-03</internalNodes>
          <leafValues>
            -7.9462146759033203e-01 1.9319429993629456e-01</leafValues></_>
        <_>
          <internalNodes>
            0 -1 131 -1.9402218458708376e-04</internalNodes>
          <leafValues>
            -8.2407081127166748e-01 1.8539899587631226e-01</leafValues></_></weakClassifiers></_>
    <!-- stage 8 -->
    <_>
      <maxWeakCount>7</maxWeakCount>
      <stageThreshold>-1.2663638591766357e+00</stageThreshold>
      <weakClassifiers>
        <_>
          <internalNodes>
            0 -1 66 -1.5411651134490967e-01</internalNodes>
          <leafValues>
            5.6129032373428345e-01 -7.3197966814041138e-01</leafValues></_>
        <_>
          <internalNodes>
            0 -1 83 1.0917903482913971e-01</internalNodes>
          <leafValues>
            -4.8200210928916931e-01 4.8713290691375732e-01</leafValues></_>
        <_>
          <internalNodes>
            0 -1 93 -1.9665051251649857e-02</internalNodes>
          <leafValues>
            6.2132209539413452e-01 -2.7891990542411804e-01</leafValues></_>
        <_>
          <internalNodes>
            0 -1 98 -5.3795188665390015e-02</internalNodes>
          <leafValues>
            6.4388924837112427e-01 -2.5385099649429321e-01</leafValues></_>
        <_>
          <internalNodes>
            0 -1 28 3.0374816560652107e-05</internalNodes>
          <leafValues>
            2.5006997585296631e-01 -6.8372619152069092e-01</leafValues></_>
        <_>
          <internalNodes>
            0 -1 111 -9.9546238780021667e-03</internalNodes>
          <leafValues>
            6.8421256542205811e-01 -2.4664294719696045e-01</leafValues></_>
        <_>
          <internalNodes>
            0 -1 121 1.0131080634891987e-03</internalNodes>
          <leafValues>
            -3.3597135543823242e-01 4.7696182131767273e-01</leafValues></_></weakClassifiers></_>
    <!-- stage 9 -->
    <_>
      <maxWeakCount>7</maxWeakCount>
      <stageThreshold>-1.1947292089462280e+00</stageThreshold>
      <weakClassifiers>
        <_>
          <internalNodes>
            0 -1 92 5.2138559520244598e-02</internalNodes>
          <leafValues>
            -5.9893047809600830e-01 7.2254335880279541e-01</leafValues></_>
        <_>
          <internalNodes>
            0 -1 12 -9.7801932133734226e-04</internalNodes>
          <leafValues>
            -7.5205075740814209e-01 1.7854791879653931e-01</leafValues></_>
        <_>
          <internalNodes>
            0 -1 166 -9.4650051323696971e-05</internalNodes>
          <leafValues>
            3.3440789580345154e-01 -5.4002928733825684e-01</leafValues></_>
        <_>
          <internalNodes>
            0 -1 2 1.0420009493827820e-02</internalNodes>
          <leafValues>
            2.2296316921710968e-01 -8.6426931619644165e-01</leafValues></_>
        <_>
          <internalNodes>
            0 -1 168 -2.7480931021273136e-04</internalNodes>
          <leafValues>
            -7.4295508861541748e-01 1.9924004375934601e-01</leafValues></_>
        <_>
          <internalNodes>
            0 -1 148 -1.8554679118096828e-03</internalNodes>
          <leafValues>
            -7.6556980609893799e-01 1.8669198453426361e-01</leafValues></_>
        <_>
          <internalNodes>
            0 -1 46 -7.2725885547697544e-04</internalNodes>
          <leafValues>
            -9.4087636470794678e-01 1.5514408051967621e-01</leafValues></_></weakClassifiers></_>
    <!-- stage 10 -->
    <_>
      <maxWeakCount>9</maxWeakCount>
      <stageThreshold>-1.5759419202804565e+00</stageThreshold>
      <weakClassifiers>
        <_>
          <internalNodes>
            0 -1 78 -1.6363981366157532e-01</internalNodes>
          <leafValues>
            5.4128438234329224e-01 -6.1745589971542358e-01</leafValues></_>
        <_>
          <internalNodes>
            0 -1 35 -4.5662624761462212e-03</internalNodes>
          <leafValues>
            -7.5200223922729492e-01 1.8009646236896515e-01</leafValues></_>
        <_>
          <internalNodes>
            0 -1 157 -3.1399168074131012e-03</internalNodes>
          <leafValues>
            3.2525548338890076e-01 -4.2959898710250854e-01</leafValues></_>
        <_>
          <internalNodes>
            0 -1 10 -7.6413125498220325e-05</internalNodes>
          <leafValues>
            -5.6735569238662720e-01 2.5634852051734924e-01</leafValues></_>
        <_>
          <internalNodes>
            0 -1 34 6.0072108171880245e-03</internalNodes>
          <leafValues>
            2.1102397143840790e-01 -7.7726185321807861e-01</leafValues></_>
        <_>
          <internalNodes>
            0 -1 156 8.9044049382209778e-03</internalNodes>
          <leafValues>
            1.3600444793701172e-01 -7.8625351190567017e-01</leafValues></_>
        <_>
          <internalNodes>
            0 -1 169 -1.0761700104922056e-03</internalNodes>
          <leafValues>
            -7.6636433601379395e-01 1.9071903824806213e-01</leafValues></_>
        <_>
          <internalNodes>
            0 -1 99 -9.5109026879072189e-03</internalNodes>
          <leafValues>
            5.5162483453750610e-01 -2.9074826836585999e-01</leafValues></_>
        <_>
          <internalNodes>
            0 -1 97 1.3232559431344271e-03</internalNodes>
          <leafValues>
            -2.2122354805469513e-01 6.2357193231582642e-01</leafValues></_></weakClassifiers></_>
    <!-- stage 11 -->
    <_>
      <maxWeakCount>8</maxWeakCount>
      <stageThreshold>-1.3883018493652344e+00</stageThreshold>
      <weakClassifiers>
        <_>
          <internalNodes>
            0 -1 16 2.7610296383500099e-03</internalNodes>
          <leafValues>
            -7.8829389810562134e-01 1.7479674518108368e-01</leafValues></_>
        <_>
          <internalNodes>
            0 -1 119 5.4373946040868759e-02</internalNodes>
          <leafValues>
            -4.9258923530578613e-01 4.0866202116012573e-01</leafValues></_>
        <_>
          <internalNodes>
            0 -1 163 1.0308888704457786e-05</internalNodes>
          <leafValues>
            2.0553900301456451e-01 -6.4570575952529907e-01</leafValues></_>
        <_>
          <internalNodes>
            0 -1 25 -2.7426588349044323e-03</internalNodes>
          <leafValues>
            -8.6512631177902222e-01 1.7923831939697266e-01</leafValues></_>
        <_>
          <internalNodes>
            0 -1 8 3.3438941463828087e-03</internalNodes>
          <leafValues>
            -4.4091212749481201e-01 3.5225081443786621e-01</leafValues></_>
        <_>
          <internalNodes>
            0 -1 81 5.7157032191753387e-02</internalNodes>
          <leafValues>
            -2.7840933203697205e-01 6.9292986392974854e-01</leafValues></_>
        <_>
          <internalNodes>
            0 -1 72 2.4758806824684143e-01</internalNodes>
          <leafValues>
            -2.1874564886093140e-01 7.2502303123474121e-01</leafValues></_>
        <_>
          <internalNodes>
            0 -1 93 -5.8967205695807934e-03</internalNodes>
          <leafValues>
            4.4587105512619019e-01 -2.7687075734138489e-01</leafValues></_></weakClassifiers></_>
    <!-- stage 12 -->
    <_>
      <maxWeakCount>8</maxWeakCount>
      <stageThreshold>-1.7825728654861450e+00</stageThreshold>
      <weakClassifiers>
        <_>
          <internalNodes>
            0 -1 104 -2.0562827587127686e-01</internalNodes>
          <leafValues>
            8.9999997615814209e-01 -5.3305441141128540e-01</leafValues></_>
        <_>
          <internalNodes>
            0 -1 173 -7.8310712706297636e-04</internalNodes>
          <leafValues>
            -7.8791594505310059e-01 1.8733741343021393e-01</leafValues></_>
        <_>
          <internalNodes>
            0 -1 24 -3.6418488889466971e-05</internalNodes>
          <leafValues>
            -6.5714514255523682e-01 2.4020408093929291e-01</leafValues></_>
        <_>
          <internalNodes>
            0 -1 160 -1.4541593845933676e-03</internalNodes>
          <leafValues>
            -7.2814446687698364e-01 2.2821812331676483e-01</leafValues></_>
        <_>
          <internalNodes>
            0 -1 48 -4.0762987919151783e-04</internalNodes>
          <leafValues>
            -6.6313797235488892e-01 2.2854739427566528e-01</leafValues></_>
        <_>
          <internalNodes>
            0 -1 51 -2.9883871320635080e-04</internalNodes>
          <leafValues>
            -6.5473371744155884e-01 1.6436251997947693e-01</leafValues></_>
        <_>
          <internalNodes>
            0 -1 19 -8.0418848665431142e-04</internalNodes>
          <leafValues>
            -6.7965853214263916e-01 2.1682457625865936e-01</leafValues></_>
        <_>
          <internalNodes>
            0 -1 133 -4.4716993579640985e-04</internalNodes>
          <leafValues>
            -6.9846528768539429e-01 1.7102238535881042e-01</leafValues></_></weakClassifiers></_>
    <!-- stage 13 -->
    <_>
      <maxWeakCount>10</maxWeakCount>
      <stageThreshold>-1.3715282678604126e+00</stageThreshold>
      <weakClassifiers>
        <_>
          <internalNodes>
            0 -1 141 -6.1023766174912453e-03</internalNodes>
          <leafValues>
            3.6630036775022745e-03 -7.3297733068466187e-01</leafValues></_>
        <_>
          <internalNodes>
            0 -1 108 6.0400895774364471e-02</internalNodes>
          <leafValues>
            -3.4010767936706543e-01 5.2225112915039063e-01</leafValues></_>
        <_>
          <internalNodes>
            0 -1 165 5.0931532314280048e-05</internalNodes>
          <leafValues>
            1.5891560912132263e-01 -8.3375221490859985e-01</leafValues></_>
        <_>
          <internalNodes>
            0 -1 3 -2.0218591089360416e-05</internalNodes>
          <leafValues>
            -7.2969752550125122e-01 1.7492692172527313e-01</leafValues></_>
        <_>
          <internalNodes>
            0 -1 100 1.3924013823270798e-02</internalNodes>
          <leafValues>
            -3.6181393265724182e-01 3.3989328145980835e-01</leafValues></_>
        <_>
          <internalNodes>
            0 -1 42 -7.6721637742593884e-04</internalNodes>
          <leafValues>
            -7.4796146154403687e-01 1.5183177590370178e-01</leafValues></_>
        <_>
          <internalNodes>
            0 -1 139 1.4447737157752272e-05</internalNodes>
          <leafValues>
            -4.9125522375106812e-01 2.2481198608875275e-01</leafValues></_>
        <_>
          <internalNodes>
            0 -1 123 -5.6711479555815458e-04</internalNodes>
          <leafValues>
            -6.4736855030059814e-01 1.6623334586620331e-01</leafValues></_>
        <_>
          <internalNodes>
            0 -1 52 2.1681627258658409e-03</internalNodes>
          <leafValues>
            9.6363216638565063e-02 -8.1880134344100952e-01</leafValues></_>
        <_>
          <internalNodes>
            0 -1 147 4.2779184877872467e-03</internalNodes>
          <leafValues>
            9.7315691411495209e-02 -8.9370077848434448e-01</leafValues></_></weakClassifiers></_>
    <!-- stage 14 -->
    <_>
      <maxWeakCount>11</maxWeakCount>
      <stageThreshold>-1.3053663969039917e+00</stageThreshold>
      <weakClassifiers>
        <_>
          <internalNodes>
            0 -1 23 2.3141992278397083e-03</internalNodes>
          <leafValues>
            -7.4686717987060547e-01 9.8591551184654236e-02</leafValues></_>
        <_>
          <internalNodes>
            0 -1 152 -6.0033868066966534e-04</internalNodes>
          <leafValues>
            2.7591547369956970e-01 -4.7013059258460999e-01</leafValues></_>
        <_>
          <internalNodes>
            0 -1 58 1.2769570946693420e-01</internalNodes>
          <leafValues>
            -2.3132114112377167e-01 5.9761345386505127e-01</leafValues></_>
        <_>
          <internalNodes>
            0 -1 155 -1.4870073937345296e-04</internalNodes>
          <leafValues>
            -6.8422037363052368e-01 1.8735462427139282e-01</leafValues></_>
        <_>
          <internalNodes>
            0 -1 86 -1.8289093673229218e-01</internalNodes>
          <leafValues>
            3.9674556255340576e-01 -3.0669048428535461e-01</leafValues></_>
        <_>
          <internalNodes>
            0 -1 84 -1.0605857521295547e-01</internalNodes>
          <leafValues>
            7.2217142581939697e-01 -1.8911793828010559e-01</leafValues></_>
        <_>
          <internalNodes>
            0 -1 127 7.4896888691000640e-05</internalNodes>
          <leafValues>
            -3.7845650315284729e-01 3.4349370002746582e-01</leafValues></_>
        <_>
          <internalNodes>
            0 -1 21 9.6768228104338050e-04</internalNodes>
          <leafValues>
            2.0265209674835205e-01 -6.8954735994338989e-01</leafValues></_>
        <_>
          <internalNodes>
            0 -1 105 -7.4258726090192795e-03</internalNodes>
          <leafValues>
            5.9358394145965576e-01 -2.1059699356555939e-01</leafValues></_>
        <_>
          <internalNodes>
            0 -1 37 -9.7192352404817939e-04</internalNodes>
          <leafValues>
            -7.0633900165557861e-01 1.6489833593368530e-01</leafValues></_>
        <_>
          <internalNodes>
            0 -1 134 4.0874443948268890e-04</internalNodes>
          <leafValues>
            1.4174298942089081e-01 -7.0307058095932007e-01</leafValues></_></weakClassifiers></_>
    <!-- stage 15 -->
    <_>
      <maxWeakCount>12</maxWeakCount>
      <stageThreshold>-1.4274599552154541e+00</stageThreshold>
      <weakClassifiers>
        <_>
          <internalNodes>
            0 -1 33 -2.1922144293785095e-01</internalNodes>
          <leafValues>
            2.5096523761749268e-01 -5.9073358774185181e-01</leafValues></_>
        <_>
          <internalNodes>
            0 -1 14 2.2436259314417839e-04</internalNodes>
          <leafValues>
            -4.4178602099418640e-01 2.7341279387474060e-01</leafValues></_>
        <_>
          <internalNodes>
            0 -1 135 1.1476253348519094e-05</internalNodes>
          <leafValues>
            1.9178298115730286e-01 -6.1886000633239746e-01</leafValues></_>
        <_>
          <internalNodes>
            0 -1 6 9.2042761389166117e-04</internalNodes>
          <leafValues>
            1.8817271292209625e-01 -6.5795165300369263e-01</leafValues></_>
        <_>
          <internalNodes>
            0 -1 31 -7.6590408571064472e-04</internalNodes>
          <leafValues>
            -6.8302130699157715e-01 1.1328923702239990e-01</leafValues></_>
        <_>
          <internalNodes>
            0 -1 90 2.2394355386495590e-02</internalNodes>
          <leafValues>
            -1.3788403570652008e-01 7.9030251502990723e-01</leafValues></_>
        <_>
          <internalNodes>
            0 -1 126 -1.3500036402547266e-05</internalNodes>
          <leafValues>
            -6.3556939363479614e-01 1.6435845196247101e-01</leafValues></_>
        <_>
          <internalNodes>
            0 -1 76 -2.0097328524570912e-04</internalNodes>
          <leafValues>
            -6.8699097633361816e-01 1.2224590033292770e-01</leafValues></_>
        <_>
          <internalNodes>
            0 -1 53 3.2415366149507463e-05</internalNodes>
          <leafValues>
            -4.1822636127471924e-01 2.2825488448143005e-01</leafValues></_>
        <_>
          <internalNodes>
            0 -1 54 -4.9593220464885235e-03</internalNodes>
          <leafValues>
            -8.2482665777206421e-01 1.1267530918121338e-01</leafValues></_>
        <_>
          <internalNodes>
            0 -1 65 -1.7238520085811615e-02</internalNodes>
          <leafValues>
            2.9889899492263794e-01 -3.2688525319099426e-01</leafValues></_>
        <_>
          <internalNodes>
            0 -1 115 2.3260307498276234e-03</internalNodes>
          <leafValues>
            -2.4171371757984161e-01 4.2870736122131348e-01</leafValues></_></weakClassifiers></_>
    <!-- stage 16 -->
    <_>
      <maxWeakCount>13</maxWeakCount>
      <stageThreshold>-1.4089486598968506e+00</stageThreshold>
      <weakClassifiers>
        <_>
          <internalNodes>
            0 -1 50 1.4917310327291489e-03</internalNodes>
          <leafValues>
            -7.1655631065368652e-01 -1.1111111380159855e-02</leafValues></_>
        <_>
          <internalNodes>
            0 -1 47 -1.3755599502474070e-04</internalNodes>
          <leafValues>
            -6.5989989042282104e-01 1.1170271039009094e-01</leafValues></_>
        <_>
          <internalNodes>
            0 -1 125 1.1291433125734329e-02</internalNodes>
          <leafValues>
            -3.3188691735267639e-01 3.3440455794334412e-01</leafValues></_>
        <_>
          <internalNodes>
            0 -1 167 4.3856154661625624e-05</internalNodes>
          <leafValues>
            -3.6656463146209717e-01 3.2146832346916199e-01</leafValues></_>
        <_>
          <internalNodes>
            0 -1 56 7.2816526517271996e-04</internalNodes>
          <leafValues>
            1.8780757486820221e-01 -6.2670826911926270e-01</leafValues></_>
        <_>
          <internalNodes>
            0 -1 82 -1.1237087164772674e-05</internalNodes>
          <leafValues>
            2.0505872368812561e-01 -4.3069970607757568e-01</leafValues></_>
        <_>
          <internalNodes>
            0 -1 146 1.5227828407660127e-03</internalNodes>
          <leafValues>
            1.2146266549825668e-01 -7.7532291412353516e-01</leafValues></_>
        <_>
          <internalNodes>
            0 -1 79 9.6182711422443390e-03</internalNodes>
          <leafValues>
            -3.0876252055168152e-01 3.0868488550186157e-01</leafValues></_>
        <_>
          <internalNodes>
            0 -1 18 -1.8063226714730263e-02</internalNodes>
          <leafValues>
            5.3278541564941406e-01 -2.6025325059890747e-01</leafValues></_>
        <_>
          <internalNodes>
            0 -1 29 -4.0106609230861068e-04</internalNodes>
          <leafValues>
            -6.8852496147155762e-01 1.6554981470108032e-01</leafValues></_>
        <_>
          <internalNodes>
            0 -1 137 6.4540409948676825e-04</internalNodes>
          <leafValues>
            -4.1363045573234558e-01 2.2907410562038422e-01</leafValues></_>
        <_>
          <internalNodes>
            0 -1 158 -2.4621564894914627e-02</internalNodes>
          <leafValues>
            -8.0183881521224976e-01 1.3224749267101288e-01</leafValues></_>
        <_>
          <internalNodes>
            0 -1 149 4.5044189319014549e-03</internalNodes>
          <leafValues>
            8.3187527954578400e-02 -9.5557075738906860e-01</leafValues></_></weakClassifiers></_>
    <!-- stage 17 -->
    <_>
      <maxWeakCount>14</maxWeakCount>
      <stageThreshold>-1.4388978481292725e+00</stageThreshold>
      <weakClassifiers>
        <_>
          <internalNodes>
            0 -1 164 -9.2635327018797398e-04</internalNodes>
          <leafValues>
            -2.3890785872936249e-02 -7.5176304578781128e-01</leafValues></_>
        <_>
          <internalNodes>
            0 -1 83 2.2086310386657715e-01</internalNodes>
          <leafValues>
            -2.5691002607345581e-01 4.8326963186264038e-01</leafValues></_>
        <_>
          <internalNodes>
            0 -1 13 8.6604487150907516e-03</internalNodes>
          <leafValues>
            1.1101672053337097e-01 -8.5976558923721313e-01</leafValues></_>
        <_>
          <internalNodes>
            0 -1 32 1.8937670392915606e-03</internalNodes>
          <leafValues>
            -4.4768828153610229e-01 2.7045041322708130e-01</leafValues></_>
        <_>
          <internalNodes>
            0 -1 62 -1.5062902867794037e-01</internalNodes>
          <leafValues>
            7.8072494268417358e-01 -1.6224935650825500e-01</leafValues></_>
        <_>
          <internalNodes>
            0 -1 161 7.3926649056375027e-03</internalNodes>
          <leafValues>
            1.6158103942871094e-01 -7.1144413948059082e-01</leafValues></_>
        <_>
          <internalNodes>
            0 -1 143 -4.0150070562958717e-03</internalNodes>
          <leafValues>
            3.0360734462738037e-01 -3.3074691891670227e-01</leafValues></_>
        <_>
          <internalNodes>
            0 -1 118 -3.8793352432549000e-03</internalNodes>
          <leafValues>
            6.6669255495071411e-01 -1.7009469866752625e-01</leafValues></_>
        <_>
          <internalNodes>
            0 -1 170 3.6446410231292248e-03</internalNodes>
          <leafValues>
            1.7745922505855560e-01 -5.5313050746917725e-01</leafValues></_>
        <_>
          <internalNodes>
            0 -1 63 -1.4671581448055804e-04</internalNodes>
          <leafValues>
            -6.4091897010803223e-01 1.5923236310482025e-01</leafValues></_>
        <_>
          <internalNodes>
            0 -1 68 2.5019920431077480e-03</internalNodes>
          <leafValues>
            -3.9544486999511719e-01 2.4696454405784607e-01</leafValues></_>
        <_>
          <internalNodes>
            0 -1 129 7.0289133873302490e-05</internalNodes>
          <leafValues>
            1.3315901160240173e-01 -6.6436094045639038e-01</leafValues></_>
        <_>
          <internalNodes>
            0 -1 67 1.5642719808965921e-03</internalNodes>
          <leafValues>
            -2.2044688463211060e-01 4.6014267206192017e-01</leafValues></_>
        <_>
          <internalNodes>
            0 -1 91 -1.2929266318678856e-02</internalNodes>
          <leafValues>
            6.1990052461624146e-01 -1.6414086520671844e-01</leafValues></_></weakClassifiers></_>
    <!-- stage 18 -->
    <_>
      <maxWeakCount>15</maxWeakCount>
      <stageThreshold>-1.2862949371337891e+00</stageThreshold>
      <weakClassifiers>
        <_>
          <internalNodes>
            0 -1 146 2.9911473393440247e-04</internalNodes>
          <leafValues>
            -7.4963182210922241e-01 -6.1688311398029327e-02</leafValues></_>
        <_>
          <internalNodes>
            0 -1 136 1.0106231457029935e-05</internalNodes>
          <leafValues>
            -5.0058221817016602e-01 1.5470790863037109e-01</leafValues></_>
        <_>
          <internalNodes>
            0 -1 132 -1.0036729509010911e-04</internalNodes>
          <leafValues>
            -6.1791026592254639e-01 1.5564100444316864e-01</leafValues></_>
        <_>
          <internalNodes>
            0 -1 44 -8.6663372348994017e-04</internalNodes>
          <leafValues>
            -6.4115804433822632e-01 1.6490486264228821e-01</leafValues></_>
        <_>
          <internalNodes>
            0 -1 17 -1.4997120201587677e-01</internalNodes>
          <leafValues>
            5.3649932146072388e-01 -2.0792980492115021e-01</leafValues></_>
        <_>
          <internalNodes>
            0 -1 22 1.1530201300047338e-04</internalNodes>
          <leafValues>
            1.6946321725845337e-01 -6.0354393720626831e-01</leafValues></_>
        <_>
          <internalNodes>
            0 -1 116 -1.2129219248890877e-02</internalNodes>
          <leafValues>
            4.8433306813240051e-01 -1.9818383455276489e-01</leafValues></_>
        <_>
          <internalNodes>
            0 -1 40 -9.4463769346475601e-04</internalNodes>
          <leafValues>
            -6.9252461194992065e-01 1.4285744726657867e-01</leafValues></_>
        <_>
          <internalNodes>
            0 -1 41 -4.6337689273059368e-03</internalNodes>
          <leafValues>
            -7.8619986772537231e-01 1.1019940674304962e-01</leafValues></_>
        <_>
          <internalNodes>
            0 -1 59 -3.7224236875772476e-03</internalNodes>
          <leafValues>
            2.8190401196479797e-01 -3.4830340743064880e-01</leafValues></_>
        <_>
          <internalNodes>
            0 -1 122 2.1820892579853535e-03</internalNodes>
          <leafValues>
            -1.5220928192138672e-01 5.9854590892791748e-01</leafValues></_>
        <_>
          <internalNodes>
            0 -1 113 -1.7851286102086306e-03</internalNodes>
          <leafValues>
            -6.6615307331085205e-01 1.3415968418121338e-01</leafValues></_>
        <_>
          <internalNodes>
            0 -1 106 -4.2182480683550239e-05</internalNodes>
          <leafValues>
            2.6075959205627441e-01 -3.2954362034797668e-01</leafValues></_>
        <_>
          <internalNodes>
            0 -1 145 -1.1302828170300927e-05</internalNodes>
          <leafValues>
            -4.2651593685150146e-01 2.1403242647647858e-01</leafValues></_>
        <_>
          <internalNodes>
            0 -1 64 -7.8444584505632520e-04</internalNodes>
          <leafValues>
            3.4744217991828918e-01 -2.3521596193313599e-01</leafValues></_></weakClassifiers></_>
    <!-- stage 19 -->
    <_>
      <maxWeakCount>17</maxWeakCount>
      <stageThreshold>-1.1948632001876831e+00</stageThreshold>
      <weakClassifiers>
        <_>
          <internalNodes>
            0 -1 26 5.3480314090847969e-04</internalNodes>
          <leafValues>
            -7.1714287996292114e-01 -7.5630255043506622e-02</leafValues></_>
        <_>
          <internalNodes>
            0 -1 110 2.0925709605216980e-01</internalNodes>
          <leafValues>
            -2.6313900947570801e-01 4.1799333691596985e-01</leafValues></_>
        <_>
          <internalNodes>
            0 -1 130 -8.0735349911265075e-05</internalNodes>
          <leafValues>
            -6.2340337038040161e-01 1.5115015208721161e-01</leafValues></_>
        <_>
          <internalNodes>
            0 -1 117 -9.7112524599651806e-06</internalNodes>
          <leafValues>
            3.6487162113189697e-01 -2.2509877383708954e-01</leafValues></_>
        <_>
          <internalNodes>
            0 -1 49 1.1621753219515085e-03</internalNodes>
          <leafValues>
            -1.7747777700424194e-01 4.7302848100662231e-01</leafValues></_>
        <_>
          <internalNodes>
            0 -1 7 -2.2682218695990741e-04</internalNodes>
          <leafValues>
            -5.1009368896484375e-01 1.5855507552623749e-01</leafValues></_>
        <_>
          <internalNodes>
            0 -1 36 1.7463210970163345e-03</internalNodes>
          <leafValues>
            -3.5558664798736572e-01 2.5219643115997314e-01</leafValues></_>
        <_>
          <internalNodes>
            0 -1 120 7.4968184344470501e-04</internalNodes>
          <leafValues>
            1.1340575665235519e-01 -7.5071239471435547e-01</leafValues></_>
        <_>
          <internalNodes>
            0 -1 43 2.2871470078825951e-02</internalNodes>
          <leafValues>
            6.4905554056167603e-02 -8.9943486452102661e-01</leafValues></_>
        <_>
          <internalNodes>
            0 -1 5 -8.9314440265297890e-04</internalNodes>
          <leafValues>
            -6.4348447322845459e-01 1.0176898539066315e-01</leafValues></_>
        <_>
          <internalNodes>
            0 -1 112 -3.4608456771820784e-03</internalNodes>
          <leafValues>
            5.6408214569091797e-01 -1.6079866886138916e-01</leafValues></_>
        <_>
          <internalNodes>
            0 -1 71 2.4263537852675654e-05</internalNodes>
          <leafValues>
            -4.0977439284324646e-01 2.0934727787971497e-01</leafValues></_>
        <_>
          <internalNodes>
            0 -1 73 -8.1474613398313522e-03</internalNodes>
          <leafValues>
            3.3127579092979431e-01 -2.7491524815559387e-01</leafValues></_>
        <_>
          <internalNodes>
            0 -1 2 -8.5457144305109978e-03</internalNodes>
          <leafValues>
            -6.9869637489318848e-01 1.1251561343669891e-01</leafValues></_>
        <_>
          <internalNodes>
            0 -1 55 -9.4656708824913949e-05</internalNodes>
          <leafValues>
            2.6147910952568054e-01 -3.8621631264686584e-01</leafValues></_>
        <_>
          <internalNodes>
            0 -1 171 -1.1716331209754571e-04</internalNodes>
          <leafValues>
            -5.7476544380187988e-01 1.4917765557765961e-01</leafValues></_>
        <_>
          <internalNodes>
            0 -1 88 -3.1362742185592651e-02</internalNodes>
          <leafValues>
            6.2598007917404175e-01 -1.4589209854602814e-01</leafValues></_></weakClassifiers></_></stages>
  <features>
    <_>
      <rects>
        <_>
          0 0 2 1 -1.</_>
        <_>
          1 0 1 1 2.</_></rects>
      <tilted>0</tilted></_>
    <_>
      <rects>
        <_>
          0 0 2 4 -1.</_>
        <_>
          1 0 1 4 2.</_></rects>
      <tilted>0</tilted></_>
    <_>
      <rects>
        <_>
          0 0 1 24 -1.</_>
        <_>
          0 12 1 12 2.</_></rects>
      <tilted>0</tilted></_>
    <_>
      <rects>
        <_>
          0 0 2 2 -1.</_>
        <_>
          0 1 2 1 2.</_></rects>
      <tilted>0</tilted></_>
    <_>
      <rects>
        <_>
          0 0 2 4 -1.</_>
        <_>
          0 2 2 2 2.</_></rects>
      <tilted>0</tilted></_>
    <_>
      <rects>
        <_>
          0 0 2 6 -1.</_>
        <_>
          0 2 2 2 3.</_></rects>
      <tilted>0</tilted></_>
    <_>
      <rects>
        <_>
          0 0 4 6 -1.</_>
        <_>
          0 0 2 3 2.</_>
        <_>
          2 3 2 3 2.</_></rects>
      <tilted>0</tilted></_>
    <_>
      <rects>
        <_>
          0 0 6 4 -1.</_>
        <_>
          2 0 2 4 3.</_></rects>
      <tilted>0</tilted></_>
    <_>
      <rects>
        <_>
          0 0 4 12 -1.</_>
        <_>
          2 0 2 12 2.</_></rects>
      <tilted>0</tilted></_>
    <_>
      <rects>
        <_>
          0 0 6 1 -1.</_>
        <_>
          3 0 3 1 2.</_></rects>
      <tilted>0</tilted></_>
    <_>
      <rects>
        <_>
          0 0 12 1 -1.</_>
        <_>
          4 0 4 1 3.</_></rects>
      <tilted>0</tilted></_>
    <_>
      <rects>
        <_>
          0 0 18 1 -1.</_>
        <_>
          6 0 6 1 3.</_></rects>
      <tilted>0</tilted></_>
    <_>
      <rects>
        <_>
          0 1 9 2 -1.</_>
        <_>
          3 1 3 2 3.</_></rects>
      <tilted>0</tilted></_>
    <_>
      <rects>
        <_>
          0 2 3 9 -1.</_>
        <_>
          0 5 3 3 3.</_></rects>
      <tilted>0</tilted></_>
    <_>
      <rects>
        <_>
          0 3 2 2 -1.</_>
        <_>
          1 3 1 2 2.</_></rects>
      <tilted>0</tilted></_>
    <_>
      <rects>
        <_>
          0 3 3 6 -1.</_>
        <_>
          0 6 3 3 2.</_></rects>
      <tilted>0</tilted></_>
    <_>
      <rects>
        <_>
          0 3 12 1 -1.</_>
        <_>
          6 3 6 1 2.</_></rects>
      <tilted>0</tilted></_>
    <_>
      <rects>
        <_>
          0 4 20 12 -1.</_>
        <_>
          0 4 10 6 2.</_>
        <_>
          10 10 10 6 2.</_></rects>
      <tilted>0</tilted></_>
    <_>
      <rects>
        <_>
          0 8 30 1 -1.</_>
        <_>
          10 8 10 1 3.</_></rects>
      <tilted>0</tilted></_>
    <_>
      <rects>
        <_>
          0 10 1 12 -1.</_>
        <_>
          0 14 1 4 3.</_></rects>
      <tilted>0</tilted></_>
    <_>
      <rects>
        <_>
          0 12 1 12 -1.</_>
        <_>
          0 18 1 6 2.</_></rects>
      <tilted>0</tilted></_>
    <_>
      <rects>
        <_>
          0 12 2 4 -1.</_>
        <_>
          0 14 2 2 2.</_></rects>
      <tilted>0</tilted></_>
    <_>
      <rects>
        <_>
          0 15 2 4 -1.</_>
        <_>
          0 17 2 2 2.</_></rects>
      <tilted>0</tilted></_>
    <_>
      <rects>
        <_>
          0 16 4 6 -1.</_>
        <_>
          2 16 2 6 2.</_></rects>
      <tilted>0</tilted></_>
    <_>
      <rects>
        <_>
          0 17 2 3 -1.</_>
        <_>
          1 17 1 3 2.</_></rects>
      <tilted>0</tilted></_>
    <_>
      <rects>
        <_>
          0 18 6 6 -1.</_>
        <_>
          0 18 3 3 2.</_>
        <_>
          3 21 3 3 2.</_></rects>
      <tilted>0</tilted></_>
    <_>
      <rects>
        <_>
          0 20 2 4 -1.</_>
        <_>
          1 20 1 4 2.</_></rects>
      <tilted>0</tilted></_>
    <_>
      <rects>
        <_>
          0 21 1 2 -1.</_>
        <_>
          0 22 1 1 2.</_></rects>
      <tilted>0</tilted></_>
    <_>
      <rects>
        <_>
          0 22 3 2 -1.</_>
        <_>
          0 23 3 1 2.</_></rects>
      <tilted>0</tilted></_>
    <_>
      <rects>
        <_>
          0 22 8 2 -1.</_>
        <_>
          0 22 4 1 2.</_>
        <_>
          4 23 4 1 2.</_></rects>
      <tilted>0</tilted></_>
    <_>
      <rects>
        <_>
          0 23 2 1 -1.</_>
        <_>
          1 23 1 1 2.</_></rects>
      <tilted>0</tilted></_>
    <_>
      <rects>
        <_>
          0 23 9 1 -1.</_>
        <_>
          3 23 3 1 3.</_></rects>
      <tilted>0</tilted></_>
    <_>
      <rects>
        <_>
          1 0 6 15 -1.</_>
        <_>
          1 5 6 5 3.</_></rects>
      <tilted>0</tilted></_>
    <_>
      <rects>
        <_>
          1 0 18 18 -1.</_>
        <_>
          1 0 9 9 2.</_>
        <_>
          10 9 9 9 2.</_></rects>
      <tilted>0</tilted></_>
    <_>
      <rects>
        <_>
          1 1 1 12 -1.</_>
        <_>
          1 7 1 6 2.</_></rects>
      <tilted>0</tilted></_>
    <_>
      <rects>
        <_>
          1 3 2 14 -1.</_>
        <_>
          1 10 2 7 2.</_></rects>
      <tilted>0</tilted></_>
    <_>
      <rects>
        <_>
          1 5 12 1 -1.</_>
        <_>
          7 5 6 1 2.</_></rects>
      <tilted>0</tilted></_>
    <_>
      <rects>
        <_>
          1 12 1 9 -1.</_>
        <_>
          1 15 1 3 3.</_></rects>
      <tilted>0</tilted></_>
    <_>
      <rects>
        <_>
          1 12 30 7 -1.</_>
        <_>
          11 12 10 7 3.</_></rects>
      <tilted>0</tilted></_>
    <_>
      <rects>
        <_>
          1 14 30 4 -1.</_>
        <_>
          11 14 10 4 3.</_></rects>
      <tilted>0</tilted></_>
    <_>
      <rects>
        <_>
          1 16 2 6 -1.</_>
        <_>
          1 18 2 2 3.</_></rects>
      <tilted>0</tilted></_>
    <_>
      <rects>
        <_>
          1 18 4 4 -1.</_>
        <_>
          1 20 4 2 2.</_></rects>
      <tilted>0</tilted></_>
    <_>
      <rects>
        <_>
          1 20 8 4 -1.</_>
        <_>
          1 20 4 2 2.</_>
        <_>
          5 22 4 2 2.</_></rects>
      <tilted>0</tilted></_>
    <_>
      <rects>
        <_>
          1 23 30 1 -1.</_>
        <_>
          16 23 15 1 2.</_></rects>
      <tilted>0</tilted></_>
    <_>
      <rects>
        <_>
          2 0 1 12 -1.</_>
        <_>
          2 4 1 4 3.</_></rects>
      <tilted>0</tilted></_>
    <_>
      <rects>
        <_>
          2 0 10 1 -1.</_>
        <_>
          7 0 5 1 2.</_></rects>
      <tilted>0</tilted></_>
    <_>
      <rects>
        <_>
          2 0 14 1 -1.</_>
        <_>
          9 0 7 1 2.</_></rects>
      <tilted>0</tilted></_>
    <_>
      <rects>
        <_>
          2 2 2 10 -1.</_>
        <_>
          2 7 2 5 2.</_></rects>
      <tilted>0</tilted></_>
    <_>
      <rects>
        <_>
          2 4 4 4 -1.</_>
        <_>
          2 6 4 2 2.</_></rects>
      <tilted>0</tilted></_>
    <_>
      <rects>
        <_>
          2 6 20 2 -1.</_>
        <_>
          2 6 10 1 2.</_>
        <_>
          12 7 10 1 2.</_></rects>
      <tilted>0</tilted></_>
    <_>
      <rects>
        <_>
          2 10 4 7 -1.</_>
        <_>
          4 10 2 7 2.</_></rects>
      <tilted>0</tilted></_>
    <_>
      <rects>
        <_>
          2 18 1 6 -1.</_>
        <_>
          2 20 1 2 3.</_></rects>
      <tilted>0</tilted></_>
    <_>
      <rects>
        <_>
          2 20 4 4 -1.</_>
        <_>
          2 20 2 2 2.</_>
        <_>
          4 22 2 2 2.</_></rects>
      <tilted>0</tilted></_>
    <_>
      <rects>
        <_>
          2 20 20 4 -1.</_>
        <_>
          2 20 10 2 2.</_>
        <_>
          12 22 10 2 2.</_></rects>
      <tilted>0</tilted></_>
    <_>
      <rects>
        <_>
          2 23 15 1 -1.</_>
        <_>
          7 23 5 1 3.</_></rects>
      <tilted>0</tilted></_>
    <_>
      <rects>
        <_>
          3 4 1 20 -1.</_>
        <_>
          3 14 1 10 2.</_></rects>
      <tilted>0</tilted></_>
    <_>
      <rects>
        <_>
          3 5 1 4 -1.</_>
        <_>
          3 7 1 2 2.</_></rects>
      <tilted>0</tilted></_>
    <_>
      <rects>
        <_>
          3 10 27 9 -1.</_>
        <_>
          12 10 9 9 3.</_></rects>
      <tilted>0</tilted></_>
    <_>
      <rects>
        <_>
          3 10 16 14 -1.</_>
        <_>
          3 17 16 7 2.</_></rects>
      <tilted>0</tilted></_>
    <_>
      <rects>
        <_>
          3 12 3 12 -1.</_>
        <_>
          3 18 3 6 2.</_></rects>
      <tilted>0</tilted></_>
    <_>
      <rects>
        <_>
          4 0 15 2 -1.</_>
        <_>
          9 0 5 2 3.</_></rects>
      <tilted>0</tilted></_>
    <_>
      <rects>
        <_>
          4 0 19 15 -1.</_>
        <_>
          4 5 19 5 3.</_></rects>
      <tilted>0</tilted></_>
    <_>
      <rects>
        <_>
          4 0 20 10 -1.</_>
        <_>
          4 5 20 5 2.</_></rects>
      <tilted>0</tilted></_>
    <_>
      <rects>
        <_>
          4 1 2 5 -1.</_>
        <_>
          5 1 1 5 2.</_></rects>
      <tilted>0</tilted></_>
    <_>
      <rects>
        <_>
          4 1 6 17 -1.</_>
        <_>
          6 1 2 17 3.</_></rects>
      <tilted>0</tilted></_>
    <_>
      <rects>
        <_>
          4 6 11 6 -1.</_>
        <_>
          4 9 11 3 2.</_></rects>
      <tilted>0</tilted></_>
    <_>
      <rects>
        <_>
          4 10 24 8 -1.</_>
        <_>
          12 10 8 8 3.</_></rects>
      <tilted>0</tilted></_>
    <_>
      <rects>
        <_>
          4 11 14 2 -1.</_>
        <_>
          4 11 7 1 2.</_>
        <_>
          11 12 7 1 2.</_></rects>
      <tilted>0</tilted></_>
    <_>
      <rects>
        <_>
          4 18 12 6 -1.</_>
        <_>
          4 18 6 3 2.</_>
        <_>
          10 21 6 3 2.</_></rects>
      <tilted>0</tilted></_>
    <_>
      <rects>
        <_>
          5 0 1 6 -1.</_>
        <_>
          5 3 1 3 2.</_></rects>
      <tilted>0</tilted></_>
    <_>
      <rects>
        <_>
          5 0 7 2 -1.</_>
        <_>
          5 1 7 1 2.</_></rects>
      <tilted>0</tilted></_>
    <_>
      <rects>
        <_>
          5 18 26 1 -1.</_>
        <_>
          18 18 13 1 2.</_></rects>
      <tilted>0</tilted></_>
    <_>
      <rects>
        <_>
          6 0 21 18 -1.</_>
        <_>
          6 6 21 6 3.</_></rects>
      <tilted>0</tilted></_>
    <_>
      <rects>
        <_>
          6 5 16 9 -1.</_>
        <_>
          6 8 16 3 3.</_></rects>
      <tilted>0</tilted></_>
    <_>
      <rects>
        <_>
          6 5 16 18 -1.</_>
        <_>
          6 14 16 9 2.</_></rects>
      <tilted>0</tilted></_>
    <_>
      <rects>
        <_>
          7 0 21 1 -1.</_>
        <_>
          14 0 7 1 3.</_></rects>
      <tilted>0</tilted></_>
    <_>
      <rects>
        <_>
          7 0 24 1 -1.</_>
        <_>
          15 0 8 1 3.</_></rects>
      <tilted>0</tilted></_>
    <_>
      <rects>
        <_>
          7 0 17 24 -1.</_>
        <_>
          7 8 17 8 3.</_></rects>
      <tilted>0</tilted></_>
    <_>
      <rects>
        <_>
          7 10 18 9 -1.</_>
        <_>
          13 10 6 9 3.</_></rects>
      <tilted>0</tilted></_>
    <_>
      <rects>
        <_>
          8 0 11 6 -1.</_>
        <_>
          8 3 11 3 2.</_></rects>
      <tilted>0</tilted></_>
    <_>
      <rects>
        <_>
          8 9 14 15 -1.</_>
        <_>
          8 14 14 5 3.</_></rects>
      <tilted>0</tilted></_>
    <_>
      <rects>
        <_>
          8 10 7 14 -1.</_>
        <_>
          8 17 7 7 2.</_></rects>
      <tilted>0</tilted></_>
    <_>
      <rects>
        <_>
          8 14 4 10 -1.</_>
        <_>
          10 14 2 10 2.</_></rects>
      <tilted>0</tilted></_>
    <_>
      <rects>
        <_>
          9 0 16 15 -1.</_>
        <_>
          9 5 16 5 3.</_></rects>
      <tilted>0</tilted></_>
    <_>
      <rects>
        <_>
          10 0 16 10 -1.</_>
        <_>
          10 5 16 5 2.</_></rects>
      <tilted>0</tilted></_>
    <_>
      <rects>
        <_>
          10 4 12 14 -1.</_>
        <_>
          10 11 12 7 2.</_></rects>
      <tilted>0</tilted></_>
    <_>
      <rects>
        <_>
          10 4 21 16 -1.</_>
        <_>
          10 12 21 8 2.</_></rects>
      <tilted>0</tilted></_>
    <_>
      <rects>
        <_>
          10 11 13 10 -1.</_>
        <_>
          10 16 13 5 2.</_></rects>
      <tilted>0</tilted></_>
    <_>
      <rects>
        <_>
          11 0 13 9 -1.</_>
        <_>
          11 3 13 3 3.</_></rects>
      <tilted>0</tilted></_>
    <_>
      <rects>
        <_>
          11 0 13 24 -1.</_>
        <_>
          11 8 13 8 3.</_></rects>
      <tilted>0</tilted></_>
    <_>
      <rects>
        <_>
          11 1 1 18 -1.</_>
        <_>
          11 7 1 6 3.</_></rects>
      <tilted>0</tilted></_>
    <_>
      <rects>
        <_>
          11 1 7 9 -1.</_>
        <_>
          11 4 7 3 3.</_></rects>
      <tilted>0</tilted></_>
    <_>
      <rects>
        <_>
          11 3 7 9 -1.</_>
        <_>
          11 6 7 3 3.</_></rects>
      <tilted>0</tilted></_>
    <_>
      <rects>
        <_>
          11 3 7 12 -1.</_>
        <_>
          11 7 7 4 3.</_></rects>
      <tilted>0</tilted></_>
    <_>
      <rects>
        <_>
          11 3 10 14 -1.</_>
        <_>
          11 10 10 7 2.</_></rects>
      <tilted>0</tilted></_>
    <_>
      <rects>
        <_>
          11 6 11 18 -1.</_>
        <_>
          11 15 11 9 2.</_></rects>
      <tilted>0</tilted></_>
    <_>
      <rects>
        <_>
          11 8 2 2 -1.</_>
        <_>
          11 8 1 1 2.</_>
        <_>
          12 9 1 1 2.</_></rects>
      <tilted>0</tilted></_>
    <_>
      <rects>
        <_>
          11 11 6 2 -1.</_>
        <_>
          11 11 3 1 2.</_>
        <_>
          14 12 3 1 2.</_></rects>
      <tilted>0</tilted></_>
    <_>
      <rects>
        <_>
          11 12 11 12 -1.</_>
        <_>
          11 16 11 4 3.</_></rects>
      <tilted>0</tilted></_>
    <_>
      <rects>
        <_>
          11 14 6 6 -1.</_>
        <_>
          11 16 6 2 3.</_></rects>
      <tilted>0</tilted></_>
    <_>
      <rects>
        <_>
          11 16 6 8 -1.</_>
        <_>
          11 20 6 4 2.</_></rects>
      <tilted>0</tilted></_>
    <_>
      <rects>
        <_>
          12 0 20 1 -1.</_>
        <_>
          22 0 10 1 2.</_></rects>
      <tilted>0</tilted></_>
    <_>
      <rects>
        <_>
          12 1 8 18 -1.</_>
        <_>
          12 10 8 9 2.</_></rects>
      <tilted>0</tilted></_>
    <_>
      <rects>
        <_>
          12 3 6 14 -1.</_>
        <_>
          12 10 6 7 2.</_></rects>
      <tilted>0</tilted></_>
    <_>
      <rects>
        <_>
          12 3 8 14 -1.</_>
        <_>
          12 10 8 7 2.</_></rects>
      <tilted>0</tilted></_>
    <_>
      <rects>
        <_>
          12 11 9 1 -1.</_>
        <_>
          15 11 3 1 3.</_></rects>
      <tilted>0</tilted></_>
    <_>
      <rects>
        <_>
          12 17 2 4 -1.</_>
        <_>
          13 17 1 4 2.</_></rects>
      <tilted>0</tilted></_>
    <_>
      <rects>
        <_>
          13 0 18 2 -1.</_>
        <_>
          19 0 6 2 3.</_></rects>
      <tilted>0</tilted></_>
    <_>
      <rects>
        <_>
          13 0 6 12 -1.</_>
        <_>
          13 4 6 4 3.</_></rects>
      <tilted>0</tilted></_>
    <_>
      <rects>
        <_>
          13 1 8 12 -1.</_>
        <_>
          13 5 8 4 3.</_></rects>
      <tilted>0</tilted></_>
    <_>
      <rects>
        <_>
          13 1 18 18 -1.</_>
        <_>
          13 1 9 9 2.</_>
        <_>
          22 10 9 9 2.</_></rects>
      <tilted>0</tilted></_>
    <_>
      <rects>
        <_>
          13 3 10 6 -1.</_>
        <_>
          13 5 10 2 3.</_></rects>
      <tilted>0</tilted></_>
    <_>
      <rects>
        <_>
          13 12 5 3 -1.</_>
        <_>
          13 13 5 1 3.</_></rects>
      <tilted>0</tilted></_>
    <_>
      <rects>
        <_>
          13 23 8 1 -1.</_>
        <_>
          17 23 4 1 2.</_></rects>
      <tilted>0</tilted></_>
    <_>
      <rects>
        <_>
          14 3 5 14 -1.</_>
        <_>
          14 10 5 7 2.</_></rects>
      <tilted>0</tilted></_>
    <_>
      <rects>
        <_>
          14 13 6 4 -1.</_>
        <_>
          14 13 3 2 2.</_>
        <_>
          17 15 3 2 2.</_></rects>
      <tilted>0</tilted></_>
    <_>
      <rects>
        <_>
          14 14 7 6 -1.</_>
        <_>
          14 16 7 2 3.</_></rects>
      <tilted>0</tilted></_>
    <_>
      <rects>
        <_>
          15 6 1 3 -1.</_>
        <_>
          15 7 1 1 3.</_></rects>
      <tilted>0</tilted></_>
    <_>
      <rects>
        <_>
          15 7 6 3 -1.</_>
        <_>
          15 8 6 1 3.</_></rects>
      <tilted>0</tilted></_>
    <_>
      <rects>
        <_>
          16 11 12 8 -1.</_>
        <_>
          22 11 6 8 2.</_></rects>
      <tilted>0</tilted></_>
    <_>
      <rects>
        <_>
          16 21 16 2 -1.</_>
        <_>
          16 21 8 1 2.</_>
        <_>
          24 22 8 1 2.</_></rects>
      <tilted>0</tilted></_>
    <_>
      <rects>
        <_>
          17 0 14 2 -1.</_>
        <_>
          17 1 14 1 2.</_></rects>
      <tilted>0</tilted></_>
    <_>
      <rects>
        <_>
          17 14 1 6 -1.</_>
        <_>
          17 16 1 2 3.</_></rects>
      <tilted>0</tilted></_>
    <_>
      <rects>
        <_>
          17 22 15 2 -1.</_>
        <_>
          22 22 5 2 3.</_></rects>
      <tilted>0</tilted></_>
    <_>
      <rects>
        <_>
          18 0 12 1 -1.</_>
        <_>
          22 0 4 1 3.</_></rects>
      <tilted>0</tilted></_>
    <_>
      <rects>
        <_>
          18 13 3 10 -1.</_>
        <_>
          18 18 3 5 2.</_></rects>
      <tilted>0</tilted></_>
    <_>
      <rects>
        <_>
          20 0 12 1 -1.</_>
        <_>
          24 0 4 1 3.</_></rects>
      <tilted>0</tilted></_>
    <_>
      <rects>
        <_>
          20 2 1 4 -1.</_>
        <_>
          20 4 1 2 2.</_></rects>
      <tilted>0</tilted></_>
    <_>
      <rects>
        <_>
          21 18 10 6 -1.</_>
        <_>
          21 18 5 3 2.</_>
        <_>
          26 21 5 3 2.</_></rects>
      <tilted>0</tilted></_>
    <_>
      <rects>
        <_>
          23 0 6 2 -1.</_>
        <_>
          26 0 3 2 2.</_></rects>
      <tilted>0</tilted></_>
    <_>
      <rects>
        <_>
          23 0 5 2 -1.</_>
        <_>
          23 1 5 1 2.</_></rects>
      <tilted>0</tilted></_>
    <_>
      <rects>
        <_>
          23 1 9 1 -1.</_>
        <_>
          26 1 3 1 3.</_></rects>
      <tilted>0</tilted></_>
    <_>
      <rects>
        <_>
          23 23 9 1 -1.</_>
        <_>
          26 23 3 1 3.</_></rects>
      <tilted>0</tilted></_>
    <_>
      <rects>
        <_>
          24 0 8 2 -1.</_>
        <_>
          24 0 4 1 2.</_>
        <_>
          28 1 4 1 2.</_></rects>
      <tilted>0</tilted></_>
    <_>
      <rects>
        <_>
          24 22 8 2 -1.</_>
        <_>
          24 22 4 1 2.</_>
        <_>
          28 23 4 1 2.</_></rects>
      <tilted>0</tilted></_>
    <_>
      <rects>
        <_>
          25 22 3 2 -1.</_>
        <_>
          25 23 3 1 2.</_></rects>
      <tilted>0</tilted></_>
    <_>
      <rects>
        <_>
          26 0 6 8 -1.</_>
        <_>
          28 0 2 8 3.</_></rects>
      <tilted>0</tilted></_>
    <_>
      <rects>
        <_>
          26 0 6 8 -1.</_>
        <_>
          26 0 3 4 2.</_>
        <_>
          29 4 3 4 2.</_></rects>
      <tilted>0</tilted></_>
    <_>
      <rects>
        <_>
          27 0 4 2 -1.</_>
        <_>
          29 0 2 2 2.</_></rects>
      <tilted>0</tilted></_>
    <_>
      <rects>
        <_>
          27 0 5 15 -1.</_>
        <_>
          27 5 5 5 3.</_></rects>
      <tilted>0</tilted></_>
    <_>
      <rects>
        <_>
          28 0 4 9 -1.</_>
        <_>
          28 3 4 3 3.</_></rects>
      <tilted>0</tilted></_>
    <_>
      <rects>
        <_>
          28 3 4 17 -1.</_>
        <_>
          30 3 2 17 2.</_></rects>
      <tilted>0</tilted></_>
    <_>
      <rects>
        <_>
          28 5 4 3 -1.</_>
        <_>
          30 5 2 3 2.</_></rects>
      <tilted>0</tilted></_>
    <_>
      <rects>
        <_>
          28 12 4 12 -1.</_>
        <_>
          30 12 2 12 2.</_></rects>
      <tilted>0</tilted></_>
    <_>
      <rects>
        <_>
          28 21 4 3 -1.</_>
        <_>
          30 21 2 3 2.</_></rects>
      <tilted>0</tilted></_>
    <_>
      <rects>
        <_>
          29 0 3 9 -1.</_>
        <_>
          30 0 1 9 3.</_></rects>
      <tilted>0</tilted></_>
    <_>
      <rects>
        <_>
          29 0 3 2 -1.</_>
        <_>
          29 1 3 1 2.</_></rects>
      <tilted>0</tilted></_>
    <_>
      <rects>
        <_>
          29 3 3 4 -1.</_>
        <_>
          29 5 3 2 2.</_></rects>
      <tilted>0</tilted></_>
    <_>
      <rects>
        <_>
          29 6 2 12 -1.</_>
        <_>
          29 10 2 4 3.</_></rects>
      <tilted>0</tilted></_>
    <_>
      <rects>
        <_>
          29 18 3 6 -1.</_>
        <_>
          29 20 3 2 3.</_></rects>
      <tilted>0</tilted></_>
    <_>
      <rects>
        <_>
          29 20 3 4 -1.</_>
        <_>
          29 22 3 2 2.</_></rects>
      <tilted>0</tilted></_>
    <_>
      <rects>
        <_>
          30 0 2 2 -1.</_>
        <_>
          31 0 1 2 2.</_></rects>
      <tilted>0</tilted></_>
    <_>
      <rects>
        <_>
          30 0 2 4 -1.</_>
        <_>
          31 0 1 4 2.</_></rects>
      <tilted>0</tilted></_>
    <_>
      <rects>
        <_>
          30 0 2 6 -1.</_>
        <_>
          30 3 2 3 2.</_></rects>
      <tilted>0</tilted></_>
    <_>
      <rects>
        <_>
          30 0 2 22 -1.</_>
        <_>
          30 11 2 11 2.</_></rects>
      <tilted>0</tilted></_>
    <_>
      <rects>
        <_>
          30 1 1 10 -1.</_>
        <_>
          30 6 1 5 2.</_></rects>
      <tilted>0</tilted></_>
    <_>
      <rects>
        <_>
          30 1 1 18 -1.</_>
        <_>
          30 7 1 6 3.</_></rects>
      <tilted>0</tilted></_>
    <_>
      <rects>
        <_>
          30 1 2 23 -1.</_>
        <_>
          31 1 1 23 2.</_></rects>
      <tilted>0</tilted></_>
    <_>
      <rects>
        <_>
          30 4 2 20 -1.</_>
        <_>
          30 14 2 10 2.</_></rects>
      <tilted>0</tilted></_>
    <_>
      <rects>
        <_>
          30 5 1 14 -1.</_>
        <_>
          30 12 1 7 2.</_></rects>
      <tilted>0</tilted></_>
    <_>
      <rects>
        <_>
          30 10 2 9 -1.</_>
        <_>
          30 13 2 3 3.</_></rects>
      <tilted>0</tilted></_>
    <_>
      <rects>
        <_>
          30 11 2 12 -1.</_>
        <_>
          30 15 2 4 3.</_></rects>
      <tilted>0</tilted></_>
    <_>
      <rects>
        <_>
          30 17 2 7 -1.</_>
        <_>
          31 17 1 7 2.</_></rects>
      <tilted>0</tilted></_>
    <_>
      <rects>
        <_>
          30 17 2 4 -1.</_>
        <_>
          30 19 2 2 2.</_></rects>
      <tilted>0</tilted></_>
    <_>
      <rects>
        <_>
          30 18 1 6 -1.</_>
        <_>
          30 21 1 3 2.</_></rects>
      <tilted>0</tilted></_>
    <_>
      <rects>
        <_>
          30 22 2 2 -1.</_>
        <_>
          31 22 1 2 2.</_></rects>
      <tilted>0</tilted></_>
    <_>
      <rects>
        <_>
          30 22 2 2 -1.</_>
        <_>
          30 23 2 1 2.</_></rects>
      <tilted>0</tilted></_>
    <_>
      <rects>
        <_>
          31 0 1 2 -1.</_>
        <_>
          31 1 1 1 2.</_></rects>
      <tilted>0</tilted></_>
    <_>
      <rects>
        <_>
          31 0 1 12 -1.</_>
        <_>
          31 4 1 4 3.</_></rects>
      <tilted>0</tilted></_>
    <_>
      <rects>
        <_>
          31 1 1 18 -1.</_>
        <_>
          31 7 1 6 3.</_></rects>
      <tilted>0</tilted></_>
    <_>
      <rects>
        <_>
          31 1 1 22 -1.</_>
        <_>
          31 12 1 11 2.</_></rects>
      <tilted>0</tilted></_>
    <_>
      <rects>
        <_>
          31 5 1 6 -1.</_>
        <_>
          31 8 1 3 2.</_></rects>
      <tilted>0</tilted></_>
    <_>
      <rects>
        <_>
          31 12 1 8 -1.</_>
        <_>
          31 16 1 4 2.</_></rects>
      <tilted>0</tilted></_>
    <_>
      <rects>
        <_>
          31 12 1 12 -1.</_>
        <_>
          31 16 1 4 3.</_></rects>
      <tilted>0</tilted></_></features></cascade>
</opencv_storage>
