<?xml version="1.0"?>
<opencv_storage>
<cascade>
  <stageType>BOOST</stageType>
  <featureType>HAAR</featureType>
  <height>24</height>
  <width>32</width>
  <stageParams>
    <boostType>GAB</boostType>
    <minHitRate>9.9500000476837158e-01</minHitRate>
    <maxFalseAlarm>5.0000000000000000e-01</maxFalseAlarm>
    <weightTrimRate>9.4999998807907104e-01</weightTrimRate>
    <maxDepth>1</maxDepth>
    <maxWeakCount>100</maxWeakCount></stageParams>
  <featureParams>
    <maxCatCount>0</maxCatCount>
    <featSize>1</featSize>
    <mode>BASIC</mode></featureParams>
  <stageNum>15</stageNum>
  <stages>
    <!-- stage 0 -->
    <_>
      <maxWeakCount>3</maxWeakCount>
      <stageThreshold>-1.0554487705230713e+00</stageThreshold>
      <weakClassifiers>
        <_>
          <internalNodes>
            0 -1 6 -9.5861971378326416e-02</internalNodes>
          <leafValues>
            1. -9.2307692766189575e-01</leafValues></_>
        <_>
          <internalNodes>
            0 -1 3 -6.8133294582366943e-02</internalNodes>
          <leafValues>
            9.2264443635940552e-01 -8.4028804302215576e-01</leafValues></_>
        <_>
          <internalNodes>
            0 -1 1 7.8267278149724007e-04</internalNodes>
          <leafValues>
            7.0791620016098022e-01 -9.7631615400314331e-01</leafValues></_></weakClassifiers></_>
    <!-- stage 1 -->
    <_>
      <maxWeakCount>3</maxWeakCount>
      <stageThreshold>-1.2632697820663452e+00</stageThreshold>
      <weakClassifiers>
        <_>
          <internalNodes>
            0 -1 22 -2.4228245019912720e-01</internalNodes>
          <leafValues>
            7.9069769382476807e-01 -8.7999999523162842e-01</leafValues></_>
        <_>
          <internalNodes>
            0 -1 8 -4.4900935143232346e-02</internalNodes>
          <leafValues>
            6.8905293941497803e-01 -7.7988690137863159e-01</leafValues></_>
        <_>
          <internalNodes>
            0 -1 48 6.1205581005197018e-05</internalNodes>
          <leafValues>
            3.9661708474159241e-01 -1.</leafValues></_></weakClassifiers></_>
    <!-- stage 2 -->
    <_>
      <maxWeakCount>3</maxWeakCount>
      <stageThreshold>-7.5480169057846069e-01</stageThreshold>
      <weakClassifiers>
        <_>
          <internalNodes>
            0 -1 19 -2.4274361133575439e-01</internalNodes>
          <leafValues>
            8.7804877758026123e-01 -8.8311690092086792e-01</leafValues></_>
        <_>
          <internalNodes>
            0 -1 17 1.4403364062309265e-01</internalNodes>
          <leafValues>
            -6.7875576019287109e-01 8.1885659694671631e-01</leafValues></_>
        <_>
          <internalNodes>
            0 -1 30 -4.1403256356716156e-02</internalNodes>
          <leafValues>
            8.0707091093063354e-01 -5.6296521425247192e-01</leafValues></_></weakClassifiers></_>
    <!-- stage 3 -->
    <_>
      <maxWeakCount>3</maxWeakCount>
      <stageThreshold>-1.2158384323120117e+00</stageThreshold>
      <weakClassifiers>
        <_>
          <internalNodes>
            0 -1 41 7.6762892305850983e-02</internalNodes>
          <leafValues>
            -8.8965517282485962e-01 7.1428573131561279e-01</leafValues></_>
        <_>
          <internalNodes>
            0 -1 20 -1.7890831828117371e-01</internalNodes>
          <leafValues>
            6.2264168262481689e-01 -7.9170507192611694e-01</leafValues></_>
        <_>
          <internalNodes>
            0 -1 13 -4.5884913561167195e-05</internalNodes>
          <leafValues>
            -9.4587695598602295e-01 4.6552178263664246e-01</leafValues></_></weakClassifiers></_>
    <!-- stage 4 -->
    <_>
      <maxWeakCount>4</maxWeakCount>
      <stageThreshold>-6.6134357452392578e-01</stageThreshold>
      <weakClassifiers>
        <_>
          <internalNodes>
            0 -1 23 -4.5536902546882629e-01</internalNodes>
          <leafValues>
            7.2602736949920654e-01 -7.1779143810272217e-01</leafValues></_>
        <_>
          <internalNodes>
            0 -1 37 7.3338970541954041e-02</internalNodes>
          <leafValues>
            -6.0020035505294800e-01 7.4780291318893433e-01</leafValues></_>
        <_>
          <internalNodes>
            0 -1 15 6.3824649259913713e-05</internalNodes>
          <leafValues>
            3.7707641720771790e-01 -9.8619842529296875e-01</leafValues></_>
        <_>
          <internalNodes>
            0 -1 51 -9.0567162260413170e-05</internalNodes>
          <leafValues>
            -1. 2.7957180142402649e-01</leafValues></_></weakClassifiers></_>
    <!-- stage 5 -->
    <_>
      <maxWeakCount>3</maxWeakCount>
      <stageThreshold>-1.3455854654312134e+00</stageThreshold>
      <weakClassifiers>
        <_>
          <internalNodes>
            0 -1 5 -1.0044366121292114e-01</internalNodes>
          <leafValues>
            4.3137255311012268e-01 -8.0597013235092163e-01</leafValues></_>
        <_>
          <internalNodes>
            0 -1 50 1.5425347373820841e-04</internalNodes>
          <leafValues>
            3.4880021214485168e-01 -9.7927951812744141e-01</leafValues></_>
        <_>
          <internalNodes>
            0 -1 39 -1.5818081010365859e-05</internalNodes>
          <leafValues>
            -8.8841557502746582e-01 3.4928297996520996e-01</leafValues></_></weakClassifiers></_>
    <!-- stage 6 -->
    <_>
      <maxWeakCount>4</maxWeakCount>
      <stageThreshold>-8.7122696638107300e-01</stageThreshold>
      <weakClassifiers>
        <_>
          <internalNodes>
            0 -1 50 -1.0370962991146371e-04</internalNodes>
          <leafValues>
            -9.5348834991455078e-01 5.5140185356140137e-01</leafValues></_>
        <_>
          <internalNodes>
            0 -1 15 -1.0724607273004949e-04</internalNodes>
          <leafValues>
            -7.1388238668441772e-01 5.0112754106521606e-01</leafValues></_>
        <_>
          <internalNodes>
            0 -1 10 1.5054513642098755e-04</internalNodes>
          <leafValues>
            3.9815965294837952e-01 -1.</leafValues></_>
        <_>
          <internalNodes>
            0 -1 52 3.4778433473547921e-05</internalNodes>
          <leafValues>
            3.9798417687416077e-01 -9.8412156105041504e-01</leafValues></_></weakClassifiers></_>
    <!-- stage 7 -->
    <_>
      <maxWeakCount>4</maxWeakCount>
      <stageThreshold>-4.5148819684982300e-01</stageThreshold>
      <weakClassifiers>
        <_>
          <internalNodes>
            0 -1 40 1.2928174436092377e-01</internalNodes>
          <leafValues>
            -7.5324672460556030e-01 6.3414633274078369e-01</leafValues></_>
        <_>
          <internalNodes>
            0 -1 31 3.2847587135620415e-04</internalNodes>
          <leafValues>
            3.5031083226203918e-01 -9.8109668493270874e-01</leafValues></_>
        <_>
          <internalNodes>
            0 -1 12 -1.2345773167908192e-02</internalNodes>
          <leafValues>
            8.5540169477462769e-01 -4.7299802303314209e-01</leafValues></_>
        <_>
          <internalNodes>
            0 -1 54 -3.0020586564205587e-05</internalNodes>
          <leafValues>
            -9.6643549203872681e-01 4.2444574832916260e-01</leafValues></_></weakClassifiers></_>
    <!-- stage 8 -->
    <_>
      <maxWeakCount>4</maxWeakCount>
      <stageThreshold>-8.0030202865600586e-01</stageThreshold>
      <weakClassifiers>
        <_>
          <internalNodes>
            0 -1 36 9.1776162385940552e-02</internalNodes>
          <leafValues>
            -8.8524591922760010e-01 3.8596490025520325e-01</leafValues></_>
        <_>
          <internalNodes>
            0 -1 29 3.4134025918319821e-04</internalNodes>
          <leafValues>
            2.8881743550300598e-01 -9.3536597490310669e-01</leafValues></_>
        <_>
          <internalNodes>
            0 -1 34 -9.2975236475467682e-02</internalNodes>
          <leafValues>
            5.4355728626251221e-01 -6.9348078966140747e-01</leafValues></_>
        <_>
          <internalNodes>
            0 -1 53 4.9071817193180323e-04</internalNodes>
          <leafValues>
            4.8960715532302856e-01 -9.6502602100372314e-01</leafValues></_></weakClassifiers></_>
    <!-- stage 9 -->
    <_>
      <maxWeakCount>5</maxWeakCount>
      <stageThreshold>-1.5422848463058472e+00</stageThreshold>
      <weakClassifiers>
        <_>
          <internalNodes>
            0 -1 42 1.1938700824975967e-01</internalNodes>
          <leafValues>
            -6.8421053886413574e-01 4.7619047760963440e-01</leafValues></_>
        <_>
          <internalNodes>
            0 -1 52 -5.4867661674506962e-05</internalNodes>
          <leafValues>
            -8.9744055271148682e-01 3.4516078233718872e-01</leafValues></_>
        <_>
          <internalNodes>
            0 -1 38 -8.0454926937818527e-03</internalNodes>
          <leafValues>
            4.9860277771949768e-01 -6.0128062963485718e-01</leafValues></_>
        <_>
          <internalNodes>
            0 -1 0 -1.8377155356574804e-05</internalNodes>
          <leafValues>
            -9.4344693422317505e-01 3.7343403697013855e-01</leafValues></_>
        <_>
          <internalNodes>
            0 -1 46 -4.7825109504628927e-05</internalNodes>
          <leafValues>
            -8.9763551950454712e-01 2.6721286773681641e-01</leafValues></_></weakClassifiers></_>
    <!-- stage 10 -->
    <_>
      <maxWeakCount>3</maxWeakCount>
      <stageThreshold>-9.0634191036224365e-01</stageThreshold>
      <weakClassifiers>
        <_>
          <internalNodes>
            0 -1 44 -1.0284218660672195e-05</internalNodes>
          <leafValues>
            7.2043013572692871e-01 -9.1608393192291260e-01</leafValues></_>
        <_>
          <internalNodes>
            0 -1 26 -1.1566269677132368e-04</internalNodes>
          <leafValues>
            7.1483480930328369e-01 -7.5675535202026367e-01</leafValues></_>
        <_>
          <internalNodes>
            0 -1 27 3.7142686545848846e-02</internalNodes>
          <leafValues>
            -6.9274562597274780e-01 7.6649731397628784e-01</leafValues></_></weakClassifiers></_>
    <!-- stage 11 -->
    <_>
      <maxWeakCount>5</maxWeakCount>
      <stageThreshold>-9.8621904850006104e-01</stageThreshold>
      <weakClassifiers>
        <_>
          <internalNodes>
            0 -1 45 4.8500277101993561e-02</internalNodes>
          <leafValues>
            -8.4126985073089600e-01 3.8181817531585693e-01</leafValues></_>
        <_>
          <internalNodes>
            0 -1 18 -4.8461061716079712e-01</internalNodes>
          <leafValues>
            7.4018031358718872e-01 -4.8570674657821655e-01</leafValues></_>
        <_>
          <internalNodes>
            0 -1 7 -1.6518880147486925e-04</internalNodes>
          <leafValues>
            -8.9852523803710938e-01 3.4838801622390747e-01</leafValues></_>
        <_>
          <internalNodes>
            0 -1 21 4.1464774403721094e-04</internalNodes>
          <leafValues>
            -4.7042417526245117e-01 7.7648407220840454e-01</leafValues></_>
        <_>
          <internalNodes>
            0 -1 33 -5.3756614215672016e-04</internalNodes>
          <leafValues>
            -6.9865185022354126e-01 4.6279370784759521e-01</leafValues></_></weakClassifiers></_>
    <!-- stage 12 -->
    <_>
      <maxWeakCount>5</maxWeakCount>
      <stageThreshold>-9.6831870079040527e-01</stageThreshold>
      <weakClassifiers>
        <_>
          <internalNodes>
            0 -1 2 -1.4496240019798279e-01</internalNodes>
          <leafValues>
            2.0312500000000000e-01 -8.3333331346511841e-01</leafValues></_>
        <_>
          <internalNodes>
            0 -1 9 1.7804773151874542e-01</internalNodes>
          <leafValues>
            -5.9348517656326294e-01 4.4577181339263916e-01</leafValues></_>
        <_>
          <internalNodes>
            0 -1 43 -3.4596933983266354e-03</internalNodes>
          <leafValues>
            8.3134710788726807e-01 -3.5550761222839355e-01</leafValues></_>
        <_>
          <internalNodes>
            0 -1 28 -5.5090454407036304e-04</internalNodes>
          <leafValues>
            -8.6961096525192261e-01 3.9286887645721436e-01</leafValues></_>
        <_>
          <internalNodes>
            0 -1 47 -1.8682921654544771e-04</internalNodes>
          <leafValues>
            4.8972120881080627e-01 -6.1531978845596313e-01</leafValues></_></weakClassifiers></_>
    <!-- stage 13 -->
    <_>
      <maxWeakCount>5</maxWeakCount>
      <stageThreshold>-1.1164997816085815e+00</stageThreshold>
      <weakClassifiers>
        <_>
          <internalNodes>
            0 -1 4 -1.1059834063053131e-01</internalNodes>
          <leafValues>
            4.3478259444236755e-01 -7.2222220897674561e-01</leafValues></_>
        <_>
          <internalNodes>
            0 -1 16 -2.7723634243011475e-01</internalNodes>
          <leafValues>
            5.9781670570373535e-01 -4.9589747190475464e-01</leafValues></_>
        <_>
          <internalNodes>
            0 -1 32 -4.0694845665711910e-05</internalNodes>
          <leafValues>
            -9.3735569715499878e-01 2.8516390919685364e-01</leafValues></_>
        <_>
          <internalNodes>
            0 -1 49 -2.9249861836433411e-04</internalNodes>
          <leafValues>
            5.4012173414230347e-01 -4.9415948987007141e-01</leafValues></_>
        <_>
          <internalNodes>
            0 -1 55 6.6905675339512527e-05</internalNodes>
          <leafValues>
            3.1061550974845886e-01 -9.0810841321945190e-01</leafValues></_></weakClassifiers></_>
    <!-- stage 14 -->
    <_>
      <maxWeakCount>5</maxWeakCount>
      <stageThreshold>-1.0722373723983765e+00</stageThreshold>
      <weakClassifiers>
        <_>
          <internalNodes>
            0 -1 14 -5.0257503986358643e-01</internalNodes>
          <leafValues>
            5.5555558204650879e-01 -6.3414633274078369e-01</leafValues></_>
        <_>
          <internalNodes>
            0 -1 25 -5.0704982131719589e-02</internalNodes>
          <leafValues>
            6.9070535898208618e-01 -4.4675621390342712e-01</leafValues></_>
        <_>
          <internalNodes>
            0 -1 11 -1.3615051284432411e-04</internalNodes>
          <leafValues>
            3.6929342150688171e-01 -7.4876886606216431e-01</leafValues></_>
        <_>
          <internalNodes>
            0 -1 24 1.5286336420103908e-03</internalNodes>
          <leafValues>
            2.6998025178909302e-01 -1.</leafValues></_>
        <_>
          <internalNodes>
            0 -1 35 2.1811074111610651e-04</internalNodes>
          <leafValues>
            -5.2009445428848267e-01 4.8745378851890564e-01</leafValues></_></weakClassifiers></_></stages>
  <features>
    <_>
      <rects>
        <_>
          0 0 3 3 -1.</_>
        <_>
          0 1 3 1 3.</_></rects>
      <tilted>0</tilted></_>
    <_>
      <rects>
        <_>
          0 0 12 3 -1.</_>
        <_>
          6 0 6 3 2.</_></rects>
      <tilted>0</tilted></_>
    <_>
      <rects>
        <_>
          0 1 18 23 -1.</_>
        <_>
          9 1 9 23 2.</_></rects>
      <tilted>0</tilted></_>
    <_>
      <rects>
        <_>
          0 2 18 17 -1.</_>
        <_>
          9 2 9 17 2.</_></rects>
      <tilted>0</tilted></_>
    <_>
      <rects>
        <_>
          0 5 14 11 -1.</_>
        <_>
          7 5 7 11 2.</_></rects>
      <tilted>0</tilted></_>
    <_>
      <rects>
        <_>
          0 5 16 10 -1.</_>
        <_>
          8 5 8 10 2.</_></rects>
      <tilted>0</tilted></_>
    <_>
      <rects>
        <_>
          0 6 16 15 -1.</_>
        <_>
          8 6 8 15 2.</_></rects>
      <tilted>0</tilted></_>
    <_>
      <rects>
        <_>
          0 11 2 6 -1.</_>
        <_>
          0 13 2 2 3.</_></rects>
      <tilted>0</tilted></_>
    <_>
      <rects>
        <_>
          0 11 16 7 -1.</_>
        <_>
          8 11 8 7 2.</_></rects>
      <tilted>0</tilted></_>
    <_>
      <rects>
        <_>
          0 12 32 12 -1.</_>
        <_>
          0 18 32 6 2.</_></rects>
      <tilted>0</tilted></_>
    <_>
      <rects>
        <_>
          0 22 4 1 -1.</_>
        <_>
          2 22 2 1 2.</_></rects>
      <tilted>0</tilted></_>
    <_>
      <rects>
        <_>
          1 0 8 14 -1.</_>
        <_>
          1 0 4 7 2.</_>
        <_>
          5 7 4 7 2.</_></rects>
      <tilted>0</tilted></_>
    <_>
      <rects>
        <_>
          1 12 8 2 -1.</_>
        <_>
          5 12 4 2 2.</_></rects>
      <tilted>0</tilted></_>
    <_>
      <rects>
        <_>
          2 0 8 1 -1.</_>
        <_>
          6 0 4 1 2.</_></rects>
      <tilted>0</tilted></_>
    <_>
      <rects>
        <_>
          3 0 22 24 -1.</_>
        <_>
          3 8 22 8 3.</_></rects>
      <tilted>0</tilted></_>
    <_>
      <rects>
        <_>
          3 3 4 2 -1.</_>
        <_>
          5 3 2 2 2.</_></rects>
      <tilted>0</tilted></_>
    <_>
      <rects>
        <_>
          4 0 22 14 -1.</_>
        <_>
          4 7 22 7 2.</_></rects>
      <tilted>0</tilted></_>
    <_>
      <rects>
        <_>
          4 12 26 12 -1.</_>
        <_>
          4 18 26 6 2.</_></rects>
      <tilted>0</tilted></_>
    <_>
      <rects>
        <_>
          5 0 19 24 -1.</_>
        <_>
          5 8 19 8 3.</_></rects>
      <tilted>0</tilted></_>
    <_>
      <rects>
        <_>
          6 0 17 24 -1.</_>
        <_>
          6 8 17 8 3.</_></rects>
      <tilted>0</tilted></_>
    <_>
      <rects>
        <_>
          6 0 25 14 -1.</_>
        <_>
          6 7 25 7 2.</_></rects>
      <tilted>0</tilted></_>
    <_>
      <rects>
        <_>
          6 4 12 2 -1.</_>
        <_>
          6 4 6 1 2.</_>
        <_>
          12 5 6 1 2.</_></rects>
      <tilted>0</tilted></_>
    <_>
      <rects>
        <_>
          7 0 16 24 -1.</_>
        <_>
          7 8 16 8 3.</_></rects>
      <tilted>0</tilted></_>
    <_>
      <rects>
        <_>
          7 0 21 24 -1.</_>
        <_>
          7 8 21 8 3.</_></rects>
      <tilted>0</tilted></_>
    <_>
      <rects>
        <_>
          7 23 15 1 -1.</_>
        <_>
          12 23 5 1 3.</_></rects>
      <tilted>0</tilted></_>
    <_>
      <rects>
        <_>
          8 0 16 6 -1.</_>
        <_>
          8 3 16 3 2.</_></rects>
      <tilted>0</tilted></_>
    <_>
      <rects>
        <_>
          8 11 2 10 -1.</_>
        <_>
          9 11 1 10 2.</_></rects>
      <tilted>0</tilted></_>
    <_>
      <rects>
        <_>
          8 12 24 5 -1.</_>
        <_>
          20 12 12 5 2.</_></rects>
      <tilted>0</tilted></_>
    <_>
      <rects>
        <_>
          9 0 14 1 -1.</_>
        <_>
          16 0 7 1 2.</_></rects>
      <tilted>0</tilted></_>
    <_>
      <rects>
        <_>
          9 23 18 1 -1.</_>
        <_>
          15 23 6 1 3.</_></rects>
      <tilted>0</tilted></_>
    <_>
      <rects>
        <_>
          10 12 13 12 -1.</_>
        <_>
          10 16 13 4 3.</_></rects>
      <tilted>0</tilted></_>
    <_>
      <rects>
        <_>
          11 0 10 1 -1.</_>
        <_>
          16 0 5 1 2.</_></rects>
      <tilted>0</tilted></_>
    <_>
      <rects>
        <_>
          11 20 3 4 -1.</_>
        <_>
          11 22 3 2 2.</_></rects>
      <tilted>0</tilted></_>
    <_>
      <rects>
        <_>
          11 23 15 1 -1.</_>
        <_>
          16 23 5 1 3.</_></rects>
      <tilted>0</tilted></_>
    <_>
      <rects>
        <_>
          12 0 20 10 -1.</_>
        <_>
          12 5 20 5 2.</_></rects>
      <tilted>0</tilted></_>
    <_>
      <rects>
        <_>
          14 6 6 2 -1.</_>
        <_>
          14 6 3 1 2.</_>
        <_>
          17 7 3 1 2.</_></rects>
      <tilted>0</tilted></_>
    <_>
      <rects>
        <_>
          16 4 16 11 -1.</_>
        <_>
          24 4 8 11 2.</_></rects>
      <tilted>0</tilted></_>
    <_>
      <rects>
        <_>
          16 6 16 7 -1.</_>
        <_>
          24 6 8 7 2.</_></rects>
      <tilted>0</tilted></_>
    <_>
      <rects>
        <_>
          17 0 1 10 -1.</_>
        <_>
          17 5 1 5 2.</_></rects>
      <tilted>0</tilted></_>
    <_>
      <rects>
        <_>
          17 0 6 1 -1.</_>
        <_>
          19 0 2 1 3.</_></rects>
      <tilted>0</tilted></_>
    <_>
      <rects>
        <_>
          18 4 14 13 -1.</_>
        <_>
          25 4 7 13 2.</_></rects>
      <tilted>0</tilted></_>
    <_>
      <rects>
        <_>
          18 5 14 10 -1.</_>
        <_>
          25 5 7 10 2.</_></rects>
      <tilted>0</tilted></_>
    <_>
      <rects>
        <_>
          18 9 14 13 -1.</_>
        <_>
          25 9 7 13 2.</_></rects>
      <tilted>0</tilted></_>
    <_>
      <rects>
        <_>
          19 2 8 8 -1.</_>
        <_>
          19 2 4 4 2.</_>
        <_>
          23 6 4 4 2.</_></rects>
      <tilted>0</tilted></_>
    <_>
      <rects>
        <_>
          20 4 4 4 -1.</_>
        <_>
          20 6 4 2 2.</_></rects>
      <tilted>0</tilted></_>
    <_>
      <rects>
        <_>
          20 6 12 8 -1.</_>
        <_>
          26 6 6 8 2.</_></rects>
      <tilted>0</tilted></_>
    <_>
      <rects>
        <_>
          20 23 12 1 -1.</_>
        <_>
          26 23 6 1 2.</_></rects>
      <tilted>0</tilted></_>
    <_>
      <rects>
        <_>
          22 7 2 6 -1.</_>
        <_>
          22 10 2 3 2.</_></rects>
      <tilted>0</tilted></_>
    <_>
      <rects>
        <_>
          24 1 5 4 -1.</_>
        <_>
          24 3 5 2 2.</_></rects>
      <tilted>0</tilted></_>
    <_>
      <rects>
        <_>
          25 4 3 16 -1.</_>
        <_>
          26 4 1 16 3.</_></rects>
      <tilted>0</tilted></_>
    <_>
      <rects>
        <_>
          26 0 6 2 -1.</_>
        <_>
          28 0 2 2 3.</_></rects>
      <tilted>0</tilted></_>
    <_>
      <rects>
        <_>
          28 1 4 4 -1.</_>
        <_>
          28 1 2 2 2.</_>
        <_>
          30 3 2 2 2.</_></rects>
      <tilted>0</tilted></_>
    <_>
      <rects>
        <_>
          29 0 2 2 -1.</_>
        <_>
          30 0 1 2 2.</_></rects>
      <tilted>0</tilted></_>
    <_>
      <rects>
        <_>
          29 4 3 3 -1.</_>
        <_>
          29 5 3 1 3.</_></rects>
      <tilted>0</tilted></_>
    <_>
      <rects>
        <_>
          30 4 2 3 -1.</_>
        <_>
          30 5 2 1 3.</_></rects>
      <tilted>0</tilted></_>
    <_>
      <rects>
        <_>
          31 17 1 4 -1.</_>
        <_>
          31 19 1 2 2.</_></rects>
      <tilted>0</tilted></_></features></cascade>
</opencv_storage>
