<?xml version="1.0"?>
<opencv_storage>
<cascade>
  <stageType>BOOST</stageType>
  <featureType>HAAR</featureType>
  <height>48</height>
  <width>64</width>
  <stageParams>
    <boostType>GAB</boostType>
    <minHitRate>9.9500000476837158e-01</minHitRate>
    <maxFalseAlarm>5.0000000000000000e-01</maxFalseAlarm>
    <weightTrimRate>9.4999998807907104e-01</weightTrimRate>
    <maxDepth>1</maxDepth>
    <maxWeakCount>100</maxWeakCount></stageParams>
  <featureParams>
    <maxCatCount>0</maxCatCount>
    <featSize>1</featSize>
    <mode>BASIC</mode></featureParams>
  <stageNum>20</stageNum>
  <stages>
    <!-- stage 0 -->
    <_>
      <maxWeakCount>5</maxWeakCount>
      <stageThreshold>-9.7455298900604248e-01</stageThreshold>
      <weakClassifiers>
        <_>
          <internalNodes>
            0 -1 99 -7.1005396544933319e-02</internalNodes>
          <leafValues>
            8.9999997615814209e-01 -7.2351884841918945e-01</leafValues></_>
        <_>
          <internalNodes>
            0 -1 4 4.1629076004028320e-03</internalNodes>
          <leafValues>
            -7.5163358449935913e-01 5.1111984252929688e-01</leafValues></_>
        <_>
          <internalNodes>
            0 -1 136 -1.3659198884852231e-04</internalNodes>
          <leafValues>
            4.3960669636726379e-01 -8.2370650768280029e-01</leafValues></_>
        <_>
          <internalNodes>
            0 -1 55 -1.3921760022640228e-01</internalNodes>
          <leafValues>
            9.4062846899032593e-01 -4.2396160960197449e-01</leafValues></_>
        <_>
          <internalNodes>
            0 -1 148 -2.8213637415319681e-04</internalNodes>
          <leafValues>
            4.8551413416862488e-01 -7.7425158023834229e-01</leafValues></_></weakClassifiers></_>
    <!-- stage 1 -->
    <_>
      <maxWeakCount>5</maxWeakCount>
      <stageThreshold>-1.2018435001373291e+00</stageThreshold>
      <weakClassifiers>
        <_>
          <internalNodes>
            0 -1 93 -9.1783091425895691e-02</internalNodes>
          <leafValues>
            8.9751100540161133e-01 -6.6985231637954712e-01</leafValues></_>
        <_>
          <internalNodes>
            0 -1 30 2.4074977263808250e-03</internalNodes>
          <leafValues>
            -7.6197820901870728e-01 5.2552181482315063e-01</leafValues></_>
        <_>
          <internalNodes>
            0 -1 143 -1.1096103116869926e-03</internalNodes>
          <leafValues>
            4.2640888690948486e-01 -7.4974751472473145e-01</leafValues></_>
        <_>
          <internalNodes>
            0 -1 64 5.3679374977946281e-03</internalNodes>
          <leafValues>
            -6.4157754182815552e-01 4.5513072609901428e-01</leafValues></_>
        <_>
          <internalNodes>
            0 -1 25 5.9693463845178485e-04</internalNodes>
          <leafValues>
            -6.4441567659378052e-01 4.4515562057495117e-01</leafValues></_></weakClassifiers></_>
    <!-- stage 2 -->
    <_>
      <maxWeakCount>5</maxWeakCount>
      <stageThreshold>-1.1492096185684204e+00</stageThreshold>
      <weakClassifiers>
        <_>
          <internalNodes>
            0 -1 80 -8.4102854132652283e-02</internalNodes>
          <leafValues>
            7.7297300100326538e-01 -6.6727602481842041e-01</leafValues></_>
        <_>
          <internalNodes>
            0 -1 137 2.1633268333971500e-03</internalNodes>
          <leafValues>
            -7.7265733480453491e-01 4.1358235478401184e-01</leafValues></_>
        <_>
          <internalNodes>
            0 -1 11 1.8738774815574288e-04</internalNodes>
          <leafValues>
            -7.1435761451721191e-01 3.5872033238410950e-01</leafValues></_>
        <_>
          <internalNodes>
            0 -1 157 -3.4683218109421432e-04</internalNodes>
          <leafValues>
            3.4407866001129150e-01 -7.6355278491973877e-01</leafValues></_>
        <_>
          <internalNodes>
            0 -1 74 7.4165582656860352e-02</internalNodes>
          <leafValues>
            -4.1207531094551086e-01 7.6938152313232422e-01</leafValues></_></weakClassifiers></_>
    <!-- stage 3 -->
    <_>
      <maxWeakCount>5</maxWeakCount>
      <stageThreshold>-1.0145229101181030e+00</stageThreshold>
      <weakClassifiers>
        <_>
          <internalNodes>
            0 -1 83 -1.1047291755676270e-01</internalNodes>
          <leafValues>
            7.4545454978942871e-01 -5.5366271734237671e-01</leafValues></_>
        <_>
          <internalNodes>
            0 -1 2 1.3297857367433608e-04</internalNodes>
          <leafValues>
            -7.4901491403579712e-01 3.8080880045890808e-01</leafValues></_>
        <_>
          <internalNodes>
            0 -1 31 1.5897629782557487e-03</internalNodes>
          <leafValues>
            -8.0426263809204102e-01 3.4715580940246582e-01</leafValues></_>
        <_>
          <internalNodes>
            0 -1 155 -5.4362439550459385e-04</internalNodes>
          <leafValues>
            3.1728389859199524e-01 -7.7067655324935913e-01</leafValues></_>
        <_>
          <internalNodes>
            0 -1 65 1.4177402853965759e-01</internalNodes>
          <leafValues>
            -3.5469022393226624e-01 7.8721374273300171e-01</leafValues></_></weakClassifiers></_>
    <!-- stage 4 -->
    <_>
      <maxWeakCount>6</maxWeakCount>
      <stageThreshold>-1.5786385536193848e+00</stageThreshold>
      <weakClassifiers>
        <_>
          <internalNodes>
            0 -1 6 -1.2108565866947174e-01</internalNodes>
          <leafValues>
            5.7932692766189575e-01 -6.3872253894805908e-01</leafValues></_>
        <_>
          <internalNodes>
            0 -1 175 1.3234562356956303e-04</internalNodes>
          <leafValues>
            -8.0698460340499878e-01 3.4542220830917358e-01</leafValues></_>
        <_>
          <internalNodes>
            0 -1 5 5.0787383224815130e-04</internalNodes>
          <leafValues>
            -6.9907867908477783e-01 3.4093099832534790e-01</leafValues></_>
        <_>
          <internalNodes>
            0 -1 128 -6.5526533871889114e-03</internalNodes>
          <leafValues>
            3.8259285688400269e-01 -6.4801937341690063e-01</leafValues></_>
        <_>
          <internalNodes>
            0 -1 42 -7.9579581506550312e-04</internalNodes>
          <leafValues>
            3.4771656990051270e-01 -6.6078138351440430e-01</leafValues></_>
        <_>
          <internalNodes>
            0 -1 79 1.3968169689178467e-01</internalNodes>
          <leafValues>
            -3.0807101726531982e-01 8.9064508676528931e-01</leafValues></_></weakClassifiers></_>
    <!-- stage 5 -->
    <_>
      <maxWeakCount>7</maxWeakCount>
      <stageThreshold>-1.0238468647003174e+00</stageThreshold>
      <weakClassifiers>
        <_>
          <internalNodes>
            0 -1 56 -1.6844794154167175e-01</internalNodes>
          <leafValues>
            7.9298830032348633e-01 -5.1255059242248535e-01</leafValues></_>
        <_>
          <internalNodes>
            0 -1 20 -2.6140926638618112e-04</internalNodes>
          <leafValues>
            3.6410498619079590e-01 -7.1821105480194092e-01</leafValues></_>
        <_>
          <internalNodes>
            0 -1 90 8.3868093788623810e-02</internalNodes>
          <leafValues>
            -4.5331498980522156e-01 4.8792412877082825e-01</leafValues></_>
        <_>
          <internalNodes>
            0 -1 141 -1.4874746557325125e-03</internalNodes>
          <leafValues>
            -7.8207182884216309e-01 2.8887566924095154e-01</leafValues></_>
        <_>
          <internalNodes>
            0 -1 151 3.8911905139684677e-03</internalNodes>
          <leafValues>
            2.7810153365135193e-01 -7.3446398973464966e-01</leafValues></_>
        <_>
          <internalNodes>
            0 -1 84 -2.3989606648683548e-02</internalNodes>
          <leafValues>
            7.4254107475280762e-01 -3.3967831730842590e-01</leafValues></_>
        <_>
          <internalNodes>
            0 -1 171 -7.8869059507269412e-05</internalNodes>
          <leafValues>
            4.3293091654777527e-01 -6.0219430923461914e-01</leafValues></_></weakClassifiers></_>
    <!-- stage 6 -->
    <_>
      <maxWeakCount>7</maxWeakCount>
      <stageThreshold>-9.3580543994903564e-01</stageThreshold>
      <weakClassifiers>
        <_>
          <internalNodes>
            0 -1 101 -1.4047896862030029e-01</internalNodes>
          <leafValues>
            7.2607880830764771e-01 -4.1890853643417358e-01</leafValues></_>
        <_>
          <internalNodes>
            0 -1 23 3.4998427054233616e-06</internalNodes>
          <leafValues>
            -7.6876199245452881e-01 3.3602207899093628e-01</leafValues></_>
        <_>
          <internalNodes>
            0 -1 156 6.6345935920253396e-05</internalNodes>
          <leafValues>
            -7.3920464515686035e-01 2.7978822588920593e-01</leafValues></_>
        <_>
          <internalNodes>
            0 -1 166 6.5675721270963550e-04</internalNodes>
          <leafValues>
            -7.6186233758926392e-01 3.0171048641204834e-01</leafValues></_>
        <_>
          <internalNodes>
            0 -1 34 9.8168838303536177e-04</internalNodes>
          <leafValues>
            2.4808220565319061e-01 -7.7327305078506470e-01</leafValues></_>
        <_>
          <internalNodes>
            0 -1 164 -5.7771918363869190e-05</internalNodes>
          <leafValues>
            2.8021338582038879e-01 -7.1081143617630005e-01</leafValues></_>
        <_>
          <internalNodes>
            0 -1 53 -2.3351481650024652e-04</internalNodes>
          <leafValues>
            -8.0990159511566162e-01 2.0564360916614532e-01</leafValues></_></weakClassifiers></_>
    <!-- stage 7 -->
    <_>
      <maxWeakCount>8</maxWeakCount>
      <stageThreshold>-1.0145927667617798e+00</stageThreshold>
      <weakClassifiers>
        <_>
          <internalNodes>
            0 -1 98 1.2616102397441864e-01</internalNodes>
          <leafValues>
            -5.5386084318161011e-01 5.3885352611541748e-01</leafValues></_>
        <_>
          <internalNodes>
            0 -1 144 -1.0023266077041626e-03</internalNodes>
          <leafValues>
            2.9618138074874878e-01 -7.9197859764099121e-01</leafValues></_>
        <_>
          <internalNodes>
            0 -1 3 6.2006048392504454e-04</internalNodes>
          <leafValues>
            -6.8110179901123047e-01 2.7048611640930176e-01</leafValues></_>
        <_>
          <internalNodes>
            0 -1 170 -3.2854157325346023e-05</internalNodes>
          <leafValues>
            2.3016540706157684e-01 -7.3642992973327637e-01</leafValues></_>
        <_>
          <internalNodes>
            0 -1 160 2.3119770921766758e-03</internalNodes>
          <leafValues>
            2.3785187304019928e-01 -7.6211643218994141e-01</leafValues></_>
        <_>
          <internalNodes>
            0 -1 50 2.2584037651540712e-05</internalNodes>
          <leafValues>
            2.1590581536293030e-01 -7.6904875040054321e-01</leafValues></_>
        <_>
          <internalNodes>
            0 -1 96 -1.2327700108289719e-01</internalNodes>
          <leafValues>
            6.2809944152832031e-01 -3.2087934017181396e-01</leafValues></_>
        <_>
          <internalNodes>
            0 -1 103 -3.4262627363204956e-02</internalNodes>
          <leafValues>
            7.9332858324050903e-01 -2.8466668725013733e-01</leafValues></_></weakClassifiers></_>
    <!-- stage 8 -->
    <_>
      <maxWeakCount>7</maxWeakCount>
      <stageThreshold>-1.0623228549957275e+00</stageThreshold>
      <weakClassifiers>
        <_>
          <internalNodes>
            0 -1 105 -1.1942541599273682e-01</internalNodes>
          <leafValues>
            6.3149076700210571e-01 -4.3249797821044922e-01</leafValues></_>
        <_>
          <internalNodes>
            0 -1 19 5.8269570581614971e-04</internalNodes>
          <leafValues>
            -6.1947840452194214e-01 3.3393329381942749e-01</leafValues></_>
        <_>
          <internalNodes>
            0 -1 123 -2.7536417474038899e-04</internalNodes>
          <leafValues>
            -8.6336463689804077e-01 1.9269254803657532e-01</leafValues></_>
        <_>
          <internalNodes>
            0 -1 150 1.3614720955956727e-04</internalNodes>
          <leafValues>
            -7.9741501808166504e-01 2.0396484434604645e-01</leafValues></_>
        <_>
          <internalNodes>
            0 -1 59 1.0544280667090788e-04</internalNodes>
          <leafValues>
            2.3550862073898315e-01 -6.9636154174804688e-01</leafValues></_>
        <_>
          <internalNodes>
            0 -1 1 6.1422200815286487e-05</internalNodes>
          <leafValues>
            -7.2309273481369019e-01 1.8351700901985168e-01</leafValues></_>
        <_>
          <internalNodes>
            0 -1 176 -2.2885398357175291e-04</internalNodes>
          <leafValues>
            -8.3874154090881348e-01 1.8322573602199554e-01</leafValues></_></weakClassifiers></_>
    <!-- stage 9 -->
    <_>
      <maxWeakCount>8</maxWeakCount>
      <stageThreshold>-1.2056757211685181e+00</stageThreshold>
      <weakClassifiers>
        <_>
          <internalNodes>
            0 -1 76 1.5362921357154846e-01</internalNodes>
          <leafValues>
            -3.9063698053359985e-01 6.6101694107055664e-01</leafValues></_>
        <_>
          <internalNodes>
            0 -1 63 -2.5934225320816040e-01</internalNodes>
          <leafValues>
            8.4813255071640015e-01 -2.1992966532707214e-01</leafValues></_>
        <_>
          <internalNodes>
            0 -1 7 2.0363943185657263e-03</internalNodes>
          <leafValues>
            -7.4578529596328735e-01 2.7626925706863403e-01</leafValues></_>
        <_>
          <internalNodes>
            0 -1 17 2.4323162506334484e-05</internalNodes>
          <leafValues>
            -7.1177613735198975e-01 2.3127877712249756e-01</leafValues></_>
        <_>
          <internalNodes>
            0 -1 146 3.7153408629819751e-04</internalNodes>
          <leafValues>
            2.3241811990737915e-01 -7.6329159736633301e-01</leafValues></_>
        <_>
          <internalNodes>
            0 -1 129 -2.2465489746537060e-04</internalNodes>
          <leafValues>
            2.2086347639560699e-01 -7.3287737369537354e-01</leafValues></_>
        <_>
          <internalNodes>
            0 -1 153 -3.7429569056257606e-04</internalNodes>
          <leafValues>
            -7.2643852233886719e-01 2.0725852251052856e-01</leafValues></_>
        <_>
          <internalNodes>
            0 -1 130 9.1252138372510672e-04</internalNodes>
          <leafValues>
            1.7556746304035187e-01 -7.6672071218490601e-01</leafValues></_></weakClassifiers></_>
    <!-- stage 10 -->
    <_>
      <maxWeakCount>9</maxWeakCount>
      <stageThreshold>-8.9286786317825317e-01</stageThreshold>
      <weakClassifiers>
        <_>
          <internalNodes>
            0 -1 94 -1.3452696800231934e-01</internalNodes>
          <leafValues>
            7.0843988656997681e-01 -3.0145528912544250e-01</leafValues></_>
        <_>
          <internalNodes>
            0 -1 138 -2.4140489404089749e-04</internalNodes>
          <leafValues>
            2.6268261671066284e-01 -7.0298224687576294e-01</leafValues></_>
        <_>
          <internalNodes>
            0 -1 0 1.3590100570581853e-04</internalNodes>
          <leafValues>
            -6.0498619079589844e-01 2.6056477427482605e-01</leafValues></_>
        <_>
          <internalNodes>
            0 -1 71 7.8741177916526794e-02</internalNodes>
          <leafValues>
            -2.9819762706756592e-01 5.1459580659866333e-01</leafValues></_>
        <_>
          <internalNodes>
            0 -1 95 -1.0450147092342377e-01</internalNodes>
          <leafValues>
            6.6998237371444702e-01 -2.3807325959205627e-01</leafValues></_>
        <_>
          <internalNodes>
            0 -1 163 -1.0123816900886595e-04</internalNodes>
          <leafValues>
            2.1060693264007568e-01 -6.8912321329116821e-01</leafValues></_>
        <_>
          <internalNodes>
            0 -1 114 1.0314314067363739e-01</internalNodes>
          <leafValues>
            -2.1171070635318756e-01 6.5903019905090332e-01</leafValues></_>
        <_>
          <internalNodes>
            0 -1 158 -1.0826523975993041e-05</internalNodes>
          <leafValues>
            2.4456156790256500e-01 -6.4262437820434570e-01</leafValues></_>
        <_>
          <internalNodes>
            0 -1 49 1.7732274136506021e-04</internalNodes>
          <leafValues>
            2.1302057802677155e-01 -7.1902340650558472e-01</leafValues></_></weakClassifiers></_>
    <!-- stage 11 -->
    <_>
      <maxWeakCount>9</maxWeakCount>
      <stageThreshold>-9.7971546649932861e-01</stageThreshold>
      <weakClassifiers>
        <_>
          <internalNodes>
            0 -1 67 -1.8668103218078613e-01</internalNodes>
          <leafValues>
            4.7104850411415100e-01 -3.8410040736198425e-01</leafValues></_>
        <_>
          <internalNodes>
            0 -1 39 3.7937057641102001e-05</internalNodes>
          <leafValues>
            -6.6606527566909790e-01 2.5626689195632935e-01</leafValues></_>
        <_>
          <internalNodes>
            0 -1 36 -1.6400384483858943e-03</internalNodes>
          <leafValues>
            -6.4991497993469238e-01 2.0398600399494171e-01</leafValues></_>
        <_>
          <internalNodes>
            0 -1 134 -5.4633892432320863e-05</internalNodes>
          <leafValues>
            2.2256477177143097e-01 -6.5264225006103516e-01</leafValues></_>
        <_>
          <internalNodes>
            0 -1 77 1.2281130254268646e-01</internalNodes>
          <leafValues>
            -2.6409411430358887e-01 6.2536782026290894e-01</leafValues></_>
        <_>
          <internalNodes>
            0 -1 125 1.0023661889135838e-04</internalNodes>
          <leafValues>
            1.6408982872962952e-01 -7.1649450063705444e-01</leafValues></_>
        <_>
          <internalNodes>
            0 -1 32 5.1948612963315099e-05</internalNodes>
          <leafValues>
            -7.0105439424514771e-01 1.7457373440265656e-01</leafValues></_>
        <_>
          <internalNodes>
            0 -1 38 1.1458727531135082e-03</internalNodes>
          <leafValues>
            2.0915283262729645e-01 -6.0501670837402344e-01</leafValues></_>
        <_>
          <internalNodes>
            0 -1 16 9.4299961347132921e-05</internalNodes>
          <leafValues>
            -5.8637499809265137e-01 2.3538419604301453e-01</leafValues></_></weakClassifiers></_>
    <!-- stage 12 -->
    <_>
      <maxWeakCount>10</maxWeakCount>
      <stageThreshold>-8.7629097700119019e-01</stageThreshold>
      <weakClassifiers>
        <_>
          <internalNodes>
            0 -1 117 -9.7697917371988297e-03</internalNodes>
          <leafValues>
            3.3807829022407532e-01 -4.4702321290969849e-01</leafValues></_>
        <_>
          <internalNodes>
            0 -1 24 -8.7224143499042839e-06</internalNodes>
          <leafValues>
            2.5972446799278259e-01 -5.9540015459060669e-01</leafValues></_>
        <_>
          <internalNodes>
            0 -1 167 1.8942440510727465e-04</internalNodes>
          <leafValues>
            -6.9643753767013550e-01 2.0863696932792664e-01</leafValues></_>
        <_>
          <internalNodes>
            0 -1 12 4.6659057261422276e-04</internalNodes>
          <leafValues>
            2.1475407481193542e-01 -7.1434956789016724e-01</leafValues></_>
        <_>
          <internalNodes>
            0 -1 54 9.9154189229011536e-04</internalNodes>
          <leafValues>
            -5.3139734268188477e-01 2.4003686010837555e-01</leafValues></_>
        <_>
          <internalNodes>
            0 -1 165 -3.9395104977302253e-05</internalNodes>
          <leafValues>
            2.0291402935981750e-01 -6.6985595226287842e-01</leafValues></_>
        <_>
          <internalNodes>
            0 -1 9 1.8155593425035477e-03</internalNodes>
          <leafValues>
            1.5844437479972839e-01 -7.0021641254425049e-01</leafValues></_>
        <_>
          <internalNodes>
            0 -1 26 -4.5668421080335975e-04</internalNodes>
          <leafValues>
            -7.0493638515472412e-01 1.7049899697303772e-01</leafValues></_>
        <_>
          <internalNodes>
            0 -1 82 8.2232251763343811e-02</internalNodes>
          <leafValues>
            -2.2216092050075531e-01 7.2026354074478149e-01</leafValues></_>
        <_>
          <internalNodes>
            0 -1 142 4.8800272634252906e-04</internalNodes>
          <leafValues>
            2.1244551241397858e-01 -7.3364937305450439e-01</leafValues></_></weakClassifiers></_>
    <!-- stage 13 -->
    <_>
      <maxWeakCount>12</maxWeakCount>
      <stageThreshold>-1.2643146514892578e+00</stageThreshold>
      <weakClassifiers>
        <_>
          <internalNodes>
            0 -1 145 -2.6268586516380310e-03</internalNodes>
          <leafValues>
            1.8255250155925751e-01 -6.4429527521133423e-01</leafValues></_>
        <_>
          <internalNodes>
            0 -1 8 1.8950033700093627e-04</internalNodes>
          <leafValues>
            -6.7504554986953735e-01 1.9871735572814941e-01</leafValues></_>
        <_>
          <internalNodes>
            0 -1 104 1.3781374320387840e-02</internalNodes>
          <leafValues>
            -4.1169223189353943e-01 3.8008543848991394e-01</leafValues></_>
        <_>
          <internalNodes>
            0 -1 15 -4.6970446419436485e-05</internalNodes>
          <leafValues>
            2.2242438793182373e-01 -6.2286806106567383e-01</leafValues></_>
        <_>
          <internalNodes>
            0 -1 124 1.4696666039526463e-03</internalNodes>
          <leafValues>
            -6.9576227664947510e-01 1.8193785846233368e-01</leafValues></_>
        <_>
          <internalNodes>
            0 -1 121 5.1779258064925671e-03</internalNodes>
          <leafValues>
            1.4775925874710083e-01 -7.8961551189422607e-01</leafValues></_>
        <_>
          <internalNodes>
            0 -1 85 -1.4359377324581146e-01</internalNodes>
          <leafValues>
            7.6564741134643555e-01 -2.1836152672767639e-01</leafValues></_>
        <_>
          <internalNodes>
            0 -1 91 6.0631629079580307e-02</internalNodes>
          <leafValues>
            -2.2248795628547668e-01 6.2132471799850464e-01</leafValues></_>
        <_>
          <internalNodes>
            0 -1 29 1.0058599582407624e-04</internalNodes>
          <leafValues>
            -6.4038193225860596e-01 2.2125755250453949e-01</leafValues></_>
        <_>
          <internalNodes>
            0 -1 177 -4.3444026960060000e-04</internalNodes>
          <leafValues>
            1.7915932834148407e-01 -7.0108157396316528e-01</leafValues></_>
        <_>
          <internalNodes>
            0 -1 119 1.5212181024253368e-02</internalNodes>
          <leafValues>
            -1.9588659703731537e-01 7.0245122909545898e-01</leafValues></_>
        <_>
          <internalNodes>
            0 -1 116 4.1039427742362022e-04</internalNodes>
          <leafValues>
            2.0824645459651947e-01 -6.3972043991088867e-01</leafValues></_></weakClassifiers></_>
    <!-- stage 14 -->
    <_>
      <maxWeakCount>11</maxWeakCount>
      <stageThreshold>-1.2424852848052979e+00</stageThreshold>
      <weakClassifiers>
        <_>
          <internalNodes>
            0 -1 81 1.9946064800024033e-02</internalNodes>
          <leafValues>
            -4.2804086208343506e-01 4.0026420354843140e-01</leafValues></_>
        <_>
          <internalNodes>
            0 -1 60 1.2461947335395962e-04</internalNodes>
          <leafValues>
            -6.6660773754119873e-01 2.1473929286003113e-01</leafValues></_>
        <_>
          <internalNodes>
            0 -1 22 1.5025510219857097e-04</internalNodes>
          <leafValues>
            -6.4974969625473022e-01 2.0283274352550507e-01</leafValues></_>
        <_>
          <internalNodes>
            0 -1 174 6.9220812292769551e-05</internalNodes>
          <leafValues>
            -5.9943991899490356e-01 2.3260711133480072e-01</leafValues></_>
        <_>
          <internalNodes>
            0 -1 152 -3.0260849744081497e-03</internalNodes>
          <leafValues>
            -7.4581366777420044e-01 1.8827347457408905e-01</leafValues></_>
        <_>
          <internalNodes>
            0 -1 135 -2.4195449077524245e-04</internalNodes>
          <leafValues>
            2.2359000146389008e-01 -6.8957728147506714e-01</leafValues></_>
        <_>
          <internalNodes>
            0 -1 97 -2.5846879929304123e-02</internalNodes>
          <leafValues>
            5.7378572225570679e-01 -2.6568591594696045e-01</leafValues></_>
        <_>
          <internalNodes>
            0 -1 86 -2.9852308332920074e-02</internalNodes>
          <leafValues>
            3.7727001309394836e-01 -3.8041934370994568e-01</leafValues></_>
        <_>
          <internalNodes>
            0 -1 57 -3.5328257945366204e-04</internalNodes>
          <leafValues>
            -6.2433344125747681e-01 2.2785107791423798e-01</leafValues></_>
        <_>
          <internalNodes>
            0 -1 43 6.1842864379286766e-03</internalNodes>
          <leafValues>
            1.5088033676147461e-01 -7.2221791744232178e-01</leafValues></_>
        <_>
          <internalNodes>
            0 -1 162 -3.0388000595849007e-05</internalNodes>
          <leafValues>
            1.8381483852863312e-01 -6.9594597816467285e-01</leafValues></_></weakClassifiers></_>
    <!-- stage 15 -->
    <_>
      <maxWeakCount>13</maxWeakCount>
      <stageThreshold>-1.1401730775833130e+00</stageThreshold>
      <weakClassifiers>
        <_>
          <internalNodes>
            0 -1 47 -1.3460239768028259e-01</internalNodes>
          <leafValues>
            3.1875720620155334e-01 -4.5077720284461975e-01</leafValues></_>
        <_>
          <internalNodes>
            0 -1 51 1.9458839960861951e-04</internalNodes>
          <leafValues>
            -6.3312315940856934e-01 1.9863080978393555e-01</leafValues></_>
        <_>
          <internalNodes>
            0 -1 46 4.7894049203023314e-04</internalNodes>
          <leafValues>
            -6.9763660430908203e-01 1.5815947949886322e-01</leafValues></_>
        <_>
          <internalNodes>
            0 -1 21 -5.6328019127249718e-04</internalNodes>
          <leafValues>
            -6.3668322563171387e-01 1.7362315952777863e-01</leafValues></_>
        <_>
          <internalNodes>
            0 -1 45 9.9874194711446762e-04</internalNodes>
          <leafValues>
            1.3469541072845459e-01 -7.0216584205627441e-01</leafValues></_>
        <_>
          <internalNodes>
            0 -1 127 4.4079287908971310e-03</internalNodes>
          <leafValues>
            -4.6320796012878418e-01 2.3366610705852509e-01</leafValues></_>
        <_>
          <internalNodes>
            0 -1 106 -6.1578890308737755e-03</internalNodes>
          <leafValues>
            -8.4588432312011719e-01 1.3155704736709595e-01</leafValues></_>
        <_>
          <internalNodes>
            0 -1 41 1.0706221684813499e-02</internalNodes>
          <leafValues>
            1.2169923633337021e-01 -6.3277173042297363e-01</leafValues></_>
        <_>
          <internalNodes>
            0 -1 58 3.6750666797161102e-02</internalNodes>
          <leafValues>
            -1.5264806151390076e-01 6.7254012823104858e-01</leafValues></_>
        <_>
          <internalNodes>
            0 -1 169 -7.3953371611423790e-05</internalNodes>
          <leafValues>
            2.4397718906402588e-01 -4.1715127229690552e-01</leafValues></_>
        <_>
          <internalNodes>
            0 -1 115 -5.8362109120935202e-04</internalNodes>
          <leafValues>
            -6.9122594594955444e-01 1.3768567144870758e-01</leafValues></_>
        <_>
          <internalNodes>
            0 -1 69 -1.3009582471568137e-04</internalNodes>
          <leafValues>
            -5.5876678228378296e-01 1.5225373208522797e-01</leafValues></_>
        <_>
          <internalNodes>
            0 -1 131 -1.0186664294451475e-03</internalNodes>
          <leafValues>
            -7.6442605257034302e-01 1.3109025359153748e-01</leafValues></_></weakClassifiers></_>
    <!-- stage 16 -->
    <_>
      <maxWeakCount>12</maxWeakCount>
      <stageThreshold>-9.7506636381149292e-01</stageThreshold>
      <weakClassifiers>
        <_>
          <internalNodes>
            0 -1 107 7.0730447769165039e-02</internalNodes>
          <leafValues>
            -5.7009345293045044e-01 1.7449665069580078e-01</leafValues></_>
        <_>
          <internalNodes>
            0 -1 149 -3.1065708026289940e-04</internalNodes>
          <leafValues>
            1.7609997093677521e-01 -6.7545872926712036e-01</leafValues></_>
        <_>
          <internalNodes>
            0 -1 13 -3.9966944314073771e-06</internalNodes>
          <leafValues>
            2.0621934533119202e-01 -5.8240407705307007e-01</leafValues></_>
        <_>
          <internalNodes>
            0 -1 168 3.0952683300711215e-04</internalNodes>
          <leafValues>
            1.7107068002223969e-01 -6.3921344280242920e-01</leafValues></_>
        <_>
          <internalNodes>
            0 -1 112 -8.3491066470742226e-03</internalNodes>
          <leafValues>
            5.7202965021133423e-01 -2.1829274296760559e-01</leafValues></_>
        <_>
          <internalNodes>
            0 -1 111 9.6555724740028381e-03</internalNodes>
          <leafValues>
            -1.6472500562667847e-01 7.2636604309082031e-01</leafValues></_>
        <_>
          <internalNodes>
            0 -1 172 -9.4705073934164830e-06</internalNodes>
          <leafValues>
            2.2037515044212341e-01 -5.8775132894515991e-01</leafValues></_>
        <_>
          <internalNodes>
            0 -1 48 8.1837939796969295e-04</internalNodes>
          <leafValues>
            1.6164565086364746e-01 -5.6890636682510376e-01</leafValues></_>
        <_>
          <internalNodes>
            0 -1 78 1.0915780812501907e-01</internalNodes>
          <leafValues>
            -2.3916563391685486e-01 4.4894725084304810e-01</leafValues></_>
        <_>
          <internalNodes>
            0 -1 2 1.3666573795489967e-04</internalNodes>
          <leafValues>
            -6.8536591529846191e-01 1.7989836633205414e-01</leafValues></_>
        <_>
          <internalNodes>
            0 -1 113 1.4802179066464305e-03</internalNodes>
          <leafValues>
            -1.6763368248939514e-01 7.3315912485122681e-01</leafValues></_>
        <_>
          <internalNodes>
            0 -1 173 2.3472748580388725e-05</internalNodes>
          <leafValues>
            -5.4705744981765747e-01 1.9272586703300476e-01</leafValues></_></weakClassifiers></_>
    <!-- stage 17 -->
    <_>
      <maxWeakCount>12</maxWeakCount>
      <stageThreshold>-1.2898055315017700e+00</stageThreshold>
      <weakClassifiers>
        <_>
          <internalNodes>
            0 -1 109 -5.2529886364936829e-02</internalNodes>
          <leafValues>
            5.7635468244552612e-01 -2.7450981736183167e-01</leafValues></_>
        <_>
          <internalNodes>
            0 -1 27 3.0501547735184431e-04</internalNodes>
          <leafValues>
            -5.6394785642623901e-01 2.2296062111854553e-01</leafValues></_>
        <_>
          <internalNodes>
            0 -1 72 1.6651964187622070e-01</internalNodes>
          <leafValues>
            -2.8907421231269836e-01 4.3035003542900085e-01</leafValues></_>
        <_>
          <internalNodes>
            0 -1 28 8.1865415268111974e-05</internalNodes>
          <leafValues>
            -6.5896719694137573e-01 1.6900734603404999e-01</leafValues></_>
        <_>
          <internalNodes>
            0 -1 132 -4.4969341251999140e-04</internalNodes>
          <leafValues>
            1.6848392784595490e-01 -6.4192843437194824e-01</leafValues></_>
        <_>
          <internalNodes>
            0 -1 89 6.4433969557285309e-02</internalNodes>
          <leafValues>
            -3.2349810004234314e-01 3.2096418738365173e-01</leafValues></_>
        <_>
          <internalNodes>
            0 -1 68 -2.8481590561568737e-04</internalNodes>
          <leafValues>
            -7.5386953353881836e-01 1.3839358091354370e-01</leafValues></_>
        <_>
          <internalNodes>
            0 -1 70 1.4193682000041008e-04</internalNodes>
          <leafValues>
            1.3437767326831818e-01 -6.0149866342544556e-01</leafValues></_>
        <_>
          <internalNodes>
            0 -1 35 -3.7709280150011182e-04</internalNodes>
          <leafValues>
            -6.6041558980941772e-01 1.6241931915283203e-01</leafValues></_>
        <_>
          <internalNodes>
            0 -1 120 3.3859437098726630e-04</internalNodes>
          <leafValues>
            1.0781656205654144e-01 -7.2711998224258423e-01</leafValues></_>
        <_>
          <internalNodes>
            0 -1 75 3.9748148992657661e-03</internalNodes>
          <leafValues>
            -1.7267061769962311e-01 7.8949540853500366e-01</leafValues></_>
        <_>
          <internalNodes>
            0 -1 147 -4.7245831228792667e-04</internalNodes>
          <leafValues>
            2.3033908009529114e-01 -5.2777588367462158e-01</leafValues></_></weakClassifiers></_>
    <!-- stage 18 -->
    <_>
      <maxWeakCount>15</maxWeakCount>
      <stageThreshold>-1.1342104673385620e+00</stageThreshold>
      <weakClassifiers>
        <_>
          <internalNodes>
            0 -1 118 8.8203266263008118e-02</internalNodes>
          <leafValues>
            -3.4491747617721558e-01 3.4992679953575134e-01</leafValues></_>
        <_>
          <internalNodes>
            0 -1 10 7.0780399255454540e-04</internalNodes>
          <leafValues>
            -5.9131425619125366e-01 1.8502622842788696e-01</leafValues></_>
        <_>
          <internalNodes>
            0 -1 73 -1.5571501851081848e-01</internalNodes>
          <leafValues>
            2.8709411621093750e-01 -3.9922747015953064e-01</leafValues></_>
        <_>
          <internalNodes>
            0 -1 140 7.5755460420623422e-04</internalNodes>
          <leafValues>
            -6.2395477294921875e-01 2.1170671284198761e-01</leafValues></_>
        <_>
          <internalNodes>
            0 -1 159 -5.5423320736736059e-04</internalNodes>
          <leafValues>
            -6.5855926275253296e-01 1.6296364367008209e-01</leafValues></_>
        <_>
          <internalNodes>
            0 -1 37 -1.9490445265546441e-04</internalNodes>
          <leafValues>
            -6.2151736021041870e-01 1.3773399591445923e-01</leafValues></_>
        <_>
          <internalNodes>
            0 -1 66 1.0086095426231623e-03</internalNodes>
          <leafValues>
            1.6071626543998718e-01 -5.9124165773391724e-01</leafValues></_>
        <_>
          <internalNodes>
            0 -1 62 3.5823631333187222e-04</internalNodes>
          <leafValues>
            -5.6275510787963867e-01 1.8550777435302734e-01</leafValues></_>
        <_>
          <internalNodes>
            0 -1 61 -4.3847772758454084e-04</internalNodes>
          <leafValues>
            -7.1378540992736816e-01 8.0312706530094147e-02</leafValues></_>
        <_>
          <internalNodes>
            0 -1 18 -8.7616703240200877e-05</internalNodes>
          <leafValues>
            1.8353852629661560e-01 -5.2175331115722656e-01</leafValues></_>
        <_>
          <internalNodes>
            0 -1 88 9.4659614842385054e-04</internalNodes>
          <leafValues>
            -1.8592533469200134e-01 5.3034961223602295e-01</leafValues></_>
        <_>
          <internalNodes>
            0 -1 100 6.3046971336007118e-03</internalNodes>
          <leafValues>
            -1.1460317671298981e-01 6.5077674388885498e-01</leafValues></_>
        <_>
          <internalNodes>
            0 -1 154 1.1303272185614333e-04</internalNodes>
          <leafValues>
            1.4747847616672516e-01 -6.6523581743240356e-01</leafValues></_>
        <_>
          <internalNodes>
            0 -1 33 3.4482884075259790e-05</internalNodes>
          <leafValues>
            -6.2056738138198853e-01 1.4478540420532227e-01</leafValues></_>
        <_>
          <internalNodes>
            0 -1 161 -3.6126276245340705e-04</internalNodes>
          <leafValues>
            -7.8800892829895020e-01 7.7479153871536255e-02</leafValues></_></weakClassifiers></_>
    <!-- stage 19 -->
    <_>
      <maxWeakCount>13</maxWeakCount>
      <stageThreshold>-1.2613505125045776e+00</stageThreshold>
      <weakClassifiers>
        <_>
          <internalNodes>
            0 -1 139 3.3871750929392874e-04</internalNodes>
          <leafValues>
            -6.5503078699111938e-01 1.1952487379312515e-01</leafValues></_>
        <_>
          <internalNodes>
            0 -1 110 -1.2638304382562637e-02</internalNodes>
          <leafValues>
            3.4289911389350891e-01 -3.6941856145858765e-01</leafValues></_>
        <_>
          <internalNodes>
            0 -1 87 -7.7053308486938477e-02</internalNodes>
          <leafValues>
            4.7337120771408081e-01 -2.3876105248928070e-01</leafValues></_>
        <_>
          <internalNodes>
            0 -1 44 -2.6445207186043262e-04</internalNodes>
          <leafValues>
            2.3216660320758820e-01 -5.8467781543731689e-01</leafValues></_>
        <_>
          <internalNodes>
            0 -1 102 -1.8678434193134308e-02</internalNodes>
          <leafValues>
            6.9232636690139771e-01 -2.3235176503658295e-01</leafValues></_>
        <_>
          <internalNodes>
            0 -1 14 2.9470695881173015e-04</internalNodes>
          <leafValues>
            -4.2066922783851624e-01 3.0793628096580505e-01</leafValues></_>
        <_>
          <internalNodes>
            0 -1 108 -7.2689149528741837e-03</internalNodes>
          <leafValues>
            7.5622087717056274e-01 -1.6563971340656281e-01</leafValues></_>
        <_>
          <internalNodes>
            0 -1 52 -2.0675037056207657e-02</internalNodes>
          <leafValues>
            -8.4186631441116333e-01 1.2555286288261414e-01</leafValues></_>
        <_>
          <internalNodes>
            0 -1 122 -3.2717725844122469e-04</internalNodes>
          <leafValues>
            2.4374312162399292e-01 -5.0429010391235352e-01</leafValues></_>
        <_>
          <internalNodes>
            0 -1 92 1.7318366467952728e-01</internalNodes>
          <leafValues>
            -1.8783783912658691e-01 6.0587674379348755e-01</leafValues></_>
        <_>
          <internalNodes>
            0 -1 40 8.2384189590811729e-04</internalNodes>
          <leafValues>
            -5.6283164024353027e-01 2.0343787968158722e-01</leafValues></_>
        <_>
          <internalNodes>
            0 -1 126 -2.9566837474703789e-03</internalNodes>
          <leafValues>
            -6.3605928421020508e-01 1.3285304605960846e-01</leafValues></_>
        <_>
          <internalNodes>
            0 -1 133 -8.1376807065680623e-04</internalNodes>
          <leafValues>
            -7.3844695091247559e-01 1.1289365589618683e-01</leafValues></_></weakClassifiers></_></stages>
  <features>
    <_>
      <rects>
        <_>
          0 0 2 10 -1.</_>
        <_>
          1 0 1 10 2.</_></rects>
      <tilted>0</tilted></_>
    <_>
      <rects>
        <_>
          0 0 2 6 -1.</_>
        <_>
          0 3 2 3 2.</_></rects>
      <tilted>0</tilted></_>
    <_>
      <rects>
        <_>
          0 0 4 4 -1.</_>
        <_>
          2 0 2 4 2.</_></rects>
      <tilted>0</tilted></_>
    <_>
      <rects>
        <_>
          0 0 4 17 -1.</_>
        <_>
          2 0 2 17 2.</_></rects>
      <tilted>0</tilted></_>
    <_>
      <rects>
        <_>
          0 0 10 29 -1.</_>
        <_>
          5 0 5 29 2.</_></rects>
      <tilted>0</tilted></_>
    <_>
      <rects>
        <_>
          0 0 14 1 -1.</_>
        <_>
          7 0 7 1 2.</_></rects>
      <tilted>0</tilted></_>
    <_>
      <rects>
        <_>
          0 0 38 38 -1.</_>
        <_>
          0 0 19 19 2.</_>
        <_>
          19 19 19 19 2.</_></rects>
      <tilted>0</tilted></_>
    <_>
      <rects>
        <_>
          0 0 40 2 -1.</_>
        <_>
          20 0 20 2 2.</_></rects>
      <tilted>0</tilted></_>
    <_>
      <rects>
        <_>
          0 13 2 28 -1.</_>
        <_>
          1 13 1 28 2.</_></rects>
      <tilted>0</tilted></_>
    <_>
      <rects>
        <_>
          0 16 10 6 -1.</_>
        <_>
          0 19 10 3 2.</_></rects>
      <tilted>0</tilted></_>
    <_>
      <rects>
        <_>
          0 18 6 15 -1.</_>
        <_>
          3 18 3 15 2.</_></rects>
      <tilted>0</tilted></_>
    <_>
      <rects>
        <_>
          0 24 2 24 -1.</_>
        <_>
          1 24 1 24 2.</_></rects>
      <tilted>0</tilted></_>
    <_>
      <rects>
        <_>
          0 28 4 6 -1.</_>
        <_>
          0 31 4 3 2.</_></rects>
      <tilted>0</tilted></_>
    <_>
      <rects>
        <_>
          0 34 3 6 -1.</_>
        <_>
          0 37 3 3 2.</_></rects>
      <tilted>0</tilted></_>
    <_>
      <rects>
        <_>
          0 38 4 6 -1.</_>
        <_>
          2 38 2 6 2.</_></rects>
      <tilted>0</tilted></_>
    <_>
      <rects>
        <_>
          0 39 2 6 -1.</_>
        <_>
          0 42 2 3 2.</_></rects>
      <tilted>0</tilted></_>
    <_>
      <rects>
        <_>
          0 39 4 4 -1.</_>
        <_>
          2 39 2 4 2.</_></rects>
      <tilted>0</tilted></_>
    <_>
      <rects>
        <_>
          0 41 2 7 -1.</_>
        <_>
          1 41 1 7 2.</_></rects>
      <tilted>0</tilted></_>
    <_>
      <rects>
        <_>
          0 42 1 6 -1.</_>
        <_>
          0 45 1 3 2.</_></rects>
      <tilted>0</tilted></_>
    <_>
      <rects>
        <_>
          0 42 8 5 -1.</_>
        <_>
          4 42 4 5 2.</_></rects>
      <tilted>0</tilted></_>
    <_>
      <rects>
        <_>
          0 42 6 6 -1.</_>
        <_>
          0 45 6 3 2.</_></rects>
      <tilted>0</tilted></_>
    <_>
      <rects>
        <_>
          0 42 24 6 -1.</_>
        <_>
          0 42 12 3 2.</_>
        <_>
          12 45 12 3 2.</_></rects>
      <tilted>0</tilted></_>
    <_>
      <rects>
        <_>
          0 44 4 4 -1.</_>
        <_>
          2 44 2 4 2.</_></rects>
      <tilted>0</tilted></_>
    <_>
      <rects>
        <_>
          0 45 4 3 -1.</_>
        <_>
          2 45 2 3 2.</_></rects>
      <tilted>0</tilted></_>
    <_>
      <rects>
        <_>
          0 46 5 2 -1.</_>
        <_>
          0 47 5 1 2.</_></rects>
      <tilted>0</tilted></_>
    <_>
      <rects>
        <_>
          0 46 10 2 -1.</_>
        <_>
          5 46 5 2 2.</_></rects>
      <tilted>0</tilted></_>
    <_>
      <rects>
        <_>
          0 46 24 1 -1.</_>
        <_>
          8 46 8 1 3.</_></rects>
      <tilted>0</tilted></_>
    <_>
      <rects>
        <_>
          0 47 10 1 -1.</_>
        <_>
          5 47 5 1 2.</_></rects>
      <tilted>0</tilted></_>
    <_>
      <rects>
        <_>
          1 0 2 6 -1.</_>
        <_>
          1 3 2 3 2.</_></rects>
      <tilted>0</tilted></_>
    <_>
      <rects>
        <_>
          1 0 8 1 -1.</_>
        <_>
          5 0 4 1 2.</_></rects>
      <tilted>0</tilted></_>
    <_>
      <rects>
        <_>
          1 0 8 22 -1.</_>
        <_>
          1 11 8 11 2.</_></rects>
      <tilted>0</tilted></_>
    <_>
      <rects>
        <_>
          1 0 13 12 -1.</_>
        <_>
          1 6 13 6 2.</_></rects>
      <tilted>0</tilted></_>
    <_>
      <rects>
        <_>
          1 1 2 8 -1.</_>
        <_>
          1 5 2 4 2.</_></rects>
      <tilted>0</tilted></_>
    <_>
      <rects>
        <_>
          1 3 1 10 -1.</_>
        <_>
          1 8 1 5 2.</_></rects>
      <tilted>0</tilted></_>
    <_>
      <rects>
        <_>
          1 16 8 32 -1.</_>
        <_>
          1 32 8 16 2.</_></rects>
      <tilted>0</tilted></_>
    <_>
      <rects>
        <_>
          1 17 1 10 -1.</_>
        <_>
          1 22 1 5 2.</_></rects>
      <tilted>0</tilted></_>
    <_>
      <rects>
        <_>
          1 20 5 24 -1.</_>
        <_>
          1 28 5 8 3.</_></rects>
      <tilted>0</tilted></_>
    <_>
      <rects>
        <_>
          1 42 34 6 -1.</_>
        <_>
          1 42 17 3 2.</_>
        <_>
          18 45 17 3 2.</_></rects>
      <tilted>0</tilted></_>
    <_>
      <rects>
        <_>
          2 2 2 8 -1.</_>
        <_>
          2 6 2 4 2.</_></rects>
      <tilted>0</tilted></_>
    <_>
      <rects>
        <_>
          2 2 6 1 -1.</_>
        <_>
          5 2 3 1 2.</_></rects>
      <tilted>0</tilted></_>
    <_>
      <rects>
        <_>
          2 2 6 14 -1.</_>
        <_>
          5 2 3 14 2.</_></rects>
      <tilted>0</tilted></_>
    <_>
      <rects>
        <_>
          2 5 5 30 -1.</_>
        <_>
          2 20 5 15 2.</_></rects>
      <tilted>0</tilted></_>
    <_>
      <rects>
        <_>
          2 22 2 26 -1.</_>
        <_>
          2 35 2 13 2.</_></rects>
      <tilted>0</tilted></_>
    <_>
      <rects>
        <_>
          3 6 5 16 -1.</_>
        <_>
          3 14 5 8 2.</_></rects>
      <tilted>0</tilted></_>
    <_>
      <rects>
        <_>
          3 35 4 10 -1.</_>
        <_>
          3 40 4 5 2.</_></rects>
      <tilted>0</tilted></_>
    <_>
      <rects>
        <_>
          4 0 1 15 -1.</_>
        <_>
          4 5 1 5 3.</_></rects>
      <tilted>0</tilted></_>
    <_>
      <rects>
        <_>
          4 0 8 7 -1.</_>
        <_>
          8 0 4 7 2.</_></rects>
      <tilted>0</tilted></_>
    <_>
      <rects>
        <_>
          4 2 36 36 -1.</_>
        <_>
          4 2 18 18 2.</_>
        <_>
          22 20 18 18 2.</_></rects>
      <tilted>0</tilted></_>
    <_>
      <rects>
        <_>
          4 6 2 8 -1.</_>
        <_>
          4 10 2 4 2.</_></rects>
      <tilted>0</tilted></_>
    <_>
      <rects>
        <_>
          4 24 1 6 -1.</_>
        <_>
          4 27 1 3 2.</_></rects>
      <tilted>0</tilted></_>
    <_>
      <rects>
        <_>
          4 38 5 10 -1.</_>
        <_>
          4 43 5 5 2.</_></rects>
      <tilted>0</tilted></_>
    <_>
      <rects>
        <_>
          5 0 23 4 -1.</_>
        <_>
          5 2 23 2 2.</_></rects>
      <tilted>0</tilted></_>
    <_>
      <rects>
        <_>
          5 0 58 3 -1.</_>
        <_>
          34 0 29 3 2.</_></rects>
      <tilted>0</tilted></_>
    <_>
      <rects>
        <_>
          5 1 14 2 -1.</_>
        <_>
          12 1 7 2 2.</_></rects>
      <tilted>0</tilted></_>
    <_>
      <rects>
        <_>
          5 13 12 5 -1.</_>
        <_>
          11 13 6 5 2.</_></rects>
      <tilted>0</tilted></_>
    <_>
      <rects>
        <_>
          5 22 51 16 -1.</_>
        <_>
          22 22 17 16 3.</_></rects>
      <tilted>0</tilted></_>
    <_>
      <rects>
        <_>
          5 23 51 16 -1.</_>
        <_>
          22 23 17 16 3.</_></rects>
      <tilted>0</tilted></_>
    <_>
      <rects>
        <_>
          6 6 2 16 -1.</_>
        <_>
          6 14 2 8 2.</_></rects>
      <tilted>0</tilted></_>
    <_>
      <rects>
        <_>
          6 16 54 3 -1.</_>
        <_>
          24 16 18 3 3.</_></rects>
      <tilted>0</tilted></_>
    <_>
      <rects>
        <_>
          6 35 1 6 -1.</_>
        <_>
          6 38 1 3 2.</_></rects>
      <tilted>0</tilted></_>
    <_>
      <rects>
        <_>
          7 0 1 12 -1.</_>
        <_>
          7 6 1 6 2.</_></rects>
      <tilted>0</tilted></_>
    <_>
      <rects>
        <_>
          7 43 10 2 -1.</_>
        <_>
          7 44 10 1 2.</_></rects>
      <tilted>0</tilted></_>
    <_>
      <rects>
        <_>
          8 0 16 2 -1.</_>
        <_>
          16 0 8 2 2.</_></rects>
      <tilted>0</tilted></_>
    <_>
      <rects>
        <_>
          8 16 45 21 -1.</_>
        <_>
          23 16 15 21 3.</_></rects>
      <tilted>0</tilted></_>
    <_>
      <rects>
        <_>
          9 0 50 8 -1.</_>
        <_>
          9 4 50 4 2.</_></rects>
      <tilted>0</tilted></_>
    <_>
      <rects>
        <_>
          9 1 34 33 -1.</_>
        <_>
          9 12 34 11 3.</_></rects>
      <tilted>0</tilted></_>
    <_>
      <rects>
        <_>
          9 2 12 1 -1.</_>
        <_>
          15 2 6 1 2.</_></rects>
      <tilted>0</tilted></_>
    <_>
      <rects>
        <_>
          9 21 45 17 -1.</_>
        <_>
          24 21 15 17 3.</_></rects>
      <tilted>0</tilted></_>
    <_>
      <rects>
        <_>
          10 1 6 2 -1.</_>
        <_>
          13 1 3 2 2.</_></rects>
      <tilted>0</tilted></_>
    <_>
      <rects>
        <_>
          10 2 1 22 -1.</_>
        <_>
          10 13 1 11 2.</_></rects>
      <tilted>0</tilted></_>
    <_>
      <rects>
        <_>
          10 26 2 20 -1.</_>
        <_>
          10 36 2 10 2.</_></rects>
      <tilted>0</tilted></_>
    <_>
      <rects>
        <_>
          14 0 26 24 -1.</_>
        <_>
          14 8 26 8 3.</_></rects>
      <tilted>0</tilted></_>
    <_>
      <rects>
        <_>
          14 0 30 36 -1.</_>
        <_>
          14 12 30 12 3.</_></rects>
      <tilted>0</tilted></_>
    <_>
      <rects>
        <_>
          15 8 35 30 -1.</_>
        <_>
          15 23 35 15 2.</_></rects>
      <tilted>0</tilted></_>
    <_>
      <rects>
        <_>
          16 0 31 24 -1.</_>
        <_>
          16 8 31 8 3.</_></rects>
      <tilted>0</tilted></_>
    <_>
      <rects>
        <_>
          16 27 30 1 -1.</_>
        <_>
          26 27 10 1 3.</_></rects>
      <tilted>0</tilted></_>
    <_>
      <rects>
        <_>
          17 0 26 30 -1.</_>
        <_>
          17 10 26 10 3.</_></rects>
      <tilted>0</tilted></_>
    <_>
      <rects>
        <_>
          17 4 39 24 -1.</_>
        <_>
          17 12 39 8 3.</_></rects>
      <tilted>0</tilted></_>
    <_>
      <rects>
        <_>
          18 1 44 24 -1.</_>
        <_>
          18 9 44 8 3.</_></rects>
      <tilted>0</tilted></_>
    <_>
      <rects>
        <_>
          19 3 26 30 -1.</_>
        <_>
          19 13 26 10 3.</_></rects>
      <tilted>0</tilted></_>
    <_>
      <rects>
        <_>
          19 10 23 24 -1.</_>
        <_>
          19 22 23 12 2.</_></rects>
      <tilted>0</tilted></_>
    <_>
      <rects>
        <_>
          19 29 24 14 -1.</_>
        <_>
          19 36 24 7 2.</_></rects>
      <tilted>0</tilted></_>
    <_>
      <rects>
        <_>
          20 8 23 18 -1.</_>
        <_>
          20 14 23 6 3.</_></rects>
      <tilted>0</tilted></_>
    <_>
      <rects>
        <_>
          20 9 23 24 -1.</_>
        <_>
          20 21 23 12 2.</_></rects>
      <tilted>0</tilted></_>
    <_>
      <rects>
        <_>
          21 25 15 12 -1.</_>
        <_>
          21 31 15 6 2.</_></rects>
      <tilted>0</tilted></_>
    <_>
      <rects>
        <_>
          23 14 16 30 -1.</_>
        <_>
          23 29 16 15 2.</_></rects>
      <tilted>0</tilted></_>
    <_>
      <rects>
        <_>
          23 14 19 12 -1.</_>
        <_>
          23 20 19 6 2.</_></rects>
      <tilted>0</tilted></_>
    <_>
      <rects>
        <_>
          23 18 13 30 -1.</_>
        <_>
          23 28 13 10 3.</_></rects>
      <tilted>0</tilted></_>
    <_>
      <rects>
        <_>
          23 28 26 2 -1.</_>
        <_>
          23 28 13 1 2.</_>
        <_>
          36 29 13 1 2.</_></rects>
      <tilted>0</tilted></_>
    <_>
      <rects>
        <_>
          24 0 28 36 -1.</_>
        <_>
          24 0 14 18 2.</_>
        <_>
          38 18 14 18 2.</_></rects>
      <tilted>0</tilted></_>
    <_>
      <rects>
        <_>
          24 0 24 30 -1.</_>
        <_>
          24 10 24 10 3.</_></rects>
      <tilted>0</tilted></_>
    <_>
      <rects>
        <_>
          24 2 18 21 -1.</_>
        <_>
          24 9 18 7 3.</_></rects>
      <tilted>0</tilted></_>
    <_>
      <rects>
        <_>
          24 3 38 28 -1.</_>
        <_>
          24 3 19 14 2.</_>
        <_>
          43 17 19 14 2.</_></rects>
      <tilted>0</tilted></_>
    <_>
      <rects>
        <_>
          24 6 15 30 -1.</_>
        <_>
          24 21 15 15 2.</_></rects>
      <tilted>0</tilted></_>
    <_>
      <rects>
        <_>
          24 11 19 22 -1.</_>
        <_>
          24 22 19 11 2.</_></rects>
      <tilted>0</tilted></_>
    <_>
      <rects>
        <_>
          24 12 13 36 -1.</_>
        <_>
          24 30 13 18 2.</_></rects>
      <tilted>0</tilted></_>
    <_>
      <rects>
        <_>
          24 13 18 30 -1.</_>
        <_>
          24 28 18 15 2.</_></rects>
      <tilted>0</tilted></_>
    <_>
      <rects>
        <_>
          24 27 11 21 -1.</_>
        <_>
          24 34 11 7 3.</_></rects>
      <tilted>0</tilted></_>
    <_>
      <rects>
        <_>
          25 3 38 34 -1.</_>
        <_>
          25 3 19 17 2.</_>
        <_>
          44 20 19 17 2.</_></rects>
      <tilted>0</tilted></_>
    <_>
      <rects>
        <_>
          25 5 12 32 -1.</_>
        <_>
          25 21 12 16 2.</_></rects>
      <tilted>0</tilted></_>
    <_>
      <rects>
        <_>
          25 6 4 12 -1.</_>
        <_>
          25 10 4 4 3.</_></rects>
      <tilted>0</tilted></_>
    <_>
      <rects>
        <_>
          25 9 13 39 -1.</_>
        <_>
          25 22 13 13 3.</_></rects>
      <tilted>0</tilted></_>
    <_>
      <rects>
        <_>
          25 28 12 12 -1.</_>
        <_>
          25 34 12 6 2.</_></rects>
      <tilted>0</tilted></_>
    <_>
      <rects>
        <_>
          26 10 10 14 -1.</_>
        <_>
          26 17 10 7 2.</_></rects>
      <tilted>0</tilted></_>
    <_>
      <rects>
        <_>
          26 28 12 20 -1.</_>
        <_>
          26 38 12 10 2.</_></rects>
      <tilted>0</tilted></_>
    <_>
      <rects>
        <_>
          27 2 11 36 -1.</_>
        <_>
          27 20 11 18 2.</_></rects>
      <tilted>0</tilted></_>
    <_>
      <rects>
        <_>
          29 0 20 3 -1.</_>
        <_>
          39 0 10 3 2.</_></rects>
      <tilted>0</tilted></_>
    <_>
      <rects>
        <_>
          29 0 30 40 -1.</_>
        <_>
          29 0 15 20 2.</_>
        <_>
          44 20 15 20 2.</_></rects>
      <tilted>0</tilted></_>
    <_>
      <rects>
        <_>
          29 9 9 12 -1.</_>
        <_>
          29 13 9 4 3.</_></rects>
      <tilted>0</tilted></_>
    <_>
      <rects>
        <_>
          29 9 11 16 -1.</_>
        <_>
          29 17 11 8 2.</_></rects>
      <tilted>0</tilted></_>
    <_>
      <rects>
        <_>
          29 10 4 16 -1.</_>
        <_>
          29 18 4 8 2.</_></rects>
      <tilted>0</tilted></_>
    <_>
      <rects>
        <_>
          29 23 8 12 -1.</_>
        <_>
          29 27 8 4 3.</_></rects>
      <tilted>0</tilted></_>
    <_>
      <rects>
        <_>
          29 25 7 12 -1.</_>
        <_>
          29 29 7 4 3.</_></rects>
      <tilted>0</tilted></_>
    <_>
      <rects>
        <_>
          30 13 3 6 -1.</_>
        <_>
          30 16 3 3 2.</_></rects>
      <tilted>0</tilted></_>
    <_>
      <rects>
        <_>
          31 13 33 23 -1.</_>
        <_>
          42 13 11 23 3.</_></rects>
      <tilted>0</tilted></_>
    <_>
      <rects>
        <_>
          33 42 17 2 -1.</_>
        <_>
          33 43 17 1 2.</_></rects>
      <tilted>0</tilted></_>
    <_>
      <rects>
        <_>
          33 43 26 4 -1.</_>
        <_>
          33 43 13 2 2.</_>
        <_>
          46 45 13 2 2.</_></rects>
      <tilted>0</tilted></_>
    <_>
      <rects>
        <_>
          34 1 1 36 -1.</_>
        <_>
          34 19 1 18 2.</_></rects>
      <tilted>0</tilted></_>
    <_>
      <rects>
        <_>
          34 16 30 32 -1.</_>
        <_>
          44 16 10 32 3.</_></rects>
      <tilted>0</tilted></_>
    <_>
      <rects>
        <_>
          34 21 15 10 -1.</_>
        <_>
          39 21 5 10 3.</_></rects>
      <tilted>0</tilted></_>
    <_>
      <rects>
        <_>
          39 2 4 3 -1.</_>
        <_>
          41 2 2 3 2.</_></rects>
      <tilted>0</tilted></_>
    <_>
      <rects>
        <_>
          44 0 15 6 -1.</_>
        <_>
          44 3 15 3 2.</_></rects>
      <tilted>0</tilted></_>
    <_>
      <rects>
        <_>
          44 5 18 1 -1.</_>
        <_>
          53 5 9 1 2.</_></rects>
      <tilted>0</tilted></_>
    <_>
      <rects>
        <_>
          45 0 17 2 -1.</_>
        <_>
          45 1 17 1 2.</_></rects>
      <tilted>0</tilted></_>
    <_>
      <rects>
        <_>
          46 0 18 10 -1.</_>
        <_>
          46 5 18 5 2.</_></rects>
      <tilted>0</tilted></_>
    <_>
      <rects>
        <_>
          46 46 18 2 -1.</_>
        <_>
          46 47 18 1 2.</_></rects>
      <tilted>0</tilted></_>
    <_>
      <rects>
        <_>
          47 3 10 5 -1.</_>
        <_>
          52 3 5 5 2.</_></rects>
      <tilted>0</tilted></_>
    <_>
      <rects>
        <_>
          48 0 10 24 -1.</_>
        <_>
          48 12 10 12 2.</_></rects>
      <tilted>0</tilted></_>
    <_>
      <rects>
        <_>
          48 3 16 17 -1.</_>
        <_>
          56 3 8 17 2.</_></rects>
      <tilted>0</tilted></_>
    <_>
      <rects>
        <_>
          51 0 12 1 -1.</_>
        <_>
          57 0 6 1 2.</_></rects>
      <tilted>0</tilted></_>
    <_>
      <rects>
        <_>
          51 1 12 4 -1.</_>
        <_>
          51 1 6 2 2.</_>
        <_>
          57 3 6 2 2.</_></rects>
      <tilted>0</tilted></_>
    <_>
      <rects>
        <_>
          51 4 4 6 -1.</_>
        <_>
          53 4 2 6 2.</_></rects>
      <tilted>0</tilted></_>
    <_>
      <rects>
        <_>
          52 1 12 1 -1.</_>
        <_>
          58 1 6 1 2.</_></rects>
      <tilted>0</tilted></_>
    <_>
      <rects>
        <_>
          52 42 2 6 -1.</_>
        <_>
          52 45 2 3 2.</_></rects>
      <tilted>0</tilted></_>
    <_>
      <rects>
        <_>
          55 2 6 1 -1.</_>
        <_>
          58 2 3 1 2.</_></rects>
      <tilted>0</tilted></_>
    <_>
      <rects>
        <_>
          55 19 8 24 -1.</_>
        <_>
          55 31 8 12 2.</_></rects>
      <tilted>0</tilted></_>
    <_>
      <rects>
        <_>
          56 0 8 1 -1.</_>
        <_>
          60 0 4 1 2.</_></rects>
      <tilted>0</tilted></_>
    <_>
      <rects>
        <_>
          56 0 7 18 -1.</_>
        <_>
          56 9 7 9 2.</_></rects>
      <tilted>0</tilted></_>
    <_>
      <rects>
        <_>
          56 43 8 3 -1.</_>
        <_>
          60 43 4 3 2.</_></rects>
      <tilted>0</tilted></_>
    <_>
      <rects>
        <_>
          57 0 5 6 -1.</_>
        <_>
          57 3 5 3 2.</_></rects>
      <tilted>0</tilted></_>
    <_>
      <rects>
        <_>
          57 3 7 8 -1.</_>
        <_>
          57 7 7 4 2.</_></rects>
      <tilted>0</tilted></_>
    <_>
      <rects>
        <_>
          57 9 7 39 -1.</_>
        <_>
          57 22 7 13 3.</_></rects>
      <tilted>0</tilted></_>
    <_>
      <rects>
        <_>
          57 30 6 4 -1.</_>
        <_>
          57 32 6 2 2.</_></rects>
      <tilted>0</tilted></_>
    <_>
      <rects>
        <_>
          57 36 6 12 -1.</_>
        <_>
          57 42 6 6 2.</_></rects>
      <tilted>0</tilted></_>
    <_>
      <rects>
        <_>
          58 0 6 10 -1.</_>
        <_>
          61 0 3 10 2.</_></rects>
      <tilted>0</tilted></_>
    <_>
      <rects>
        <_>
          58 18 6 29 -1.</_>
        <_>
          61 18 3 29 2.</_></rects>
      <tilted>0</tilted></_>
    <_>
      <rects>
        <_>
          58 34 4 8 -1.</_>
        <_>
          58 38 4 4 2.</_></rects>
      <tilted>0</tilted></_>
    <_>
      <rects>
        <_>
          58 42 5 6 -1.</_>
        <_>
          58 45 5 3 2.</_></rects>
      <tilted>0</tilted></_>
    <_>
      <rects>
        <_>
          58 43 6 5 -1.</_>
        <_>
          61 43 3 5 2.</_></rects>
      <tilted>0</tilted></_>
    <_>
      <rects>
        <_>
          59 0 4 6 -1.</_>
        <_>
          61 0 2 6 2.</_></rects>
      <tilted>0</tilted></_>
    <_>
      <rects>
        <_>
          59 2 4 8 -1.</_>
        <_>
          59 6 4 4 2.</_></rects>
      <tilted>0</tilted></_>
    <_>
      <rects>
        <_>
          59 12 4 20 -1.</_>
        <_>
          59 22 4 10 2.</_></rects>
      <tilted>0</tilted></_>
    <_>
      <rects>
        <_>
          59 22 2 18 -1.</_>
        <_>
          59 31 2 9 2.</_></rects>
      <tilted>0</tilted></_>
    <_>
      <rects>
        <_>
          59 33 1 15 -1.</_>
        <_>
          59 38 1 5 3.</_></rects>
      <tilted>0</tilted></_>
    <_>
      <rects>
        <_>
          59 34 2 11 -1.</_>
        <_>
          60 34 1 11 2.</_></rects>
      <tilted>0</tilted></_>
    <_>
      <rects>
        <_>
          60 0 4 15 -1.</_>
        <_>
          62 0 2 15 2.</_></rects>
      <tilted>0</tilted></_>
    <_>
      <rects>
        <_>
          60 0 4 4 -1.</_>
        <_>
          60 2 4 2 2.</_></rects>
      <tilted>0</tilted></_>
    <_>
      <rects>
        <_>
          60 31 4 17 -1.</_>
        <_>
          62 31 2 17 2.</_></rects>
      <tilted>0</tilted></_>
    <_>
      <rects>
        <_>
          61 0 2 3 -1.</_>
        <_>
          62 0 1 3 2.</_></rects>
      <tilted>0</tilted></_>
    <_>
      <rects>
        <_>
          61 19 1 24 -1.</_>
        <_>
          61 27 1 8 3.</_></rects>
      <tilted>0</tilted></_>
    <_>
      <rects>
        <_>
          61 21 1 27 -1.</_>
        <_>
          61 30 1 9 3.</_></rects>
      <tilted>0</tilted></_>
    <_>
      <rects>
        <_>
          61 31 1 6 -1.</_>
        <_>
          61 34 1 3 2.</_></rects>
      <tilted>0</tilted></_>
    <_>
      <rects>
        <_>
          61 38 2 10 -1.</_>
        <_>
          62 38 1 10 2.</_></rects>
      <tilted>0</tilted></_>
    <_>
      <rects>
        <_>
          61 42 2 6 -1.</_>
        <_>
          61 45 2 3 2.</_></rects>
      <tilted>0</tilted></_>
    <_>
      <rects>
        <_>
          61 44 3 4 -1.</_>
        <_>
          61 46 3 2 2.</_></rects>
      <tilted>0</tilted></_>
    <_>
      <rects>
        <_>
          62 0 2 9 -1.</_>
        <_>
          63 0 1 9 2.</_></rects>
      <tilted>0</tilted></_>
    <_>
      <rects>
        <_>
          62 3 2 45 -1.</_>
        <_>
          62 18 2 15 3.</_></rects>
      <tilted>0</tilted></_>
    <_>
      <rects>
        <_>
          62 4 2 10 -1.</_>
        <_>
          62 9 2 5 2.</_></rects>
      <tilted>0</tilted></_>
    <_>
      <rects>
        <_>
          62 22 1 12 -1.</_>
        <_>
          62 28 1 6 2.</_></rects>
      <tilted>0</tilted></_>
    <_>
      <rects>
        <_>
          62 31 2 6 -1.</_>
        <_>
          63 31 1 6 2.</_></rects>
      <tilted>0</tilted></_>
    <_>
      <rects>
        <_>
          62 36 1 10 -1.</_>
        <_>
          62 41 1 5 2.</_></rects>
      <tilted>0</tilted></_>
    <_>
      <rects>
        <_>
          62 39 2 9 -1.</_>
        <_>
          63 39 1 9 2.</_></rects>
      <tilted>0</tilted></_>
    <_>
      <rects>
        <_>
          62 44 2 4 -1.</_>
        <_>
          63 44 1 4 2.</_></rects>
      <tilted>0</tilted></_>
    <_>
      <rects>
        <_>
          63 0 1 4 -1.</_>
        <_>
          63 2 1 2 2.</_></rects>
      <tilted>0</tilted></_>
    <_>
      <rects>
        <_>
          63 0 1 6 -1.</_>
        <_>
          63 3 1 3 2.</_></rects>
      <tilted>0</tilted></_>
    <_>
      <rects>
        <_>
          63 0 1 10 -1.</_>
        <_>
          63 5 1 5 2.</_></rects>
      <tilted>0</tilted></_>
    <_>
      <rects>
        <_>
          63 30 1 4 -1.</_>
        <_>
          63 32 1 2 2.</_></rects>
      <tilted>0</tilted></_>
    <_>
      <rects>
        <_>
          63 30 1 18 -1.</_>
        <_>
          63 39 1 9 2.</_></rects>
      <tilted>0</tilted></_></features></cascade>
</opencv_storage>
