<?xml version="1.0"?>
<opencv_storage>
<cascade>
  <stageType>BOOST</stageType>
  <featureType>HAAR</featureType>
  <height>24</height>
  <width>32</width>
  <stageParams>
    <boostType>GAB</boostType>
    <minHitRate>9.9500000476837158e-01</minHitRate>
    <maxFalseAlarm>5.0000000000000000e-01</maxFalseAlarm>
    <weightTrimRate>9.4999998807907104e-01</weightTrimRate>
    <maxDepth>1</maxDepth>
    <maxWeakCount>100</maxWeakCount></stageParams>
  <featureParams>
    <maxCatCount>0</maxCatCount>
    <featSize>1</featSize>
    <mode>BASIC</mode></featureParams>
  <stageNum>15</stageNum>
  <stages>
    <!-- stage 0 -->
    <_>
      <maxWeakCount>11</maxWeakCount>
      <stageThreshold>-1.0537891387939453e+00</stageThreshold>
      <weakClassifiers>
        <_>
          <internalNodes>
            0 -1 35 9.9077937193214893e-04</internalNodes>
          <leafValues>
            -1.1889035999774933e-01 -8.2816231250762939e-01</leafValues></_>
        <_>
          <internalNodes>
            0 -1 453 -1.3790868688374758e-03</internalNodes>
          <leafValues>
            -8.3052563667297363e-01 8.2889467477798462e-02</leafValues></_>
        <_>
          <internalNodes>
            0 -1 12 1.4025338459759951e-03</internalNodes>
          <leafValues>
            1.2698207795619965e-01 -7.0504456758499146e-01</leafValues></_>
        <_>
          <internalNodes>
            0 -1 14 -1.5405071899294853e-03</internalNodes>
          <leafValues>
            -6.1582553386688232e-01 1.8546243011951447e-01</leafValues></_>
        <_>
          <internalNodes>
            0 -1 35 -6.9606408942490816e-04</internalNodes>
          <leafValues>
            -5.4651504755020142e-01 1.6267625987529755e-01</leafValues></_>
        <_>
          <internalNodes>
            0 -1 20 -1.1635762639343739e-03</internalNodes>
          <leafValues>
            -6.8251359462738037e-01 1.2156596034765244e-01</leafValues></_>
        <_>
          <internalNodes>
            0 -1 95 -1.0477554751560092e-03</internalNodes>
          <leafValues>
            -5.9619516134262085e-01 1.1767502129077911e-01</leafValues></_>
        <_>
          <internalNodes>
            0 -1 218 -3.1370420008897781e-02</internalNodes>
          <leafValues>
            4.0428283810615540e-01 -1.8069541454315186e-01</leafValues></_>
        <_>
          <internalNodes>
            0 -1 107 -1.0563619434833527e-03</internalNodes>
          <leafValues>
            -6.0040289163589478e-01 1.2565329670906067e-01</leafValues></_>
        <_>
          <internalNodes>
            0 -1 107 1.6293120570480824e-03</internalNodes>
          <leafValues>
            8.4677398204803467e-02 -8.5988968610763550e-01</leafValues></_>
        <_>
          <internalNodes>
            0 -1 300 -1.3842659071087837e-02</internalNodes>
          <leafValues>
            5.7838422060012817e-01 -1.3450002670288086e-01</leafValues></_></weakClassifiers></_>
    <!-- stage 1 -->
    <_>
      <maxWeakCount>24</maxWeakCount>
      <stageThreshold>-1.2282871007919312e+00</stageThreshold>
      <weakClassifiers>
        <_>
          <internalNodes>
            0 -1 182 -9.1483436524868011e-02</internalNodes>
          <leafValues>
            2.8749999403953552e-01 -3.8375696539878845e-01</leafValues></_>
        <_>
          <internalNodes>
            0 -1 108 1.1696732835844159e-03</internalNodes>
          <leafValues>
            1.1861211061477661e-01 -5.7026004791259766e-01</leafValues></_>
        <_>
          <internalNodes>
            0 -1 18 4.9222931265830994e-03</internalNodes>
          <leafValues>
            1.0863555967807770e-01 -6.0628563165664673e-01</leafValues></_>
        <_>
          <internalNodes>
            0 -1 36 -6.2080128118395805e-03</internalNodes>
          <leafValues>
            -6.3624554872512817e-01 8.7427727878093719e-02</leafValues></_>
        <_>
          <internalNodes>
            0 -1 32 -6.9145148154348135e-04</internalNodes>
          <leafValues>
            -2.9718875885009766e-01 1.9965389370918274e-01</leafValues></_>
        <_>
          <internalNodes>
            0 -1 65 1.3886220986023545e-03</internalNodes>
          <leafValues>
            1.4519232511520386e-01 -4.0674734115600586e-01</leafValues></_>
        <_>
          <internalNodes>
            0 -1 161 4.2564660310745239e-02</internalNodes>
          <leafValues>
            -9.4950117170810699e-02 5.8135092258453369e-01</leafValues></_>
        <_>
          <internalNodes>
            0 -1 257 3.9776381105184555e-02</internalNodes>
          <leafValues>
            -1.0235435515642166e-01 6.5294271707534790e-01</leafValues></_>
        <_>
          <internalNodes>
            0 -1 150 -1.3730938080698252e-03</internalNodes>
          <leafValues>
            -3.8791078329086304e-01 1.4866971969604492e-01</leafValues></_>
        <_>
          <internalNodes>
            0 -1 202 -3.0837109312415123e-02</internalNodes>
          <leafValues>
            4.3512305617332458e-01 -1.1399815976619720e-01</leafValues></_>
        <_>
          <internalNodes>
            0 -1 236 1.1499608308076859e-01</internalNodes>
          <leafValues>
            -1.1380621045827866e-01 4.6867936849594116e-01</leafValues></_>
        <_>
          <internalNodes>
            0 -1 206 -9.5782149583101273e-03</internalNodes>
          <leafValues>
            6.0970842838287354e-01 -7.1073360741138458e-02</leafValues></_>
        <_>
          <internalNodes>
            0 -1 429 1.4506827574223280e-03</internalNodes>
          <leafValues>
            1.4441394805908203e-01 -3.5147923231124878e-01</leafValues></_>
        <_>
          <internalNodes>
            0 -1 64 3.2795851584523916e-03</internalNodes>
          <leafValues>
            1.1883660405874252e-01 -4.0068224072456360e-01</leafValues></_>
        <_>
          <internalNodes>
            0 -1 54 -2.3864694230724126e-04</internalNodes>
          <leafValues>
            -2.6004147529602051e-01 1.7925828695297241e-01</leafValues></_>
        <_>
          <internalNodes>
            0 -1 86 1.2510402593761683e-03</internalNodes>
          <leafValues>
            9.2563703656196594e-02 -4.8682424426078796e-01</leafValues></_>
        <_>
          <internalNodes>
            0 -1 14 -1.3044746592640877e-03</internalNodes>
          <leafValues>
            -4.3136402964591980e-01 1.0280224680900574e-01</leafValues></_>
        <_>
          <internalNodes>
            0 -1 179 -1.5062195248901844e-02</internalNodes>
          <leafValues>
            3.3897161483764648e-01 -1.3980796933174133e-01</leafValues></_>
        <_>
          <internalNodes>
            0 -1 158 3.5469710826873779e-02</internalNodes>
          <leafValues>
            -1.3304039835929871e-01 3.7334963679313660e-01</leafValues></_>
        <_>
          <internalNodes>
            0 -1 44 2.7439901605248451e-03</internalNodes>
          <leafValues>
            1.5941983461380005e-01 -3.0192366242408752e-01</leafValues></_>
        <_>
          <internalNodes>
            0 -1 330 1.7997110262513161e-02</internalNodes>
          <leafValues>
            -9.6340149641036987e-02 4.8564684391021729e-01</leafValues></_>
        <_>
          <internalNodes>
            0 -1 29 7.7786127803847194e-04</internalNodes>
          <leafValues>
            9.6206918358802795e-02 -5.0621110200881958e-01</leafValues></_>
        <_>
          <internalNodes>
            0 -1 279 2.5211058557033539e-02</internalNodes>
          <leafValues>
            -7.2790108621120453e-02 7.2729611396789551e-01</leafValues></_>
        <_>
          <internalNodes>
            0 -1 413 3.6190461833029985e-04</internalNodes>
          <leafValues>
            1.6929621994495392e-01 -2.6278299093246460e-01</leafValues></_></weakClassifiers></_>
    <!-- stage 2 -->
    <_>
      <maxWeakCount>22</maxWeakCount>
      <stageThreshold>-1.1064902544021606e+00</stageThreshold>
      <weakClassifiers>
        <_>
          <internalNodes>
            0 -1 70 -1.6647438751533628e-03</internalNodes>
          <leafValues>
            -6.5949118137359619e-01 -1.3361462950706482e-01</leafValues></_>
        <_>
          <internalNodes>
            0 -1 5 3.9686886593699455e-03</internalNodes>
          <leafValues>
            5.0181698054075241e-02 -6.9321459531784058e-01</leafValues></_>
        <_>
          <internalNodes>
            0 -1 10 -4.5056878589093685e-03</internalNodes>
          <leafValues>
            -3.3413571119308472e-01 1.7586405575275421e-01</leafValues></_>
        <_>
          <internalNodes>
            0 -1 339 -2.0315856672823429e-03</internalNodes>
          <leafValues>
            6.9242602586746216e-01 -7.9308874905109406e-02</leafValues></_>
        <_>
          <internalNodes>
            0 -1 21 -8.2802883116528392e-04</internalNodes>
          <leafValues>
            -3.0878859758377075e-01 1.6144578158855438e-01</leafValues></_>
        <_>
          <internalNodes>
            0 -1 473 2.4408181197941303e-03</internalNodes>
          <leafValues>
            1.1958992481231689e-01 -3.6895498633384705e-01</leafValues></_>
        <_>
          <internalNodes>
            0 -1 400 3.5348250530660152e-03</internalNodes>
          <leafValues>
            9.5795154571533203e-02 -5.5055296421051025e-01</leafValues></_>
        <_>
          <internalNodes>
            0 -1 437 5.5385672021657228e-04</internalNodes>
          <leafValues>
            1.4546664059162140e-01 -3.0937445163726807e-01</leafValues></_>
        <_>
          <internalNodes>
            0 -1 301 5.5178278125822544e-03</internalNodes>
          <leafValues>
            -1.0339420288801193e-01 4.5372954010963440e-01</leafValues></_>
        <_>
          <internalNodes>
            0 -1 289 -4.4035180471837521e-03</internalNodes>
          <leafValues>
            4.5231252908706665e-01 -1.2167932838201523e-01</leafValues></_>
        <_>
          <internalNodes>
            0 -1 462 3.2540219835937023e-03</internalNodes>
          <leafValues>
            7.7855780720710754e-02 -6.3497704267501831e-01</leafValues></_>
        <_>
          <internalNodes>
            0 -1 510 2.0586554892361164e-03</internalNodes>
          <leafValues>
            1.0281156003475189e-01 -4.5746979117393494e-01</leafValues></_>
        <_>
          <internalNodes>
            0 -1 59 -1.3193091750144958e-01</internalNodes>
          <leafValues>
            4.7626131772994995e-01 -1.0342961549758911e-01</leafValues></_>
        <_>
          <internalNodes>
            0 -1 94 5.7926764711737633e-03</internalNodes>
          <leafValues>
            1.2630218267440796e-01 -3.7504824995994568e-01</leafValues></_>
        <_>
          <internalNodes>
            0 -1 210 -4.5765722170472145e-03</internalNodes>
          <leafValues>
            -6.1947804689407349e-01 5.9628669172525406e-02</leafValues></_>
        <_>
          <internalNodes>
            0 -1 390 -6.6767064854502678e-03</internalNodes>
          <leafValues>
            4.9567556381225586e-01 -9.1365329921245575e-02</leafValues></_>
        <_>
          <internalNodes>
            0 -1 252 1.2693911790847778e-01</internalNodes>
          <leafValues>
            -6.9994844496250153e-02 5.8729112148284912e-01</leafValues></_>
        <_>
          <internalNodes>
            0 -1 52 -1.5789911150932312e-01</internalNodes>
          <leafValues>
            5.1518648862838745e-01 -7.7622517943382263e-02</leafValues></_>
        <_>
          <internalNodes>
            0 -1 380 -4.4036172330379486e-03</internalNodes>
          <leafValues>
            4.1478845477104187e-01 -9.7838446497917175e-02</leafValues></_>
        <_>
          <internalNodes>
            0 -1 56 -2.4651999119669199e-03</internalNodes>
          <leafValues>
            -3.4470817446708679e-01 1.3520190119743347e-01</leafValues></_>
        <_>
          <internalNodes>
            0 -1 247 2.2605129051953554e-03</internalNodes>
          <leafValues>
            -1.1352520436048508e-01 3.7255093455314636e-01</leafValues></_>
        <_>
          <internalNodes>
            0 -1 498 3.1497702002525330e-03</internalNodes>
          <leafValues>
            8.8772661983966827e-02 -4.8263892531394958e-01</leafValues></_></weakClassifiers></_>
    <!-- stage 3 -->
    <_>
      <maxWeakCount>29</maxWeakCount>
      <stageThreshold>-1.1932561397552490e+00</stageThreshold>
      <weakClassifiers>
        <_>
          <internalNodes>
            0 -1 142 1.2779675889760256e-03</internalNodes>
          <leafValues>
            -1.4775159955024719e-01 -6.0150372982025146e-01</leafValues></_>
        <_>
          <internalNodes>
            0 -1 482 -3.4706655424088240e-04</internalNodes>
          <leafValues>
            -3.6839303374290466e-01 1.1447592079639435e-01</leafValues></_>
        <_>
          <internalNodes>
            0 -1 481 -2.0721046894323081e-04</internalNodes>
          <leafValues>
            -2.6760476827621460e-01 2.1440875530242920e-01</leafValues></_>
        <_>
          <internalNodes>
            0 -1 481 2.5304534938186407e-04</internalNodes>
          <leafValues>
            1.5868200361728668e-01 -2.8516110777854919e-01</leafValues></_>
        <_>
          <internalNodes>
            0 -1 207 -1.8710440024733543e-02</internalNodes>
          <leafValues>
            5.2125906944274902e-01 -1.0005249083042145e-01</leafValues></_>
        <_>
          <internalNodes>
            0 -1 172 4.1311196982860565e-02</internalNodes>
          <leafValues>
            -1.2025146931409836e-01 4.6998599171638489e-01</leafValues></_>
        <_>
          <internalNodes>
            0 -1 22 5.4327398538589478e-04</internalNodes>
          <leafValues>
            1.5665952861309052e-01 -4.1342747211456299e-01</leafValues></_>
        <_>
          <internalNodes>
            0 -1 6 -5.9786613564938307e-04</internalNodes>
          <leafValues>
            -2.7973538637161255e-01 1.6233694553375244e-01</leafValues></_>
        <_>
          <internalNodes>
            0 -1 486 4.4352078111842275e-04</internalNodes>
          <leafValues>
            1.0121253877878189e-01 -3.8841083645820618e-01</leafValues></_>
        <_>
          <internalNodes>
            0 -1 391 2.4466650560498238e-02</internalNodes>
          <leafValues>
            -1.1040659248828888e-01 4.2094680666923523e-01</leafValues></_>
        <_>
          <internalNodes>
            0 -1 471 -1.5279034851118922e-03</internalNodes>
          <leafValues>
            -3.6718702316284180e-01 1.2917168438434601e-01</leafValues></_>
        <_>
          <internalNodes>
            0 -1 246 2.8913877904415131e-02</internalNodes>
          <leafValues>
            -8.9998744428157806e-02 4.8482829332351685e-01</leafValues></_>
        <_>
          <internalNodes>
            0 -1 315 3.8015060126781464e-02</internalNodes>
          <leafValues>
            -1.2376759946346283e-01 3.5628500580787659e-01</leafValues></_>
        <_>
          <internalNodes>
            0 -1 147 1.4111686032265425e-03</internalNodes>
          <leafValues>
            8.8589869439601898e-02 -4.8485666513442993e-01</leafValues></_>
        <_>
          <internalNodes>
            0 -1 286 5.2562870085239410e-02</internalNodes>
          <leafValues>
            -9.1283254325389862e-02 5.5638319253921509e-01</leafValues></_>
        <_>
          <internalNodes>
            0 -1 312 -4.0274586528539658e-02</internalNodes>
          <leafValues>
            6.0580658912658691e-01 -6.3370302319526672e-02</leafValues></_>
        <_>
          <internalNodes>
            0 -1 13 6.9546257145702839e-04</internalNodes>
          <leafValues>
            1.1618832498788834e-01 -3.3469942212104797e-01</leafValues></_>
        <_>
          <internalNodes>
            0 -1 48 -1.3494219456333667e-04</internalNodes>
          <leafValues>
            -2.7927049994468689e-01 1.4815871417522430e-01</leafValues></_>
        <_>
          <internalNodes>
            0 -1 494 3.9472919888794422e-04</internalNodes>
          <leafValues>
            1.3463167846202850e-01 -2.7565541863441467e-01</leafValues></_>
        <_>
          <internalNodes>
            0 -1 385 6.5046679228544235e-03</internalNodes>
          <leafValues>
            -1.8247908353805542e-01 2.1763044595718384e-01</leafValues></_>
        <_>
          <internalNodes>
            0 -1 254 -1.9013371318578720e-02</internalNodes>
          <leafValues>
            5.6772935390472412e-01 -8.2182168960571289e-02</leafValues></_>
        <_>
          <internalNodes>
            0 -1 101 8.1619934644550085e-04</internalNodes>
          <leafValues>
            1.3511899113655090e-01 -3.1809902191162109e-01</leafValues></_>
        <_>
          <internalNodes>
            0 -1 501 -9.1332365991547704e-04</internalNodes>
          <leafValues>
            -5.5713611841201782e-01 6.6749289631843567e-02</leafValues></_>
        <_>
          <internalNodes>
            0 -1 298 3.0204267241060734e-03</internalNodes>
          <leafValues>
            -1.2280613183975220e-01 3.2396900653839111e-01</leafValues></_>
        <_>
          <internalNodes>
            0 -1 465 4.1412317659705877e-04</internalNodes>
          <leafValues>
            1.0780246555805206e-01 -3.6775517463684082e-01</leafValues></_>
        <_>
          <internalNodes>
            0 -1 75 -2.5279662804678082e-04</internalNodes>
          <leafValues>
            -2.3536632955074310e-01 1.6073045134544373e-01</leafValues></_>
        <_>
          <internalNodes>
            0 -1 511 4.1224644519388676e-04</internalNodes>
          <leafValues>
            1.1320828646421432e-01 -3.2496821880340576e-01</leafValues></_>
        <_>
          <internalNodes>
            0 -1 341 -3.9625834673643112e-02</internalNodes>
          <leafValues>
            4.3631598353385925e-01 -9.9591441452503204e-02</leafValues></_>
        <_>
          <internalNodes>
            0 -1 239 5.0438854843378067e-02</internalNodes>
          <leafValues>
            -7.6151825487613678e-02 4.8350617289543152e-01</leafValues></_></weakClassifiers></_>
    <!-- stage 4 -->
    <_>
      <maxWeakCount>31</maxWeakCount>
      <stageThreshold>-1.1583718061447144e+00</stageThreshold>
      <weakClassifiers>
        <_>
          <internalNodes>
            0 -1 460 1.4588544145226479e-03</internalNodes>
          <leafValues>
            -1.7993730306625366e-01 -7.1005916595458984e-01</leafValues></_>
        <_>
          <internalNodes>
            0 -1 436 -1.9991672597825527e-03</internalNodes>
          <leafValues>
            -4.3086677789688110e-01 1.0250144451856613e-01</leafValues></_>
        <_>
          <internalNodes>
            0 -1 454 2.0300948526710272e-03</internalNodes>
          <leafValues>
            7.1872450411319733e-02 -6.0269534587860107e-01</leafValues></_>
        <_>
          <internalNodes>
            0 -1 492 1.3561511877924204e-04</internalNodes>
          <leafValues>
            2.0453663170337677e-01 -2.4504721164703369e-01</leafValues></_>
        <_>
          <internalNodes>
            0 -1 33 1.2665554881095886e-02</internalNodes>
          <leafValues>
            -1.2889008224010468e-01 3.0850666761398315e-01</leafValues></_>
        <_>
          <internalNodes>
            0 -1 491 1.1465254938229918e-03</internalNodes>
          <leafValues>
            1.0031461715698242e-01 -3.8162320852279663e-01</leafValues></_>
        <_>
          <internalNodes>
            0 -1 262 -4.9952961504459381e-02</internalNodes>
          <leafValues>
            6.3121461868286133e-01 -5.0117377191781998e-02</leafValues></_>
        <_>
          <internalNodes>
            0 -1 125 -3.9358501089736819e-04</internalNodes>
          <leafValues>
            -3.0230477452278137e-01 1.3459524512290955e-01</leafValues></_>
        <_>
          <internalNodes>
            0 -1 484 1.0625820141285658e-03</internalNodes>
          <leafValues>
            7.3856495320796967e-02 -5.7274717092514038e-01</leafValues></_>
        <_>
          <internalNodes>
            0 -1 137 -5.7003512978553772e-02</internalNodes>
          <leafValues>
            4.6289005875587463e-01 -8.8742256164550781e-02</leafValues></_>
        <_>
          <internalNodes>
            0 -1 133 2.6469178497791290e-02</internalNodes>
          <leafValues>
            -1.0441557317972183e-01 3.8244369626045227e-01</leafValues></_>
        <_>
          <internalNodes>
            0 -1 426 -3.0251286923885345e-02</internalNodes>
          <leafValues>
            2.5555220246315002e-01 -1.5812528133392334e-01</leafValues></_>
        <_>
          <internalNodes>
            0 -1 171 8.6047336459159851e-02</internalNodes>
          <leafValues>
            -7.1717567741870880e-02 5.8507007360458374e-01</leafValues></_>
        <_>
          <internalNodes>
            0 -1 448 -9.2669657897204161e-04</internalNodes>
          <leafValues>
            2.1157699823379517e-01 -2.0932085812091827e-01</leafValues></_>
        <_>
          <internalNodes>
            0 -1 145 -5.6889350526034832e-04</internalNodes>
          <leafValues>
            -3.9179259538650513e-01 1.0076094418764114e-01</leafValues></_>
        <_>
          <internalNodes>
            0 -1 105 3.8727976381778717e-02</internalNodes>
          <leafValues>
            -9.6666559576988220e-02 4.1632190346717834e-01</leafValues></_>
        <_>
          <internalNodes>
            0 -1 38 5.2834791131317616e-04</internalNodes>
          <leafValues>
            1.1970590800046921e-01 -2.8897893428802490e-01</leafValues></_>
        <_>
          <internalNodes>
            0 -1 357 -5.3986324928700924e-03</internalNodes>
          <leafValues>
            4.9154189229011536e-01 -7.8835338354110718e-02</leafValues></_>
        <_>
          <internalNodes>
            0 -1 485 2.0989826880395412e-03</internalNodes>
          <leafValues>
            7.2693921625614166e-02 -5.3937333822250366e-01</leafValues></_>
        <_>
          <internalNodes>
            0 -1 124 -1.5006784815341234e-03</internalNodes>
          <leafValues>
            -2.9145517945289612e-01 1.2024471163749695e-01</leafValues></_>
        <_>
          <internalNodes>
            0 -1 366 -3.9752393960952759e-02</internalNodes>
          <leafValues>
            4.5340931415557861e-01 -8.6777471005916595e-02</leafValues></_>
        <_>
          <internalNodes>
            0 -1 338 2.7029979974031448e-02</internalNodes>
          <leafValues>
            -1.2983153760433197e-01 3.4685298800468445e-01</leafValues></_>
        <_>
          <internalNodes>
            0 -1 69 -3.5842496436089277e-04</internalNodes>
          <leafValues>
            -2.8843423724174500e-01 1.2395694106817245e-01</leafValues></_>
        <_>
          <internalNodes>
            0 -1 387 1.8820773810148239e-02</internalNodes>
          <leafValues>
            -1.3169434666633606e-01 2.7775263786315918e-01</leafValues></_>
        <_>
          <internalNodes>
            0 -1 321 6.4474833197891712e-03</internalNodes>
          <leafValues>
            -8.4265090525150299e-02 4.3547284603118896e-01</leafValues></_>
        <_>
          <internalNodes>
            0 -1 248 2.5831770617514849e-03</internalNodes>
          <leafValues>
            6.6082052886486053e-02 -6.0066086053848267e-01</leafValues></_>
        <_>
          <internalNodes>
            0 -1 340 -3.8688520435243845e-03</internalNodes>
          <leafValues>
            4.1212901473045349e-01 -9.1729573905467987e-02</leafValues></_>
        <_>
          <internalNodes>
            0 -1 129 -5.4104242008179426e-04</internalNodes>
          <leafValues>
            -3.4911647439002991e-01 1.0132260620594025e-01</leafValues></_>
        <_>
          <internalNodes>
            0 -1 92 -3.4229755401611328e-02</internalNodes>
          <leafValues>
            4.5268979668617249e-01 -7.6405145227909088e-02</leafValues></_>
        <_>
          <internalNodes>
            0 -1 41 -1.7242431640625000e-03</internalNodes>
          <leafValues>
            -4.0868017077445984e-01 8.5735939443111420e-02</leafValues></_>
        <_>
          <internalNodes>
            0 -1 299 -1.6565332189202309e-02</internalNodes>
          <leafValues>
            4.7647735476493835e-01 -8.2222990691661835e-02</leafValues></_></weakClassifiers></_>
    <!-- stage 5 -->
    <_>
      <maxWeakCount>28</maxWeakCount>
      <stageThreshold>-1.2019076347351074e+00</stageThreshold>
      <weakClassifiers>
        <_>
          <internalNodes>
            0 -1 62 9.0550277382135391e-03</internalNodes>
          <leafValues>
            -1.6511318087577820e-01 -6.4733177423477173e-01</leafValues></_>
        <_>
          <internalNodes>
            0 -1 445 -1.2574180960655212e-02</internalNodes>
          <leafValues>
            -6.9642841815948486e-01 4.3741729110479355e-02</leafValues></_>
        <_>
          <internalNodes>
            0 -1 458 1.3215645449236035e-03</internalNodes>
          <leafValues>
            1.7005600035190582e-01 -2.8660675883293152e-01</leafValues></_>
        <_>
          <internalNodes>
            0 -1 26 5.4396293126046658e-03</internalNodes>
          <leafValues>
            9.5505759119987488e-02 -4.7509241104125977e-01</leafValues></_>
        <_>
          <internalNodes>
            0 -1 287 6.5550804138183594e-03</internalNodes>
          <leafValues>
            -1.1664841324090958e-01 4.1936022043228149e-01</leafValues></_>
        <_>
          <internalNodes>
            0 -1 295 -2.4409720208495855e-03</internalNodes>
          <leafValues>
            3.8742381334304810e-01 -1.1769564449787140e-01</leafValues></_>
        <_>
          <internalNodes>
            0 -1 30 -6.7263667006045580e-04</internalNodes>
          <leafValues>
            -3.5659644007682800e-01 1.3428348302841187e-01</leafValues></_>
        <_>
          <internalNodes>
            0 -1 407 1.0071266442537308e-02</internalNodes>
          <leafValues>
            5.5141083896160126e-02 -6.8257534503936768e-01</leafValues></_>
        <_>
          <internalNodes>
            0 -1 406 -1.0000027716159821e-02</internalNodes>
          <leafValues>
            -5.1998102664947510e-01 7.1346022188663483e-02</leafValues></_>
        <_>
          <internalNodes>
            0 -1 235 4.2907143943011761e-03</internalNodes>
          <leafValues>
            -7.9564407467842102e-02 5.4723191261291504e-01</leafValues></_>
        <_>
          <internalNodes>
            0 -1 237 -1.0017519816756248e-02</internalNodes>
          <leafValues>
            5.9284996986389160e-01 -7.4904501438140869e-02</leafValues></_>
        <_>
          <internalNodes>
            0 -1 439 1.5726536512374878e-02</internalNodes>
          <leafValues>
            8.4521383047103882e-02 -5.5036854743957520e-01</leafValues></_>
        <_>
          <internalNodes>
            0 -1 149 -1.6629378497600555e-01</internalNodes>
          <leafValues>
            2.7760514616966248e-01 -1.6250129044055939e-01</leafValues></_>
        <_>
          <internalNodes>
            0 -1 450 1.3518095016479492e-02</internalNodes>
          <leafValues>
            8.8781490921974182e-02 -5.2206403017044067e-01</leafValues></_>
        <_>
          <internalNodes>
            0 -1 274 -5.7832058519124985e-03</internalNodes>
          <leafValues>
            5.0176864862442017e-01 -9.0259999036788940e-02</leafValues></_>
        <_>
          <internalNodes>
            0 -1 377 -1.3854766730219126e-03</internalNodes>
          <leafValues>
            5.3169423341751099e-01 -7.3237195611000061e-02</leafValues></_>
        <_>
          <internalNodes>
            0 -1 28 -4.4075716286897659e-03</internalNodes>
          <leafValues>
            -4.0086928009986877e-01 9.4340860843658447e-02</leafValues></_>
        <_>
          <internalNodes>
            0 -1 334 2.2639906965196133e-03</internalNodes>
          <leafValues>
            -1.1608516424894333e-01 3.6870709061622620e-01</leafValues></_>
        <_>
          <internalNodes>
            0 -1 466 1.1778441257774830e-03</internalNodes>
          <leafValues>
            9.8547779023647308e-02 -4.1795516014099121e-01</leafValues></_>
        <_>
          <internalNodes>
            0 -1 493 8.2010577898472548e-05</internalNodes>
          <leafValues>
            1.5613873302936554e-01 -2.4083144962787628e-01</leafValues></_>
        <_>
          <internalNodes>
            0 -1 76 -4.6022790484130383e-03</internalNodes>
          <leafValues>
            -4.0208268165588379e-01 9.3731500208377838e-02</leafValues></_>
        <_>
          <internalNodes>
            0 -1 404 -2.8545025270432234e-03</internalNodes>
          <leafValues>
            4.4968244433403015e-01 -8.9649520814418793e-02</leafValues></_>
        <_>
          <internalNodes>
            0 -1 508 2.5372696109116077e-03</internalNodes>
          <leafValues>
            9.1697536408901215e-02 -4.2625737190246582e-01</leafValues></_>
        <_>
          <internalNodes>
            0 -1 211 6.2134838663041592e-04</internalNodes>
          <leafValues>
            1.1165934056043625e-01 -3.2076701521873474e-01</leafValues></_>
        <_>
          <internalNodes>
            0 -1 379 1.5903040766716003e-03</internalNodes>
          <leafValues>
            -1.1808598786592484e-01 3.1581845879554749e-01</leafValues></_>
        <_>
          <internalNodes>
            0 -1 277 3.3330274745821953e-03</internalNodes>
          <leafValues>
            -1.0315030813217163e-01 3.5852161049842834e-01</leafValues></_>
        <_>
          <internalNodes>
            0 -1 93 -1.4895964704919606e-04</internalNodes>
          <leafValues>
            -2.6260414719581604e-01 1.4531844854354858e-01</leafValues></_>
        <_>
          <internalNodes>
            0 -1 193 -5.8526871725916862e-03</internalNodes>
          <leafValues>
            3.9523598551750183e-01 -8.5310347378253937e-02</leafValues></_></weakClassifiers></_>
    <!-- stage 6 -->
    <_>
      <maxWeakCount>31</maxWeakCount>
      <stageThreshold>-1.2191449403762817e+00</stageThreshold>
      <weakClassifiers>
        <_>
          <internalNodes>
            0 -1 216 3.9604566991329193e-02</internalNodes>
          <leafValues>
            -3.9084967970848083e-01 1.7617866396903992e-01</leafValues></_>
        <_>
          <internalNodes>
            0 -1 384 -2.4890113621950150e-02</internalNodes>
          <leafValues>
            3.4466144442558289e-01 -1.5158493816852570e-01</leafValues></_>
        <_>
          <internalNodes>
            0 -1 310 -1.5338042750954628e-02</internalNodes>
          <leafValues>
            3.6385399103164673e-01 -1.1326255649328232e-01</leafValues></_>
        <_>
          <internalNodes>
            0 -1 209 1.7885541543364525e-02</internalNodes>
          <leafValues>
            -1.2494482845067978e-01 3.5510438680648804e-01</leafValues></_>
        <_>
          <internalNodes>
            0 -1 61 -5.6773819029331207e-02</internalNodes>
          <leafValues>
            3.6976712942123413e-01 -1.0674466937780380e-01</leafValues></_>
        <_>
          <internalNodes>
            0 -1 408 3.5716169513761997e-03</internalNodes>
          <leafValues>
            5.1789149641990662e-02 -6.8283510208129883e-01</leafValues></_>
        <_>
          <internalNodes>
            0 -1 401 -7.3940097354352474e-03</internalNodes>
          <leafValues>
            2.8944692015647888e-01 -1.1629288643598557e-01</leafValues></_>
        <_>
          <internalNodes>
            0 -1 198 1.0253578424453735e-02</internalNodes>
          <leafValues>
            -7.0669256150722504e-02 5.5528926849365234e-01</leafValues></_>
        <_>
          <internalNodes>
            0 -1 40 -5.6178878992795944e-02</internalNodes>
          <leafValues>
            5.0753509998321533e-01 -6.1285942792892456e-02</leafValues></_>
        <_>
          <internalNodes>
            0 -1 71 -1.6173016279935837e-02</internalNodes>
          <leafValues>
            2.4664574861526489e-01 -1.2909939885139465e-01</leafValues></_>
        <_>
          <internalNodes>
            0 -1 82 2.1611146628856659e-02</internalNodes>
          <leafValues>
            -1.0288389772176743e-01 3.6718839406967163e-01</leafValues></_>
        <_>
          <internalNodes>
            0 -1 432 -6.2987941782921553e-04</internalNodes>
          <leafValues>
            -3.2218864560127258e-01 1.0808470100164413e-01</leafValues></_>
        <_>
          <internalNodes>
            0 -1 410 -3.8421438075602055e-03</internalNodes>
          <leafValues>
            -5.1539021730422974e-01 7.7959291636943817e-02</leafValues></_>
        <_>
          <internalNodes>
            0 -1 328 -6.6835316829383373e-03</internalNodes>
          <leafValues>
            3.6978006362915039e-01 -9.5978587865829468e-02</leafValues></_>
        <_>
          <internalNodes>
            0 -1 344 2.0512109622359276e-03</internalNodes>
          <leafValues>
            -1.2389695644378662e-01 3.1946367025375366e-01</leafValues></_>
        <_>
          <internalNodes>
            0 -1 506 7.7772606164216995e-04</internalNodes>
          <leafValues>
            7.0727959275245667e-02 -4.7044393420219421e-01</leafValues></_>
        <_>
          <internalNodes>
            0 -1 104 4.5100484043359756e-02</internalNodes>
          <leafValues>
            -6.2527105212211609e-02 5.0790029764175415e-01</leafValues></_>
        <_>
          <internalNodes>
            0 -1 383 -2.8953135013580322e-02</internalNodes>
          <leafValues>
            2.6896300911903381e-01 -1.2184835970401764e-01</leafValues></_>
        <_>
          <internalNodes>
            0 -1 213 -2.8131320141255856e-03</internalNodes>
          <leafValues>
            -3.4469416737556458e-01 1.1863440275192261e-01</leafValues></_>
        <_>
          <internalNodes>
            0 -1 278 -3.1845681369304657e-03</internalNodes>
          <leafValues>
            3.3727774024009705e-01 -1.1367928981781006e-01</leafValues></_>
        <_>
          <internalNodes>
            0 -1 409 4.8895372310653329e-04</internalNodes>
          <leafValues>
            1.0902153700590134e-01 -3.4132730960845947e-01</leafValues></_>
        <_>
          <internalNodes>
            0 -1 290 1.0137281380593777e-02</internalNodes>
          <leafValues>
            -1.0922954976558685e-01 3.5713836550712585e-01</leafValues></_>
        <_>
          <internalNodes>
            0 -1 268 -4.9790060147643089e-03</internalNodes>
          <leafValues>
            2.5575953722000122e-01 -1.6574096679687500e-01</leafValues></_>
        <_>
          <internalNodes>
            0 -1 472 1.2857727706432343e-03</internalNodes>
          <leafValues>
            1.2213831394910812e-01 -2.8580293059349060e-01</leafValues></_>
        <_>
          <internalNodes>
            0 -1 260 6.3045709393918514e-03</internalNodes>
          <leafValues>
            -8.6915522813796997e-02 4.5053875446319580e-01</leafValues></_>
        <_>
          <internalNodes>
            0 -1 475 -1.8552264664322138e-03</internalNodes>
          <leafValues>
            -4.3812751770019531e-01 9.6428796648979187e-02</leafValues></_>
        <_>
          <internalNodes>
            0 -1 333 5.5126575753092766e-03</internalNodes>
          <leafValues>
            -1.6270180046558380e-01 2.1853595972061157e-01</leafValues></_>
        <_>
          <internalNodes>
            0 -1 116 -3.2325088977813721e-03</internalNodes>
          <leafValues>
            -6.4560240507125854e-01 5.1114004105329514e-02</leafValues></_>
        <_>
          <internalNodes>
            0 -1 241 3.0676173046231270e-03</internalNodes>
          <leafValues>
            -1.0718715190887451e-01 3.2738095521926880e-01</leafValues></_>
        <_>
          <internalNodes>
            0 -1 446 7.4197980575263500e-04</internalNodes>
          <leafValues>
            1.3960988819599152e-01 -2.5047162175178528e-01</leafValues></_>
        <_>
          <internalNodes>
            0 -1 153 4.6487286686897278e-02</internalNodes>
          <leafValues>
            -1.0941138118505478e-01 3.1030550599098206e-01</leafValues></_></weakClassifiers></_>
    <!-- stage 7 -->
    <_>
      <maxWeakCount>32</maxWeakCount>
      <stageThreshold>-1.1162811517715454e+00</stageThreshold>
      <weakClassifiers>
        <_>
          <internalNodes>
            0 -1 204 9.9878571927547455e-04</internalNodes>
          <leafValues>
            -3.6052790284156799e-01 2.7819550037384033e-01</leafValues></_>
        <_>
          <internalNodes>
            0 -1 346 2.0286580547690392e-03</internalNodes>
          <leafValues>
            -1.3395868241786957e-01 3.8232550024986267e-01</leafValues></_>
        <_>
          <internalNodes>
            0 -1 336 -2.6429418940097094e-03</internalNodes>
          <leafValues>
            3.4108573198318481e-01 -1.4830712974071503e-01</leafValues></_>
        <_>
          <internalNodes>
            0 -1 337 2.0650057122111320e-03</internalNodes>
          <leafValues>
            -7.5659483671188354e-02 4.6211192011833191e-01</leafValues></_>
        <_>
          <internalNodes>
            0 -1 509 -2.1348278096411377e-04</internalNodes>
          <leafValues>
            -2.8975829482078552e-01 1.2218334525823593e-01</leafValues></_>
        <_>
          <internalNodes>
            0 -1 405 1.7526410520076752e-03</internalNodes>
          <leafValues>
            -5.5313162505626678e-02 6.6998785734176636e-01</leafValues></_>
        <_>
          <internalNodes>
            0 -1 456 3.1247697770595551e-03</internalNodes>
          <leafValues>
            1.6942363977432251e-01 -2.3183497786521912e-01</leafValues></_>
        <_>
          <internalNodes>
            0 -1 188 -4.3710228055715561e-03</internalNodes>
          <leafValues>
            3.6916285753250122e-01 -1.2749563157558441e-01</leafValues></_>
        <_>
          <internalNodes>
            0 -1 263 2.2681751288473606e-03</internalNodes>
          <leafValues>
            -6.6853396594524384e-02 3.6155703663825989e-01</leafValues></_>
        <_>
          <internalNodes>
            0 -1 103 -1.8523854669183493e-03</internalNodes>
          <leafValues>
            -2.6965576410293579e-01 1.1965142935514450e-01</leafValues></_>
        <_>
          <internalNodes>
            0 -1 50 2.2711884230375290e-03</internalNodes>
          <leafValues>
            1.0684537887573242e-01 -3.0653315782546997e-01</leafValues></_>
        <_>
          <internalNodes>
            0 -1 250 -2.1706442930735648e-04</internalNodes>
          <leafValues>
            -2.0405173301696777e-01 1.6469703614711761e-01</leafValues></_>
        <_>
          <internalNodes>
            0 -1 368 -1.6711088828742504e-03</internalNodes>
          <leafValues>
            6.2543451786041260e-01 -6.0975015163421631e-02</leafValues></_>
        <_>
          <internalNodes>
            0 -1 7 -3.1777395633980632e-04</internalNodes>
          <leafValues>
            -2.5363397598266602e-01 1.3711498677730560e-01</leafValues></_>
        <_>
          <internalNodes>
            0 -1 326 -8.0473590642213821e-03</internalNodes>
          <leafValues>
            7.0814132690429688e-01 -5.7360548526048660e-02</leafValues></_>
        <_>
          <internalNodes>
            0 -1 49 2.2696363157592714e-04</internalNodes>
          <leafValues>
            1.3554349541664124e-01 -2.6155343651771545e-01</leafValues></_>
        <_>
          <internalNodes>
            0 -1 285 5.9310412034392357e-03</internalNodes>
          <leafValues>
            9.2708870768547058e-02 -3.8057056069374084e-01</leafValues></_>
        <_>
          <internalNodes>
            0 -1 348 2.1028511691838503e-03</internalNodes>
          <leafValues>
            -1.0625472664833069e-01 3.4748625755310059e-01</leafValues></_>
        <_>
          <internalNodes>
            0 -1 431 1.6766157932579517e-03</internalNodes>
          <leafValues>
            1.0063852369785309e-01 -3.7431758642196655e-01</leafValues></_>
        <_>
          <internalNodes>
            0 -1 189 -4.8429705202579498e-03</internalNodes>
          <leafValues>
            6.2707746028900146e-01 -6.4653865993022919e-02</leafValues></_>
        <_>
          <internalNodes>
            0 -1 203 -1.4587166905403137e-01</internalNodes>
          <leafValues>
            5.3340607881546021e-01 -6.0099337249994278e-02</leafValues></_>
        <_>
          <internalNodes>
            0 -1 48 -2.7328438591212034e-04</internalNodes>
          <leafValues>
            -3.2783570885658264e-01 1.0168674588203430e-01</leafValues></_>
        <_>
          <internalNodes>
            0 -1 245 -7.1420043241232634e-04</internalNodes>
          <leafValues>
            3.4243026375770569e-01 -1.1806634813547134e-01</leafValues></_>
        <_>
          <internalNodes>
            0 -1 243 3.5345428623259068e-03</internalNodes>
          <leafValues>
            -9.4643220305442810e-02 3.7161055207252502e-01</leafValues></_>
        <_>
          <internalNodes>
            0 -1 425 4.9259997904300690e-03</internalNodes>
          <leafValues>
            8.4711357951164246e-02 -4.6657115221023560e-01</leafValues></_>
        <_>
          <internalNodes>
            0 -1 251 1.2316266074776649e-02</internalNodes>
          <leafValues>
            -5.5471103638410568e-02 7.8175109624862671e-01</leafValues></_>
        <_>
          <internalNodes>
            0 -1 364 1.4471819158643484e-03</internalNodes>
          <leafValues>
            -4.7070514410734177e-02 5.4476559162139893e-01</leafValues></_>
        <_>
          <internalNodes>
            0 -1 500 3.4571550786495209e-03</internalNodes>
          <leafValues>
            6.2467381358146667e-02 -5.4604303836822510e-01</leafValues></_>
        <_>
          <internalNodes>
            0 -1 375 -1.8273189198225737e-03</internalNodes>
          <leafValues>
            6.4398890733718872e-01 -5.6535623967647552e-02</leafValues></_>
        <_>
          <internalNodes>
            0 -1 288 -1.2384288711473346e-03</internalNodes>
          <leafValues>
            -2.0225444436073303e-01 1.5764912962913513e-01</leafValues></_>
        <_>
          <internalNodes>
            0 -1 222 1.8588108941912651e-03</internalNodes>
          <leafValues>
            -4.9492750316858292e-02 6.2592053413391113e-01</leafValues></_>
        <_>
          <internalNodes>
            0 -1 372 -6.0105317970737815e-04</internalNodes>
          <leafValues>
            -2.2794701159000397e-01 1.3248971104621887e-01</leafValues></_></weakClassifiers></_>
    <!-- stage 8 -->
    <_>
      <maxWeakCount>36</maxWeakCount>
      <stageThreshold>-1.0658282041549683e+00</stageThreshold>
      <weakClassifiers>
        <_>
          <internalNodes>
            0 -1 422 -5.0044443923979998e-04</internalNodes>
          <leafValues>
            -5.3146851062774658e-01 -1.6385011374950409e-01</leafValues></_>
        <_>
          <internalNodes>
            0 -1 215 -1.4189833775162697e-02</internalNodes>
          <leafValues>
            -3.5775774717330933e-01 7.0929944515228271e-02</leafValues></_>
        <_>
          <internalNodes>
            0 -1 2 5.2240202203392982e-03</internalNodes>
          <leafValues>
            1.3912934064865112e-01 -2.5606626272201538e-01</leafValues></_>
        <_>
          <internalNodes>
            0 -1 98 4.3655536137521267e-04</internalNodes>
          <leafValues>
            1.4570003747940063e-01 -2.4317747354507446e-01</leafValues></_>
        <_>
          <internalNodes>
            0 -1 297 6.7952228710055351e-03</internalNodes>
          <leafValues>
            -6.4780361950397491e-02 5.0871831178665161e-01</leafValues></_>
        <_>
          <internalNodes>
            0 -1 294 -4.5429118908941746e-03</internalNodes>
          <leafValues>
            4.4501206278800964e-01 -9.8849460482597351e-02</leafValues></_>
        <_>
          <internalNodes>
            0 -1 146 -4.6691508032381535e-04</internalNodes>
          <leafValues>
            -2.4548994004726410e-01 1.4726638793945313e-01</leafValues></_>
        <_>
          <internalNodes>
            0 -1 487 -1.1735865846276283e-03</internalNodes>
          <leafValues>
            -3.3573094010353088e-01 9.7305648028850555e-02</leafValues></_>
        <_>
          <internalNodes>
            0 -1 488 1.8637634639162570e-04</internalNodes>
          <leafValues>
            1.5498243272304535e-01 -2.2339896857738495e-01</leafValues></_>
        <_>
          <internalNodes>
            0 -1 190 -2.6472081663087010e-04</internalNodes>
          <leafValues>
            -2.9265701770782471e-01 9.7559444606304169e-02</leafValues></_>
        <_>
          <internalNodes>
            0 -1 395 -4.8961397260427475e-03</internalNodes>
          <leafValues>
            5.7644271850585938e-01 -4.7047108411788940e-02</leafValues></_>
        <_>
          <internalNodes>
            0 -1 463 5.8993892744183540e-03</internalNodes>
          <leafValues>
            7.0136912167072296e-02 -4.3497586250305176e-01</leafValues></_>
        <_>
          <internalNodes>
            0 -1 46 -3.6086159525439143e-04</internalNodes>
          <leafValues>
            -2.3865264654159546e-01 1.1186886578798294e-01</leafValues></_>
        <_>
          <internalNodes>
            0 -1 173 -5.5932421237230301e-03</internalNodes>
          <leafValues>
            7.5407510995864868e-01 -3.5828456282615662e-02</leafValues></_>
        <_>
          <internalNodes>
            0 -1 99 -5.2640512585639954e-03</internalNodes>
          <leafValues>
            -4.2584526538848877e-01 6.2119044363498688e-02</leafValues></_>
        <_>
          <internalNodes>
            0 -1 393 5.1820366643369198e-03</internalNodes>
          <leafValues>
            -7.2701923549175262e-02 4.0110120177268982e-01</leafValues></_>
        <_>
          <internalNodes>
            0 -1 115 -1.4353480190038681e-02</internalNodes>
          <leafValues>
            8.3102893829345703e-01 -3.3627860248088837e-02</leafValues></_>
        <_>
          <internalNodes>
            0 -1 477 1.8283523968420923e-04</internalNodes>
          <leafValues>
            1.2867833673954010e-01 -2.2953613102436066e-01</leafValues></_>
        <_>
          <internalNodes>
            0 -1 480 -2.2406777134165168e-04</internalNodes>
          <leafValues>
            -2.3420636355876923e-01 1.3568903505802155e-01</leafValues></_>
        <_>
          <internalNodes>
            0 -1 415 4.5315921306610107e-03</internalNodes>
          <leafValues>
            -8.5894219577312469e-02 3.9240312576293945e-01</leafValues></_>
        <_>
          <internalNodes>
            0 -1 420 -5.2546081133186817e-04</internalNodes>
          <leafValues>
            -2.6910060644149780e-01 1.1388226598501205e-01</leafValues></_>
        <_>
          <internalNodes>
            0 -1 232 -7.8818947076797485e-03</internalNodes>
          <leafValues>
            -5.8345705270767212e-01 5.2324209362268448e-02</leafValues></_>
        <_>
          <internalNodes>
            0 -1 224 -2.8392220847308636e-03</internalNodes>
          <leafValues>
            4.0577077865600586e-01 -8.0979555845260620e-02</leafValues></_>
        <_>
          <internalNodes>
            0 -1 292 -4.1062207892537117e-03</internalNodes>
          <leafValues>
            5.0900560617446899e-01 -5.6172069162130356e-02</leafValues></_>
        <_>
          <internalNodes>
            0 -1 398 4.5252701966091990e-04</internalNodes>
          <leafValues>
            1.3544766604900360e-01 -2.1542644500732422e-01</leafValues></_>
        <_>
          <internalNodes>
            0 -1 396 -1.6992053017020226e-02</internalNodes>
          <leafValues>
            -4.1141259670257568e-01 8.7511271238327026e-02</leafValues></_>
        <_>
          <internalNodes>
            0 -1 185 4.8480471596121788e-03</internalNodes>
          <leafValues>
            4.3573778122663498e-02 -5.4777860641479492e-01</leafValues></_>
        <_>
          <internalNodes>
            0 -1 378 3.0009874608367682e-03</internalNodes>
          <leafValues>
            -8.6013875901699066e-02 3.2519865036010742e-01</leafValues></_>
        <_>
          <internalNodes>
            0 -1 88 1.2240740470588207e-03</internalNodes>
          <leafValues>
            7.4778519570827484e-02 -3.9983960986137390e-01</leafValues></_>
        <_>
          <internalNodes>
            0 -1 504 -1.2503564357757568e-03</internalNodes>
          <leafValues>
            2.0110271871089935e-01 -1.4275205135345459e-01</leafValues></_>
        <_>
          <internalNodes>
            0 -1 39 1.9199835369363427e-03</internalNodes>
          <leafValues>
            6.8824969232082367e-02 -4.7726723551750183e-01</leafValues></_>
        <_>
          <internalNodes>
            0 -1 140 -9.8186694085597992e-03</internalNodes>
          <leafValues>
            6.1920827627182007e-01 -5.0017967820167542e-02</leafValues></_>
        <_>
          <internalNodes>
            0 -1 57 -3.9571599336341023e-04</internalNodes>
          <leafValues>
            -2.0625257492065430e-01 1.3766834139823914e-01</leafValues></_>
        <_>
          <internalNodes>
            0 -1 200 -6.5058646723628044e-03</internalNodes>
          <leafValues>
            5.4325300455093384e-01 -5.8157186955213547e-02</leafValues></_>
        <_>
          <internalNodes>
            0 -1 17 8.8490231428295374e-04</internalNodes>
          <leafValues>
            -1.5654359757900238e-01 1.8376012146472931e-01</leafValues></_>
        <_>
          <internalNodes>
            0 -1 135 -1.9555944949388504e-02</internalNodes>
          <leafValues>
            2.6250377297401428e-01 -9.9750593304634094e-02</leafValues></_></weakClassifiers></_>
    <!-- stage 9 -->
    <_>
      <maxWeakCount>47</maxWeakCount>
      <stageThreshold>-1.0340477228164673e+00</stageThreshold>
      <weakClassifiers>
        <_>
          <internalNodes>
            0 -1 253 -9.1212362051010132e-02</internalNodes>
          <leafValues>
            1.9428572058677673e-01 -3.7586861848831177e-01</leafValues></_>
        <_>
          <internalNodes>
            0 -1 72 -5.9963297843933105e-01</internalNodes>
          <leafValues>
            -6.5910923480987549e-01 3.8296438753604889e-02</leafValues></_>
        <_>
          <internalNodes>
            0 -1 73 -6.2587022781372070e-01</internalNodes>
          <leafValues>
            1. -5.8892844244837761e-03</leafValues></_>
        <_>
          <internalNodes>
            0 -1 74 -6.0460996627807617e-01</internalNodes>
          <leafValues>
            -8.1906902790069580e-01 1.1977290734648705e-02</leafValues></_>
        <_>
          <internalNodes>
            0 -1 327 -1.3832896947860718e-02</internalNodes>
          <leafValues>
            6.6007006168365479e-01 -2.0149879157543182e-02</leafValues></_>
        <_>
          <internalNodes>
            0 -1 89 -1.5405594604089856e-03</internalNodes>
          <leafValues>
            1.7971681058406830e-01 -1.6329705715179443e-01</leafValues></_>
        <_>
          <internalNodes>
            0 -1 342 1.2362361885607243e-03</internalNodes>
          <leafValues>
            -5.3093839436769485e-02 5.2061575651168823e-01</leafValues></_>
        <_>
          <internalNodes>
            0 -1 134 -1.9879627972841263e-02</internalNodes>
          <leafValues>
            3.8597643375396729e-01 -6.7467376589775085e-02</leafValues></_>
        <_>
          <internalNodes>
            0 -1 186 -1.4405485708266497e-03</internalNodes>
          <leafValues>
            4.5231151580810547e-01 -5.9204287827014923e-02</leafValues></_>
        <_>
          <internalNodes>
            0 -1 191 -1.4450395246967673e-04</internalNodes>
          <leafValues>
            -1.9364118576049805e-01 1.3538853824138641e-01</leafValues></_>
        <_>
          <internalNodes>
            0 -1 317 -2.3001432418823242e-03</internalNodes>
          <leafValues>
            4.2280972003936768e-01 -6.7868053913116455e-02</leafValues></_>
        <_>
          <internalNodes>
            0 -1 497 6.2821700703352690e-04</internalNodes>
          <leafValues>
            1.0350585728883743e-01 -2.4332273006439209e-01</leafValues></_>
        <_>
          <internalNodes>
            0 -1 167 2.9890434816479683e-03</internalNodes>
          <leafValues>
            7.8203901648521423e-02 -3.7259522080421448e-01</leafValues></_>
        <_>
          <internalNodes>
            0 -1 111 -1.0182737372815609e-02</internalNodes>
          <leafValues>
            4.6838304400444031e-01 -5.8251686394214630e-02</leafValues></_>
        <_>
          <internalNodes>
            0 -1 183 9.8045833408832550e-02</internalNodes>
          <leafValues>
            -5.4718267172574997e-02 4.4797316193580627e-01</leafValues></_>
        <_>
          <internalNodes>
            0 -1 392 2.4974336847662926e-03</internalNodes>
          <leafValues>
            -4.9617394804954529e-02 4.5460361242294312e-01</leafValues></_>
        <_>
          <internalNodes>
            0 -1 130 -5.0047837430611253e-04</internalNodes>
          <leafValues>
            -1.7540499567985535e-01 1.3924308121204376e-01</leafValues></_>
        <_>
          <internalNodes>
            0 -1 114 -1.0060522618005052e-04</internalNodes>
          <leafValues>
            -2.0941986143589020e-01 1.1746511608362198e-01</leafValues></_>
        <_>
          <internalNodes>
            0 -1 136 -4.6156805008649826e-02</internalNodes>
          <leafValues>
            6.5631985664367676e-01 -4.1087947785854340e-02</leafValues></_>
        <_>
          <internalNodes>
            0 -1 402 3.3651145640760660e-03</internalNodes>
          <leafValues>
            -5.8470025658607483e-02 3.7142220139503479e-01</leafValues></_>
        <_>
          <internalNodes>
            0 -1 68 -1.7793659120798111e-02</internalNodes>
          <leafValues>
            9.1654109954833984e-01 -1.7999049276113510e-02</leafValues></_>
        <_>
          <internalNodes>
            0 -1 365 3.9294469170272350e-03</internalNodes>
          <leafValues>
            -4.7911357134580612e-02 4.5071551203727722e-01</leafValues></_>
        <_>
          <internalNodes>
            0 -1 309 -2.4738903157413006e-03</internalNodes>
          <leafValues>
            -2.6000872254371643e-01 9.3354910612106323e-02</leafValues></_>
        <_>
          <internalNodes>
            0 -1 469 1.8140473403036594e-03</internalNodes>
          <leafValues>
            7.6592922210693359e-02 -3.6159572005271912e-01</leafValues></_>
        <_>
          <internalNodes>
            0 -1 273 -2.0737324375659227e-03</internalNodes>
          <leafValues>
            5.3629106283187866e-01 -5.4741658270359039e-02</leafValues></_>
        <_>
          <internalNodes>
            0 -1 132 -7.2155907750129700e-02</internalNodes>
          <leafValues>
            1.9230721890926361e-01 -1.5381219983100891e-01</leafValues></_>
        <_>
          <internalNodes>
            0 -1 386 -1.3307001790963113e-04</internalNodes>
          <leafValues>
            -2.1384167671203613e-01 1.2714493274688721e-01</leafValues></_>
        <_>
          <internalNodes>
            0 -1 320 7.6151499524712563e-04</internalNodes>
          <leafValues>
            -7.7894061803817749e-02 3.6546871066093445e-01</leafValues></_>
        <_>
          <internalNodes>
            0 -1 78 -1.2501998571678996e-04</internalNodes>
          <leafValues>
            -1.9919316470623016e-01 1.4267300069332123e-01</leafValues></_>
        <_>
          <internalNodes>
            0 -1 397 8.4320902824401855e-03</internalNodes>
          <leafValues>
            -3.8198377937078476e-02 7.1934568881988525e-01</leafValues></_>
        <_>
          <internalNodes>
            0 -1 154 -6.9407641887664795e-02</internalNodes>
          <leafValues>
            2.6118758320808411e-01 -9.2470869421958923e-02</leafValues></_>
        <_>
          <internalNodes>
            0 -1 227 1.4846196863800287e-03</internalNodes>
          <leafValues>
            -5.5081374943256378e-02 5.1613181829452515e-01</leafValues></_>
        <_>
          <internalNodes>
            0 -1 259 -3.3039734698832035e-03</internalNodes>
          <leafValues>
            -2.7281871438026428e-01 9.8171196877956390e-02</leafValues></_>
        <_>
          <internalNodes>
            0 -1 505 1.8898211419582367e-04</internalNodes>
          <leafValues>
            1.2423751503229141e-01 -2.0711383223533630e-01</leafValues></_>
        <_>
          <internalNodes>
            0 -1 187 -2.3686084896326065e-02</internalNodes>
          <leafValues>
            2.3649600148200989e-01 -1.1923053860664368e-01</leafValues></_>
        <_>
          <internalNodes>
            0 -1 467 8.4228508058004081e-05</internalNodes>
          <leafValues>
            1.2353754788637161e-01 -2.0932689309120178e-01</leafValues></_>
        <_>
          <internalNodes>
            0 -1 308 2.6906898710876703e-03</internalNodes>
          <leafValues>
            -9.8929390311241150e-02 2.5116047263145447e-01</leafValues></_>
        <_>
          <internalNodes>
            0 -1 323 2.5670833420008421e-03</internalNodes>
          <leafValues>
            5.5596310645341873e-02 -4.9293977022171021e-01</leafValues></_>
        <_>
          <internalNodes>
            0 -1 271 -8.7554974015802145e-05</internalNodes>
          <leafValues>
            -1.7322310805320740e-01 1.3691382110118866e-01</leafValues></_>
        <_>
          <internalNodes>
            0 -1 225 -2.0781951025128365e-03</internalNodes>
          <leafValues>
            2.2237682342529297e-01 -1.1343108117580414e-01</leafValues></_>
        <_>
          <internalNodes>
            0 -1 319 8.1887195119634271e-04</internalNodes>
          <leafValues>
            -8.5833229124546051e-02 2.7194207906723022e-01</leafValues></_>
        <_>
          <internalNodes>
            0 -1 313 1.6060272231698036e-02</internalNodes>
          <leafValues>
            -1.0679128766059875e-01 2.2870334982872009e-01</leafValues></_>
        <_>
          <internalNodes>
            0 -1 100 2.0528770983219147e-03</internalNodes>
          <leafValues>
            8.9157462120056152e-02 -2.9572880268096924e-01</leafValues></_>
        <_>
          <internalNodes>
            0 -1 234 -2.0615092944353819e-04</internalNodes>
          <leafValues>
            -2.3203083872795105e-01 1.0523303598165512e-01</leafValues></_>
        <_>
          <internalNodes>
            0 -1 197 -1.2609474360942841e-03</internalNodes>
          <leafValues>
            3.8907366991043091e-01 -7.1969404816627502e-02</leafValues></_>
        <_>
          <internalNodes>
            0 -1 449 -2.5050103431567550e-04</internalNodes>
          <leafValues>
            -1.8044218420982361e-01 1.4056546986103058e-01</leafValues></_>
        <_>
          <internalNodes>
            0 -1 240 -6.6849738359451294e-02</internalNodes>
          <leafValues>
            4.1576540470123291e-01 -7.7298931777477264e-02</leafValues></_></weakClassifiers></_>
    <!-- stage 10 -->
    <_>
      <maxWeakCount>36</maxWeakCount>
      <stageThreshold>-1.0489168167114258e+00</stageThreshold>
      <weakClassifiers>
        <_>
          <internalNodes>
            0 -1 270 -1.3520752079784870e-02</internalNodes>
          <leafValues>
            4.6583849936723709e-02 -4.3211790919303894e-01</leafValues></_>
        <_>
          <internalNodes>
            0 -1 170 2.7327632904052734e-01</internalNodes>
          <leafValues>
            3.9418485015630722e-02 -8.8645184040069580e-01</leafValues></_>
        <_>
          <internalNodes>
            0 -1 106 -6.6016018390655518e-01</internalNodes>
          <leafValues>
            -8.1786131858825684e-01 5.1564991474151611e-02</leafValues></_>
        <_>
          <internalNodes>
            0 -1 447 -2.5891758501529694e-02</internalNodes>
          <leafValues>
            2.6558262109756470e-01 -1.4541709423065186e-01</leafValues></_>
        <_>
          <internalNodes>
            0 -1 483 -1.2816287926398218e-04</internalNodes>
          <leafValues>
            -2.1646855771541595e-01 1.3778299093246460e-01</leafValues></_>
        <_>
          <internalNodes>
            0 -1 269 -2.6605866849422455e-02</internalNodes>
          <leafValues>
            3.6063951253890991e-01 -8.4011092782020569e-02</leafValues></_>
        <_>
          <internalNodes>
            0 -1 24 9.7248390316963196e-02</internalNodes>
          <leafValues>
            -8.1636086106300354e-02 3.7719589471817017e-01</leafValues></_>
        <_>
          <internalNodes>
            0 -1 47 2.3897386563476175e-04</internalNodes>
          <leafValues>
            1.3335435092449188e-01 -2.2283311188220978e-01</leafValues></_>
        <_>
          <internalNodes>
            0 -1 43 1.8485412001609802e-03</internalNodes>
          <leafValues>
            -1.8483659625053406e-01 1.7752525210380554e-01</leafValues></_>
        <_>
          <internalNodes>
            0 -1 0 -1.5780969988554716e-04</internalNodes>
          <leafValues>
            -1.9450770318508148e-01 1.3701114058494568e-01</leafValues></_>
        <_>
          <internalNodes>
            0 -1 90 -3.1651221215724945e-02</internalNodes>
          <leafValues>
            2.9193463921546936e-01 -1.0681217163801193e-01</leafValues></_>
        <_>
          <internalNodes>
            0 -1 258 -1.3255021534860134e-02</internalNodes>
          <leafValues>
            3.0742144584655762e-01 -9.3626871705055237e-02</leafValues></_>
        <_>
          <internalNodes>
            0 -1 238 -1.8251717090606689e-02</internalNodes>
          <leafValues>
            2.8633135557174683e-01 -9.1553926467895508e-02</leafValues></_>
        <_>
          <internalNodes>
            0 -1 156 2.8664920479059219e-02</internalNodes>
          <leafValues>
            -7.0380419492721558e-02 3.4851077198982239e-01</leafValues></_>
        <_>
          <internalNodes>
            0 -1 457 3.1106360256671906e-04</internalNodes>
          <leafValues>
            1.0284346342086792e-01 -2.3733723163604736e-01</leafValues></_>
        <_>
          <internalNodes>
            0 -1 419 1.4727937523275614e-03</internalNodes>
          <leafValues>
            -7.4055664241313934e-02 3.5027951002120972e-01</leafValues></_>
        <_>
          <internalNodes>
            0 -1 440 2.2848980734124780e-04</internalNodes>
          <leafValues>
            1.1423594504594803e-01 -2.0124004781246185e-01</leafValues></_>
        <_>
          <internalNodes>
            0 -1 351 1.3446738943457603e-02</internalNodes>
          <leafValues>
            -1.1236130446195602e-01 2.2614464163780212e-01</leafValues></_>
        <_>
          <internalNodes>
            0 -1 228 -6.3788825646042824e-03</internalNodes>
          <leafValues>
            2.0233602821826935e-01 -1.3625267148017883e-01</leafValues></_>
        <_>
          <internalNodes>
            0 -1 283 2.5548122357577085e-04</internalNodes>
          <leafValues>
            1.4226904511451721e-01 -1.9915837049484253e-01</leafValues></_>
        <_>
          <internalNodes>
            0 -1 34 -2.1640116348862648e-02</internalNodes>
          <leafValues>
            3.6356720328330994e-01 -7.9193942248821259e-02</leafValues></_>
        <_>
          <internalNodes>
            0 -1 37 1.1542921420186758e-03</internalNodes>
          <leafValues>
            -1.3218429684638977e-01 1.8758232891559601e-01</leafValues></_>
        <_>
          <internalNodes>
            0 -1 155 -7.5334886787459254e-05</internalNodes>
          <leafValues>
            -1.8279235064983368e-01 1.3762076199054718e-01</leafValues></_>
        <_>
          <internalNodes>
            0 -1 325 -7.4106261134147644e-02</internalNodes>
          <leafValues>
            -6.4315366744995117e-01 3.9123691618442535e-02</leafValues></_>
        <_>
          <internalNodes>
            0 -1 444 -1.1188065633177757e-02</internalNodes>
          <leafValues>
            2.3042945563793182e-01 -1.2215173989534378e-01</leafValues></_>
        <_>
          <internalNodes>
            0 -1 435 1.7763808369636536e-02</internalNodes>
          <leafValues>
            -1.0444700717926025e-01 2.7755266427993774e-01</leafValues></_>
        <_>
          <internalNodes>
            0 -1 51 6.2861472368240356e-02</internalNodes>
          <leafValues>
            -1.0749252885580063e-01 2.7958294749259949e-01</leafValues></_>
        <_>
          <internalNodes>
            0 -1 242 -4.0531861595809460e-03</internalNodes>
          <leafValues>
            1.5999163687229156e-01 -1.8137380480766296e-01</leafValues></_>
        <_>
          <internalNodes>
            0 -1 180 7.5648710131645203e-02</internalNodes>
          <leafValues>
            -6.6354528069496155e-02 4.2144611477851868e-01</leafValues></_>
        <_>
          <internalNodes>
            0 -1 264 4.8506511375308037e-03</internalNodes>
          <leafValues>
            5.1460493355989456e-02 -5.7047951221466064e-01</leafValues></_>
        <_>
          <internalNodes>
            0 -1 353 1.8473370000720024e-03</internalNodes>
          <leafValues>
            -5.5370047688484192e-02 5.1728367805480957e-01</leafValues></_>
        <_>
          <internalNodes>
            0 -1 249 4.4061290100216866e-04</internalNodes>
          <leafValues>
            1.0587611049413681e-01 -2.3956231772899628e-01</leafValues></_>
        <_>
          <internalNodes>
            0 -1 339 -2.0100807305425406e-03</internalNodes>
          <leafValues>
            4.4168063998222351e-01 -5.8053161948919296e-02</leafValues></_>
        <_>
          <internalNodes>
            0 -1 374 2.4721868336200714e-02</internalNodes>
          <leafValues>
            4.7027684748172760e-02 -5.6641608476638794e-01</leafValues></_>
        <_>
          <internalNodes>
            0 -1 195 -5.3598102182149887e-02</internalNodes>
          <leafValues>
            2.3910091817378998e-01 -1.1044710874557495e-01</leafValues></_>
        <_>
          <internalNodes>
            0 -1 157 -6.1238044872879982e-03</internalNodes>
          <leafValues>
            3.7834495306015015e-01 -6.8051397800445557e-02</leafValues></_></weakClassifiers></_>
    <!-- stage 11 -->
    <_>
      <maxWeakCount>28</maxWeakCount>
      <stageThreshold>-1.0445179939270020e+00</stageThreshold>
      <weakClassifiers>
        <_>
          <internalNodes>
            0 -1 113 -7.9045332968235016e-03</internalNodes>
          <leafValues>
            2.4904213845729828e-01 -3.5406699776649475e-01</leafValues></_>
        <_>
          <internalNodes>
            0 -1 502 9.5603382214903831e-04</internalNodes>
          <leafValues>
            9.7434252500534058e-02 -4.5894727110862732e-01</leafValues></_>
        <_>
          <internalNodes>
            0 -1 476 -2.9956675134599209e-03</internalNodes>
          <leafValues>
            -5.3420853614807129e-01 7.6801121234893799e-02</leafValues></_>
        <_>
          <internalNodes>
            0 -1 503 -1.6399908345192671e-03</internalNodes>
          <leafValues>
            -4.2820638418197632e-01 9.4034738838672638e-02</leafValues></_>
        <_>
          <internalNodes>
            0 -1 87 6.5905135124921799e-03</internalNodes>
          <leafValues>
            -7.1203947067260742e-02 4.6670451760292053e-01</leafValues></_>
        <_>
          <internalNodes>
            0 -1 474 1.6719319391995668e-03</internalNodes>
          <leafValues>
            1.3777732849121094e-01 -3.3509588241577148e-01</leafValues></_>
        <_>
          <internalNodes>
            0 -1 165 -2.5167356943711638e-04</internalNodes>
          <leafValues>
            -2.3224014043807983e-01 1.4708957076072693e-01</leafValues></_>
        <_>
          <internalNodes>
            0 -1 275 -6.0897050425410271e-03</internalNodes>
          <leafValues>
            6.3710927963256836e-01 -5.0748150795698166e-02</leafValues></_>
        <_>
          <internalNodes>
            0 -1 45 -9.9298520945012569e-04</internalNodes>
          <leafValues>
            -4.1918653249740601e-01 8.5814662277698517e-02</leafValues></_>
        <_>
          <internalNodes>
            0 -1 276 4.0227156132459641e-03</internalNodes>
          <leafValues>
            -1.1009582877159119e-01 3.4313660860061646e-01</leafValues></_>
        <_>
          <internalNodes>
            0 -1 31 1.3088001869618893e-03</internalNodes>
          <leafValues>
            1.0106687247753143e-01 -3.6654019355773926e-01</leafValues></_>
        <_>
          <internalNodes>
            0 -1 324 1.8185353837907314e-04</internalNodes>
          <leafValues>
            1.3846549391746521e-01 -2.3217594623565674e-01</leafValues></_>
        <_>
          <internalNodes>
            0 -1 53 -1.5794872306287289e-03</internalNodes>
          <leafValues>
            -3.6996424198150635e-01 8.1375651061534882e-02</leafValues></_>
        <_>
          <internalNodes>
            0 -1 162 -6.2312573194503784e-02</internalNodes>
          <leafValues>
            6.5746480226516724e-01 -4.6843141317367554e-02</leafValues></_>
        <_>
          <internalNodes>
            0 -1 15 2.4783716071397066e-03</internalNodes>
          <leafValues>
            9.9079214036464691e-02 -3.0208560824394226e-01</leafValues></_>
        <_>
          <internalNodes>
            0 -1 58 3.7112238351255655e-03</internalNodes>
          <leafValues>
            -1.0354688018560410e-01 3.1305050849914551e-01</leafValues></_>
        <_>
          <internalNodes>
            0 -1 442 1.4977817772887647e-04</internalNodes>
          <leafValues>
            1.2698313593864441e-01 -2.4745577573776245e-01</leafValues></_>
        <_>
          <internalNodes>
            0 -1 443 -1.1645914055407047e-03</internalNodes>
          <leafValues>
            -3.4508293867111206e-01 1.0784318298101425e-01</leafValues></_>
        <_>
          <internalNodes>
            0 -1 367 -8.0164354294538498e-03</internalNodes>
          <leafValues>
            6.5545785427093506e-01 -5.5861916393041611e-02</leafValues></_>
        <_>
          <internalNodes>
            0 -1 27 4.1242418810725212e-03</internalNodes>
          <leafValues>
            -1.1887149512767792e-01 3.0411216616630554e-01</leafValues></_>
        <_>
          <internalNodes>
            0 -1 109 6.9740996696054935e-03</internalNodes>
          <leafValues>
            4.2719159275293350e-02 -8.9366918802261353e-01</leafValues></_>
        <_>
          <internalNodes>
            0 -1 452 2.2710304707288742e-02</internalNodes>
          <leafValues>
            -7.3729410767555237e-02 5.2529424428939819e-01</leafValues></_>
        <_>
          <internalNodes>
            0 -1 1 -2.2877333685755730e-04</internalNodes>
          <leafValues>
            -2.4501155316829681e-01 1.3876354694366455e-01</leafValues></_>
        <_>
          <internalNodes>
            0 -1 66 -4.0084589272737503e-03</internalNodes>
          <leafValues>
            8.2337647676467896e-01 -5.0562374293804169e-02</leafValues></_>
        <_>
          <internalNodes>
            0 -1 67 3.2627559266984463e-03</internalNodes>
          <leafValues>
            -8.0860808491706848e-02 3.4738031029701233e-01</leafValues></_>
        <_>
          <internalNodes>
            0 -1 63 -2.1430323831737041e-03</internalNodes>
          <leafValues>
            -4.0014883875846863e-01 7.4554741382598877e-02</leafValues></_>
        <_>
          <internalNodes>
            0 -1 318 -6.2744803726673126e-03</internalNodes>
          <leafValues>
            -1.9086475670337677e-01 1.6729336977005005e-01</leafValues></_>
        <_>
          <internalNodes>
            0 -1 281 -4.6647675335407257e-03</internalNodes>
          <leafValues>
            5.8732795715332031e-01 -4.8634145408868790e-02</leafValues></_></weakClassifiers></_>
    <!-- stage 12 -->
    <_>
      <maxWeakCount>51</maxWeakCount>
      <stageThreshold>-1.0704154968261719e+00</stageThreshold>
      <weakClassifiers>
        <_>
          <internalNodes>
            0 -1 280 -4.6445541083812714e-03</internalNodes>
          <leafValues>
            2.0000000298023224e-01 -3.2717829942703247e-01</leafValues></_>
        <_>
          <internalNodes>
            0 -1 223 6.6783081274479628e-04</internalNodes>
          <leafValues>
            -8.7011136114597321e-02 3.4153538942337036e-01</leafValues></_>
        <_>
          <internalNodes>
            0 -1 267 -3.9564804174005985e-03</internalNodes>
          <leafValues>
            2.8575268387794495e-01 -8.7581269443035126e-02</leafValues></_>
        <_>
          <internalNodes>
            0 -1 495 5.1542292349040508e-03</internalNodes>
          <leafValues>
            6.1729051172733307e-02 -4.6464031934738159e-01</leafValues></_>
        <_>
          <internalNodes>
            0 -1 220 3.0381474643945694e-03</internalNodes>
          <leafValues>
            -5.5871956050395966e-02 3.3899414539337158e-01</leafValues></_>
        <_>
          <internalNodes>
            0 -1 355 3.0821417458355427e-03</internalNodes>
          <leafValues>
            -6.0120183974504471e-02 4.2167887091636658e-01</leafValues></_>
        <_>
          <internalNodes>
            0 -1 470 -6.2798950821161270e-03</internalNodes>
          <leafValues>
            -6.8797224760055542e-01 2.9820902273058891e-02</leafValues></_>
        <_>
          <internalNodes>
            0 -1 122 9.7461463883519173e-03</internalNodes>
          <leafValues>
            -1.4025399088859558e-01 1.6768363118171692e-01</leafValues></_>
        <_>
          <internalNodes>
            0 -1 25 -1.1643375270068645e-02</internalNodes>
          <leafValues>
            -5.3359788656234741e-01 4.9084793776273727e-02</leafValues></_>
        <_>
          <internalNodes>
            0 -1 304 3.9564510807394981e-03</internalNodes>
          <leafValues>
            -5.9350259602069855e-02 3.8684204220771790e-01</leafValues></_>
        <_>
          <internalNodes>
            0 -1 96 -8.3670109510421753e-02</internalNodes>
          <leafValues>
            8.2110619544982910e-01 -3.7506692111492157e-02</leafValues></_>
        <_>
          <internalNodes>
            0 -1 102 3.9877463132143021e-03</internalNodes>
          <leafValues>
            4.3828167021274567e-02 -5.7735651731491089e-01</leafValues></_>
        <_>
          <internalNodes>
            0 -1 217 1.5348934102803469e-03</internalNodes>
          <leafValues>
            -4.2242877185344696e-02 4.8773998022079468e-01</leafValues></_>
        <_>
          <internalNodes>
            0 -1 23 -9.2547610402107239e-02</internalNodes>
          <leafValues>
            5.8364272117614746e-01 -4.4553615152835846e-02</leafValues></_>
        <_>
          <internalNodes>
            0 -1 441 7.5418792665004730e-02</internalNodes>
          <leafValues>
            -4.8200737684965134e-02 4.8465532064437866e-01</leafValues></_>
        <_>
          <internalNodes>
            0 -1 144 3.5833779256790876e-03</internalNodes>
          <leafValues>
            -9.3480721116065979e-02 2.8011417388916016e-01</leafValues></_>
        <_>
          <internalNodes>
            0 -1 314 -6.7972615361213684e-02</internalNodes>
          <leafValues>
            4.7620975971221924e-01 -5.4712921380996704e-02</leafValues></_>
        <_>
          <internalNodes>
            0 -1 332 1.0976205812767148e-03</internalNodes>
          <leafValues>
            8.2952804863452911e-02 -2.7841156721115112e-01</leafValues></_>
        <_>
          <internalNodes>
            0 -1 131 -1.2536720372736454e-02</internalNodes>
          <leafValues>
            8.8636583089828491e-01 -2.0762680098414421e-02</leafValues></_>
        <_>
          <internalNodes>
            0 -1 303 4.5190425589680672e-03</internalNodes>
          <leafValues>
            -5.6634739041328430e-02 3.8859996199607849e-01</leafValues></_>
        <_>
          <internalNodes>
            0 -1 371 -5.1635965704917908e-02</internalNodes>
          <leafValues>
            7.6722520589828491e-01 -3.3077791333198547e-02</leafValues></_>
        <_>
          <internalNodes>
            0 -1 373 -7.3983803391456604e-02</internalNodes>
          <leafValues>
            -7.3658478260040283e-01 3.8486976176500320e-02</leafValues></_>
        <_>
          <internalNodes>
            0 -1 360 -2.4190936528611928e-04</internalNodes>
          <leafValues>
            -1.9401383399963379e-01 1.2969771027565002e-01</leafValues></_>
        <_>
          <internalNodes>
            0 -1 345 -6.6609831992536783e-04</internalNodes>
          <leafValues>
            3.3475732803344727e-01 -7.6719008386135101e-02</leafValues></_>
        <_>
          <internalNodes>
            0 -1 451 1.3594133779406548e-03</internalNodes>
          <leafValues>
            6.4301818609237671e-02 -3.8716098666191101e-01</leafValues></_>
        <_>
          <internalNodes>
            0 -1 194 5.0532943569123745e-03</internalNodes>
          <leafValues>
            -1.1088044941425323e-01 2.1447750926017761e-01</leafValues></_>
        <_>
          <internalNodes>
            0 -1 199 -2.3693992989137769e-04</internalNodes>
          <leafValues>
            -1.7907169461250305e-01 1.4195229113101959e-01</leafValues></_>
        <_>
          <internalNodes>
            0 -1 343 2.1667759865522385e-03</internalNodes>
          <leafValues>
            -7.2648689150810242e-02 3.7915986776351929e-01</leafValues></_>
        <_>
          <internalNodes>
            0 -1 430 7.3226131498813629e-03</internalNodes>
          <leafValues>
            4.5877926051616669e-02 -5.9400445222854614e-01</leafValues></_>
        <_>
          <internalNodes>
            0 -1 9 -2.7658725157380104e-03</internalNodes>
          <leafValues>
            -3.1784832477569580e-01 7.8739024698734283e-02</leafValues></_>
        <_>
          <internalNodes>
            0 -1 424 -2.6367607060819864e-03</internalNodes>
          <leafValues>
            2.4424725770950317e-01 -1.0058246552944183e-01</leafValues></_>
        <_>
          <internalNodes>
            0 -1 255 -1.1704891920089722e-02</internalNodes>
          <leafValues>
            2.1299125254154205e-01 -1.1634166538715363e-01</leafValues></_>
        <_>
          <internalNodes>
            0 -1 77 3.0390586471185088e-04</internalNodes>
          <leafValues>
            1.0377603769302368e-01 -2.3671257495880127e-01</leafValues></_>
        <_>
          <internalNodes>
            0 -1 307 2.2083059884607792e-03</internalNodes>
          <leafValues>
            -1.0704704374074936e-01 2.2300185263156891e-01</leafValues></_>
        <_>
          <internalNodes>
            0 -1 358 -2.4655647575855255e-04</internalNodes>
          <leafValues>
            -1.9360360503196716e-01 1.2581381201744080e-01</leafValues></_>
        <_>
          <internalNodes>
            0 -1 178 -6.1008751392364502e-02</internalNodes>
          <leafValues>
            -5.8473026752471924e-01 4.7011129558086395e-02</leafValues></_>
        <_>
          <internalNodes>
            0 -1 423 -6.6900136880576611e-04</internalNodes>
          <leafValues>
            -3.0733352899551392e-01 8.4103226661682129e-02</leafValues></_>
        <_>
          <internalNodes>
            0 -1 163 9.5240238806582056e-06</internalNodes>
          <leafValues>
            -1.5112590789794922e-01 1.5809941291809082e-01</leafValues></_>
        <_>
          <internalNodes>
            0 -1 226 3.2511763274669647e-02</internalNodes>
          <leafValues>
            3.9197709411382675e-02 -6.1906111240386963e-01</leafValues></_>
        <_>
          <internalNodes>
            0 -1 205 1.4474380295723677e-03</internalNodes>
          <leafValues>
            -1.3399280607700348e-01 1.9395668804645538e-01</leafValues></_>
        <_>
          <internalNodes>
            0 -1 468 -1.2709913426078856e-04</internalNodes>
          <leafValues>
            -1.9550682604312897e-01 1.1321953684091568e-01</leafValues></_>
        <_>
          <internalNodes>
            0 -1 329 7.5515266507863998e-04</internalNodes>
          <leafValues>
            -6.9409519433975220e-02 3.5238048434257507e-01</leafValues></_>
        <_>
          <internalNodes>
            0 -1 293 -2.1051601506769657e-03</internalNodes>
          <leafValues>
            8.0122816562652588e-01 -2.9082249850034714e-02</leafValues></_>
        <_>
          <internalNodes>
            0 -1 214 -2.1583569468930364e-04</internalNodes>
          <leafValues>
            -2.2661472856998444e-01 1.1112431436777115e-01</leafValues></_>
        <_>
          <internalNodes>
            0 -1 201 -3.3012821804732084e-03</internalNodes>
          <leafValues>
            4.1834768652915955e-01 -6.3528522849082947e-02</leafValues></_>
        <_>
          <internalNodes>
            0 -1 356 -1.8106556963175535e-03</internalNodes>
          <leafValues>
            7.5128650665283203e-01 -2.8608227148652077e-02</leafValues></_>
        <_>
          <internalNodes>
            0 -1 151 -2.6350431144237518e-03</internalNodes>
          <leafValues>
            -4.8121154308319092e-01 5.5617213249206543e-02</leafValues></_>
        <_>
          <internalNodes>
            0 -1 362 6.8555297330021858e-03</internalNodes>
          <leafValues>
            -4.1684940457344055e-02 6.9910115003585815e-01</leafValues></_>
        <_>
          <internalNodes>
            0 -1 490 -2.7568093501031399e-03</internalNodes>
          <leafValues>
            -4.6876183152198792e-01 5.5791527032852173e-02</leafValues></_>
        <_>
          <internalNodes>
            0 -1 166 2.9762919439235702e-05</internalNodes>
          <leafValues>
            1.7140680551528931e-01 -1.4459699392318726e-01</leafValues></_>
        <_>
          <internalNodes>
            0 -1 331 -2.2405217168852687e-04</internalNodes>
          <leafValues>
            2.1753382682800293e-01 -1.0642641782760620e-01</leafValues></_></weakClassifiers></_>
    <!-- stage 13 -->
    <_>
      <maxWeakCount>57</maxWeakCount>
      <stageThreshold>-9.9757772684097290e-01</stageThreshold>
      <weakClassifiers>
        <_>
          <internalNodes>
            0 -1 370 2.9992457712069154e-04</internalNodes>
          <leafValues>
            -1.6543209552764893e-01 -4.5403900742530823e-01</leafValues></_>
        <_>
          <internalNodes>
            0 -1 479 3.9128977805376053e-03</internalNodes>
          <leafValues>
            -1.3665924966335297e-01 1.6132588684558868e-01</leafValues></_>
        <_>
          <internalNodes>
            0 -1 459 -3.1831622123718262e-02</internalNodes>
          <leafValues>
            3.7348651885986328e-01 -6.3805319368839264e-02</leafValues></_>
        <_>
          <internalNodes>
            0 -1 42 -2.8474707505665720e-04</internalNodes>
          <leafValues>
            -1.7308773100376129e-01 1.1477742344141006e-01</leafValues></_>
        <_>
          <internalNodes>
            0 -1 138 -6.5822526812553406e-02</internalNodes>
          <leafValues>
            4.9549072980880737e-01 -1.7770553007721901e-02</leafValues></_>
        <_>
          <internalNodes>
            0 -1 376 -2.0025342237204313e-03</internalNodes>
          <leafValues>
            2.9740452766418457e-01 -8.4066174924373627e-02</leafValues></_>
        <_>
          <internalNodes>
            0 -1 174 2.0571053028106689e-02</internalNodes>
          <leafValues>
            -8.6925879120826721e-02 2.5678610801696777e-01</leafValues></_>
        <_>
          <internalNodes>
            0 -1 433 -9.1148697538301349e-04</internalNodes>
          <leafValues>
            -2.5490760803222656e-01 1.0302533209323883e-01</leafValues></_>
        <_>
          <internalNodes>
            0 -1 181 5.0365641713142395e-02</internalNodes>
          <leafValues>
            -1.2129417061805725e-01 2.0203036069869995e-01</leafValues></_>
        <_>
          <internalNodes>
            0 -1 152 3.1099814921617508e-02</internalNodes>
          <leafValues>
            -5.8883793652057648e-02 3.8945689797401428e-01</leafValues></_>
        <_>
          <internalNodes>
            0 -1 381 1.8242662772536278e-03</internalNodes>
          <leafValues>
            -3.6209627985954285e-02 4.8240971565246582e-01</leafValues></_>
        <_>
          <internalNodes>
            0 -1 120 2.5271130725741386e-03</internalNodes>
          <leafValues>
            -1.0717239975929260e-01 1.9865642488002777e-01</leafValues></_>
        <_>
          <internalNodes>
            0 -1 164 -2.4917632341384888e-02</internalNodes>
          <leafValues>
            4.3453535437583923e-01 -4.2266838252544403e-02</leafValues></_>
        <_>
          <internalNodes>
            0 -1 110 5.8006150647997856e-03</internalNodes>
          <leafValues>
            -9.9113665521144867e-02 2.1163594722747803e-01</leafValues></_>
        <_>
          <internalNodes>
            0 -1 352 -7.7918060123920441e-03</internalNodes>
          <leafValues>
            7.0231163501739502e-01 -3.2906107604503632e-02</leafValues></_>
        <_>
          <internalNodes>
            0 -1 85 -3.1159208156168461e-03</internalNodes>
          <leafValues>
            -5.7098382711410522e-01 3.6969196051359177e-02</leafValues></_>
        <_>
          <internalNodes>
            0 -1 499 -6.3662510365247726e-04</internalNodes>
          <leafValues>
            -2.7556887269020081e-01 6.5765015780925751e-02</leafValues></_>
        <_>
          <internalNodes>
            0 -1 159 1.8236804753541946e-03</internalNodes>
          <leafValues>
            -9.8532199859619141e-02 2.0233316719532013e-01</leafValues></_>
        <_>
          <internalNodes>
            0 -1 112 1.8068067729473114e-03</internalNodes>
          <leafValues>
            4.9931492656469345e-02 -3.7604379653930664e-01</leafValues></_>
        <_>
          <internalNodes>
            0 -1 417 3.4617809578776360e-03</internalNodes>
          <leafValues>
            -7.4170947074890137e-02 2.7906250953674316e-01</leafValues></_>
        <_>
          <internalNodes>
            0 -1 230 1.8646103562787175e-03</internalNodes>
          <leafValues>
            -4.5376051217317581e-02 4.7920048236846924e-01</leafValues></_>
        <_>
          <internalNodes>
            0 -1 81 2.6278200675733387e-04</internalNodes>
          <leafValues>
            1.1776130646467209e-01 -1.8110261857509613e-01</leafValues></_>
        <_>
          <internalNodes>
            0 -1 311 -2.0946009457111359e-01</internalNodes>
          <leafValues>
            6.5026354789733887e-01 -3.1750638037919998e-02</leafValues></_>
        <_>
          <internalNodes>
            0 -1 411 8.8589167717145756e-06</internalNodes>
          <leafValues>
            -1.3691565394401550e-01 1.5901374816894531e-01</leafValues></_>
        <_>
          <internalNodes>
            0 -1 121 -2.4341739714145660e-02</internalNodes>
          <leafValues>
            3.4198436141014099e-01 -6.8688198924064636e-02</leafValues></_>
        <_>
          <internalNodes>
            0 -1 79 -4.3524900684133172e-04</internalNodes>
          <leafValues>
            -2.2860635817050934e-01 9.7736485302448273e-02</leafValues></_>
        <_>
          <internalNodes>
            0 -1 16 3.3966596238315105e-03</internalNodes>
          <leafValues>
            3.0116833746433258e-02 -6.3843923807144165e-01</leafValues></_>
        <_>
          <internalNodes>
            0 -1 160 2.9018581844866276e-03</internalNodes>
          <leafValues>
            -9.4486244022846222e-02 2.3237465322017670e-01</leafValues></_>
        <_>
          <internalNodes>
            0 -1 221 6.2256935052573681e-03</internalNodes>
          <leafValues>
            -7.5466372072696686e-02 2.9137983918190002e-01</leafValues></_>
        <_>
          <internalNodes>
            0 -1 496 1.0424951324239373e-04</internalNodes>
          <leafValues>
            1.1082072556018829e-01 -2.0582878589630127e-01</leafValues></_>
        <_>
          <internalNodes>
            0 -1 394 1.8297599162906408e-03</internalNodes>
          <leafValues>
            -1.0399633646011353e-01 2.2848381102085114e-01</leafValues></_>
        <_>
          <internalNodes>
            0 -1 244 2.8090036721550860e-05</internalNodes>
          <leafValues>
            -1.4806196093559265e-01 1.4480075240135193e-01</leafValues></_>
        <_>
          <internalNodes>
            0 -1 91 -4.0198858827352524e-02</internalNodes>
          <leafValues>
            4.1612124443054199e-01 -5.2127797156572342e-02</leafValues></_>
        <_>
          <internalNodes>
            0 -1 363 3.1730517745018005e-02</internalNodes>
          <leafValues>
            3.8054998964071274e-02 -5.6342387199401855e-01</leafValues></_>
        <_>
          <internalNodes>
            0 -1 83 -9.8260752856731415e-03</internalNodes>
          <leafValues>
            1.6571021080017090e-01 -1.3463218510150909e-01</leafValues></_>
        <_>
          <internalNodes>
            0 -1 438 1.8643241492100060e-04</internalNodes>
          <leafValues>
            1.1268966645002365e-01 -1.8311358988285065e-01</leafValues></_>
        <_>
          <internalNodes>
            0 -1 169 1.8046506447717547e-03</internalNodes>
          <leafValues>
            -8.5646450519561768e-02 2.8274562954902649e-01</leafValues></_>
        <_>
          <internalNodes>
            0 -1 464 -1.1446792996139266e-05</internalNodes>
          <leafValues>
            1.5880450606346130e-01 -1.3217335939407349e-01</leafValues></_>
        <_>
          <internalNodes>
            0 -1 118 2.4075590074062347e-02</internalNodes>
          <leafValues>
            2.6526449248194695e-02 -7.4116867780685425e-01</leafValues></_>
        <_>
          <internalNodes>
            0 -1 322 -2.2764708846807480e-03</internalNodes>
          <leafValues>
            4.7940209507942200e-01 -4.7829736024141312e-02</leafValues></_>
        <_>
          <internalNodes>
            0 -1 369 1.1167235206812620e-03</internalNodes>
          <leafValues>
            4.9835581332445145e-02 -4.6910646557807922e-01</leafValues></_>
        <_>
          <internalNodes>
            0 -1 403 1.0137654840946198e-02</internalNodes>
          <leafValues>
            -4.6239055693149567e-02 4.6260017156600952e-01</leafValues></_>
        <_>
          <internalNodes>
            0 -1 399 -3.7364557385444641e-02</internalNodes>
          <leafValues>
            4.3888685107231140e-01 -4.6051774173974991e-02</leafValues></_>
        <_>
          <internalNodes>
            0 -1 143 4.3528255075216293e-02</internalNodes>
          <leafValues>
            -2.7801867574453354e-02 7.5554043054580688e-01</leafValues></_>
        <_>
          <internalNodes>
            0 -1 414 -7.0495647378265858e-05</internalNodes>
          <leafValues>
            -1.5119671821594238e-01 1.3768501579761505e-01</leafValues></_>
        <_>
          <internalNodes>
            0 -1 284 4.6738251694478095e-04</internalNodes>
          <leafValues>
            9.4272971153259277e-02 -2.1408373117446899e-01</leafValues></_>
        <_>
          <internalNodes>
            0 -1 119 -1.5149712562561035e-02</internalNodes>
          <leafValues>
            -6.8639504909515381e-01 3.1538337469100952e-02</leafValues></_>
        <_>
          <internalNodes>
            0 -1 416 3.9505117456428707e-04</internalNodes>
          <leafValues>
            -1.0319655388593674e-01 2.1589328348636627e-01</leafValues></_>
        <_>
          <internalNodes>
            0 -1 461 6.8824221380054951e-03</internalNodes>
          <leafValues>
            -8.9917711913585663e-02 2.3249511420726776e-01</leafValues></_>
        <_>
          <internalNodes>
            0 -1 305 -5.4784649983048439e-03</internalNodes>
          <leafValues>
            3.9077466726303101e-01 -5.5316004902124405e-02</leafValues></_>
        <_>
          <internalNodes>
            0 -1 127 3.7824466824531555e-02</internalNodes>
          <leafValues>
            -8.7171554565429688e-02 2.4161657691001892e-01</leafValues></_>
        <_>
          <internalNodes>
            0 -1 60 -1.3795885443687439e-01</internalNodes>
          <leafValues>
            4.3555718660354614e-01 -5.4411318153142929e-02</leafValues></_>
        <_>
          <internalNodes>
            0 -1 231 1.2265065684914589e-02</internalNodes>
          <leafValues>
            -1.2468478083610535e-01 2.3087026178836823e-01</leafValues></_>
        <_>
          <internalNodes>
            0 -1 229 4.4086962006986141e-03</internalNodes>
          <leafValues>
            -1.3346225023269653e-01 2.0122484862804413e-01</leafValues></_>
        <_>
          <internalNodes>
            0 -1 55 -3.9707589894533157e-04</internalNodes>
          <leafValues>
            -1.6501058638095856e-01 1.3165500760078430e-01</leafValues></_>
        <_>
          <internalNodes>
            0 -1 478 -1.6121422231663018e-04</internalNodes>
          <leafValues>
            -1.7576351761817932e-01 1.1613506823778152e-01</leafValues></_>
        <_>
          <internalNodes>
            0 -1 349 -2.7754649519920349e-02</internalNodes>
          <leafValues>
            3.3459004759788513e-01 -6.7250452935695648e-02</leafValues></_></weakClassifiers></_>
    <!-- stage 14 -->
    <_>
      <maxWeakCount>58</maxWeakCount>
      <stageThreshold>-1.0516388416290283e+00</stageThreshold>
      <weakClassifiers>
        <_>
          <internalNodes>
            0 -1 256 2.0327260717749596e-03</internalNodes>
          <leafValues>
            -4.1310045123100281e-01 -6.8527922034263611e-02</leafValues></_>
        <_>
          <internalNodes>
            0 -1 421 -1.4056533109396696e-03</internalNodes>
          <leafValues>
            1.7560766637325287e-01 -1.7163445055484772e-01</leafValues></_>
        <_>
          <internalNodes>
            0 -1 412 -1.1631685774773359e-03</internalNodes>
          <leafValues>
            1.7802099883556366e-01 -1.4081910252571106e-01</leafValues></_>
        <_>
          <internalNodes>
            0 -1 384 3.0582103878259659e-02</internalNodes>
          <leafValues>
            -7.3483295738697052e-02 2.6954117417335510e-01</leafValues></_>
        <_>
          <internalNodes>
            0 -1 388 -1.6341707110404968e-01</internalNodes>
          <leafValues>
            -8.5615754127502441e-01 2.3810388520359993e-02</leafValues></_>
        <_>
          <internalNodes>
            0 -1 291 -1.7320469487458467e-03</internalNodes>
          <leafValues>
            2.1546792984008789e-01 -8.7140329182147980e-02</leafValues></_>
        <_>
          <internalNodes>
            0 -1 296 3.1285821460187435e-03</internalNodes>
          <leafValues>
            -1.0680272430181503e-01 1.9965238869190216e-01</leafValues></_>
        <_>
          <internalNodes>
            0 -1 306 -5.1462287083268166e-03</internalNodes>
          <leafValues>
            3.9268237352371216e-01 -2.5716207921504974e-02</leafValues></_>
        <_>
          <internalNodes>
            0 -1 427 1.4423903077840805e-02</internalNodes>
          <leafValues>
            4.1674997657537460e-02 -4.9762615561485291e-01</leafValues></_>
        <_>
          <internalNodes>
            0 -1 455 -6.3743020291440189e-05</internalNodes>
          <leafValues>
            1.3142986595630646e-01 -1.7006301879882813e-01</leafValues></_>
        <_>
          <internalNodes>
            0 -1 418 -2.0020797848701477e-02</internalNodes>
          <leafValues>
            3.2003688812255859e-01 -7.0229724049568176e-02</leafValues></_>
        <_>
          <internalNodes>
            0 -1 84 3.6571311648003757e-04</internalNodes>
          <leafValues>
            7.6504513621330261e-02 -2.5562065839767456e-01</leafValues></_>
        <_>
          <internalNodes>
            0 -1 123 1.7295017605647445e-03</internalNodes>
          <leafValues>
            -1.1922720819711685e-01 1.8344980478286743e-01</leafValues></_>
        <_>
          <internalNodes>
            0 -1 3 -3.8467876613140106e-02</internalNodes>
          <leafValues>
            2.9265254735946655e-01 -7.1519605815410614e-02</leafValues></_>
        <_>
          <internalNodes>
            0 -1 265 -2.1974434275762178e-05</internalNodes>
          <leafValues>
            1.4633060991764069e-01 -1.5070788562297821e-01</leafValues></_>
        <_>
          <internalNodes>
            0 -1 168 -7.9175420105457306e-03</internalNodes>
          <leafValues>
            1.6606140136718750e-01 -1.2898109853267670e-01</leafValues></_>
        <_>
          <internalNodes>
            0 -1 361 9.7863403425435536e-06</internalNodes>
          <leafValues>
            -1.2863081693649292e-01 1.6311834752559662e-01</leafValues></_>
        <_>
          <internalNodes>
            0 -1 233 4.2214021086692810e-03</internalNodes>
          <leafValues>
            5.0437718629837036e-02 -4.1335463523864746e-01</leafValues></_>
        <_>
          <internalNodes>
            0 -1 126 -3.6876507103443146e-02</internalNodes>
          <leafValues>
            2.8566667437553406e-01 -6.8888738751411438e-02</leafValues></_>
        <_>
          <internalNodes>
            0 -1 11 -1.6150493919849396e-01</internalNodes>
          <leafValues>
            -5.3750783205032349e-01 4.0711995214223862e-02</leafValues></_>
        <_>
          <internalNodes>
            0 -1 434 1.0539828799664974e-03</internalNodes>
          <leafValues>
            -1.2092535942792892e-01 1.7339527606964111e-01</leafValues></_>
        <_>
          <internalNodes>
            0 -1 97 -7.3410188779234886e-03</internalNodes>
          <leafValues>
            1.6948935389518738e-01 -1.0973611474037170e-01</leafValues></_>
        <_>
          <internalNodes>
            0 -1 212 1.1915195500478148e-05</internalNodes>
          <leafValues>
            -1.2976844608783722e-01 1.5279857814311981e-01</leafValues></_>
        <_>
          <internalNodes>
            0 -1 389 2.4461506400257349e-03</internalNodes>
          <leafValues>
            -1.0295824706554413e-01 2.1499182283878326e-01</leafValues></_>
        <_>
          <internalNodes>
            0 -1 128 1.9465285539627075e-01</internalNodes>
          <leafValues>
            -8.7002120912075043e-02 2.4471971392631531e-01</leafValues></_>
        <_>
          <internalNodes>
            0 -1 196 -4.9507737159729004e-02</internalNodes>
          <leafValues>
            2.1168857812881470e-01 -1.1084093898534775e-01</leafValues></_>
        <_>
          <internalNodes>
            0 -1 354 -1.1118698865175247e-02</internalNodes>
          <leafValues>
            4.3683311343193054e-01 -4.7970894724130630e-02</leafValues></_>
        <_>
          <internalNodes>
            0 -1 175 8.1936700735241175e-04</internalNodes>
